svm_type c_svc
kernel_type linear
nr_class 2
total_sv 29
rho -0.11455362798145413
label 1 2
nr_sv 14 15
SV
0.0047372578877790785 1:0.62158999 2:0.38725479 3:0.042923714 4:0.0096954797 5:0.017343801 6:0 7:0.012263919 8:0 9:0.022109095 10:0.14865972 11:0.13197927 12:0.20685295 13:0.054996015 14:0.056367353 15:0.0096954797 16:0.0061319596 17:0.0096954797 18:0.013711479 19:0.36882832 20:0.10498084 21:0.1027092 22:0 23:0.10839876 24:0 25:0.10134715 26:0.14987837 27:0.11709477 28:0.099726856 29:0.044719929 30:0.030659798 31:0.22310524 32:0.28320128 33:0.023406957 34:0.10148092 35:0.048477397 36:0 37:0.092353095 38:0.081990557 39:0.12850495 40:0.034165624 41:0.035017551 42:0.006023202 43:0.0038094073 44:0.006023202 45:0.008518094 46:0.04848584 47:0.033804928 48:0.040134136 49:0.0265877 50:0.11582729 51:0.020564497 52:0.049522293 53:0.042287516 54:0 55:0.06195413 56:0.027781727 57:0.019047037 58:0.13860149 59:0.17593544 60:0.014541295 61:0.063043819 62:0.03011601 63:0 64:0.013468289 65:0.018069605 66:0.019047037 67:0.39943905 68:0.84153403 69:0.1110727 70:0.024949751 71:0 72:0 73:0.017062805 74:0.011896399 75:0.014123731 76:0.0093565614 77:0.040761146 78:0.0072369171 79:0.017427547 80:0.014881534 81:0 82:0.065910222 83:0.022961223 84:0.016823629 85:0.014473834 86:0.0028438009 87:0.0099365055 88:0.037934486 89:0.0051047788 90:0 91:0.0047396682 92:0.006358932 93:0.006702903 94:0.14056786 95:0.2961469 96:0.039087946 97:0.0087801456 98:0 99:0 100:0.034527133 101:0.016135688 102:0.0053623223 103:0.10010665 104:0.93147752 105:0.039883155 106:0.013501078 107:0.0021196441 108:0 109:0.03572601 110:0.012445913 111:0.0091190881 112:0.0078454043 113:0.0015414553 114:0.0053859884 115:0.020562027 116:0.0027669968 117:0 118:0.016095133 119:0.005293916 120:0.0098457379 121:0.0097845938 122:0.032455611 123:0.0076660665 124:0.0029065958 125:0.0034467987 126:0.0016248365 127:0.018715104 128:0.0087461962 129:0.0029065958 130:0.054261858 131:0.50489854 132:0.021618285 133:0.007318131 134:0.0011489329 135:0 136:0.0083044757 137:0 138:0.0036332449 139:0.15928256 140:0.84377401 141:0.0098101324 142:0.0033058967 143:0.0011489329 144:0.0026199701 145:0.012234052 146:0.0040239522 147:0.0074838321 148:0.0074373559 149:0.024669796 150:0.0058270446 151:0.0022093291 152:0.002619942 153:0.0012350525 154:0.012234052 155:0.0031548046 156:0.0030651733 157:0.0054847183 158:0.019285254 159:0.0095270539 160:0.01502084 161:0.021529455 162:0.0012350525 163:0.0063123051 164:0 165:0.0027616614 166:0.12107208 167:0.64136006 168:0.007456768 169:0.0025128412 170:0.00087331403 171:0.0019914624 172:0.0042961369 173:0 174:0.0027616614 175:0.2283778 176:0.72061337 177:0.011289856 178:0.0022093291 179:0.00087331403 180:0 181:0.010342451 182:0.0026670159 183:0.0025912432 184:0.0046366837 185:0.016303412 186:0.0080540025 187:0.012698352 188:0.01820062 189:0.0010440915 190:0.009945768 191:0.00073828421 192:0.0030581752 193:0.0078677872 194:0.0056129024 195:0.0090385479 196:0.0070436885 197:0.0057944382 198:0 199:0.0036318781 200:0 201:0.0023346596 202:0.19306655 203:0.60919378 204:0.009544244 205:0.0018677277 206:0.00073828421 207:0 208:0.0013206829 209:0.002841301 210:0.013196694 211:0.072993829 212:0.76459497 213:0.0058599127 214:0.0028015914 215:0 216:0.0010440915 217:0.010567849 218:0.00078446189 219:0.0032494558 220:0.008359896 221:0.0059639743 222:0.0096038846 223:0.0074842521 224:0.0061568646 225:0 226:0.014777714 227:0.015514646 228:0.0042266938 229:0.0066981064 230:0.0084197284 231:0.013047369 232:0.0071102698 233:0.015850087 234:0.015058483 235:0.0014032881 236:0.0030190167 237:0.014022112 238:0.077559395 239:0.81241832 240:0.0062264344 241:0.0029768234 242:0 243:0.0011093966 244:0.009987115 245:0.0066192965 246:0.012916332 247:0.16532405 248:0.54268766 249:0.061697819 250:0.067641061 251:0.037664522 252:0.0067553768 253:0.019284235 254:0.020245897 255:0.0055156405 256:0.00874072 257:0.010987357 258:0.017026215 259:0.0092785743 260:0.020683632 261:0.019650627 262:0.10552815 263:0.0045127369 264:0.00064743623 265:0.0068279665 266:0.00091561312 267:0.0045187712 268:0.0058805096 269:0.012404994 270:0.046354723 271:0.013032725 272:0.0086378767 273:0.016855218 274:0.21574026 275:0.70818237 276:0.080512809 277:0.088268466 278:0.049150465 279:0.0088154552 280:0 281:0.073836529 282:0.17259411 283:0.35342244 284:0.49183407 285:0.12019885 286:0.028571258 287:0.017433296 288:0.035498021 289:0.090967026 290:0.0038900546 291:0.00055810084 292:0.0058858211 293:0.00078927379 294:0.0038952562 295:0.0050690975 296:0.010693312 297:0.039958545 298:0.011967188 299:0.0079968527 300:0.0053217894 301:0.004255571 302:0.007498101 303:0.0076339087 304:0.011514888 305:0.009970038 306:0.0090103747 307:0 308:0.06364832 309:0.148779 310:0.30465605 311:0.42396918 312:0.10361342 313:0.024628902 314:0.015027792 315:0.030599886 316:0.003551732 317:0 318:0.0023011087 319:0.13893053 320:0.81156518 321:0.0040245225 322:0.0028592095 323:0.0017648699 324:0 325:0.010290109 326:0.0068761757 327:0.0045759951 328:0.0036591963 329:0.0064473189 330:0.0065640946 331:0.0099011946 332:0.0085728393 333:0.007747663 334:0.014403873 335:0.0057900122 336:0.0096675429 337:0.011939825 338:0.0061079863 339:0.012334964 340:0.010374341 341:0.01657576 342:0.013765062 343:0.0030539932 344:0 345:0.0019786319 346:0.11946084 347:0.69783264 348:0.0034605269 349:0.0024585206 350:0.0015175414 351:0 352:0 353:0 354:0.0074498764 355:0.10465736 356:0.69711868 357:0 358:0 359:0 360:0 361:0.014169522 362:0.0056958084 363:0.0095102515 364:0.011745563 365:0.0060086091 366:0.012134273 367:0.01020555 368:0.016306072 369:0.013541103 370:0.0076776672 371:0.0066011997 372:0.0044938337 373:0.006467092 374:0.012696748 375:0.017608311 376:0.0080721208 377:0.0025440561 378:0.0021112101 379:0 380:0 381:0.0073286666 382:0.10295458 383:0.68577652 384:0 385:0 386:0 387:0 388:0 389:0 390:0 391:0.021148904 392:0.71881825 393:0 394:0 395:0 396:0 397:0.0077705798 398:0.0066810853 399:0.0045482166 400:0.0065453546 401:0.012850399 402:0.017821401 403:0.008169807 404:0.0025748434 405:0.0021367592 406:0.0054056207 407:0.00075545847 408:0.0034033762 409:0.0050289765 410:0.084349301 411:0.0096621992 412:0.0069516663 413:0.0022663753 414:0 415:0 416:0 417:0 418:0.021404841 419:0.72751715 420:0 421:0 422:0 423:0 424:0 425:0 426:0 427:0.02094133 428:0.67953262 429:0 430:0 431:0 432:0 433:0.005721545 434:0.00079961023 435:0.0036022819 436:0.0053228883 437:0.089278982 438:0.010226893 439:0.0073579471 440:0.0023988306 441:0 442:0.0093909495 443:0 444:0.0033051364 445:0.02745306 446:0.12771201 447:0.015316867 448:0.013237784 449:0.0072629749 450:0.0022616392 451:0 452:0 453:0 454:0.022165218 455:0.71924699 456:0 457:0 458:0 459:0 460:0 461:0 462:0 463:0 464:0.6755381 465:0 466:0 467:0 468:0 469:0.010015632 470:0 471:0.0035249928 472:0.029279227 473:0.13620736 474:0.016335739 475:0.014118356 476:0.0077461051 477:0.0024120826 478:0.018477149 479:0.00085279999 480:0.0075510123 481:0.0024120826 482:0.2567119 483:0.018886627 484:0.0059329385 485:0.0032948476 486:0.008265423 487:0 488:0 489:0 490:0 491:0.72047463 492:0 493:0 494:0 495:0 496:0 497:0 498:0 499:0 500:0.62776174 501:0 502:0 503:0 504:0 505:0.019723362 506:0.00091031806 507:0.0080602989 508:0.0025747683 509:0.27402613 510:0.020160457 511:0.0063330923 512:0.0035170724 513:0.0088228939 514:0.017978755 515:0.0036412722 516:0.00376274 517:0.074915337 518:0.33223964 519:0.011498928 520:0.015951626 521:0.0097502827 522:0 523:0 524:0 525:0 526:0 527:0.67010185 528:0 529:0 530:0 531:0 532:0 533:0 534:0 535:0 536:0.59837038 537:0 538:0 539:0 540:0 541:0.017886336 542:0.0036225544 543:0.0037433978 544:0.074530238 545:0.33053178 546:0.011439818 547:0.015869628 548:0.0097001618 549:0 550:0.012611382 551:0.0027169157 552:0.0026058507 553:0.0037350888 554:0.63986761 555:0.027083778 556:0.01154175 557:0.0040688984 558:0.004229312 559:0 560:0 561:0 562:0 563:0.59529448 564:0 565:0 566:0 567:0 568:0 569:0 570:0 571:0.055107196 572:0.34123142 573:0 574:0 575:0 576:0 577:0.011552815 578:0.0024888647 579:0.0023871222 580:0.0034215749 581:0.58615875 582:0.024810434 583:0.010572964 584:0.0037273654 585:0.0038743143 586:0.0086392975 587:0.002827615 588:0.0031481924 589:0.015893982 590:0.70590288 591:0.031024457 592:0.0092442591 593:0.0016592432 594:0 595:0 596:0 597:0 598:0.050481638 599:0.31258932 600:0 601:0 602:0 603:0 604:0 605:0 606:0 607:0.024957687 608:0.23436398 609:0 610:0 611:0 612:0 613:0.0078939659 614:0.0025836703 615:0.0028765908 616:0.014522772 617:0.64500305 618:0.028347907 619:0.008446736 620:0.0015160966 621:0 622:0.0074582088 623:0 624:0.0023971591 625:0.042242607 626:0.71791922 627:0.025334617 628:0.0034034959 629:0.0092508347 630:0 631:0 632:0 633:0 634:0.022804531 635:0.21414487 636:0 637:0 638:0 639:0 640:0 641:0 642:0 643:0 644:0.13577462 645:0 646:0 647:0 648:0 649:0.0086210805 650:0 651:0.0027709202 652:0.048829005 653:0.82985601 654:0.02928475 655:0.0039341634 656:0.01069321 657:0 658:0.038020943 659:0.0052574514 660:0.11879538 661:0.011674419 662:0.35835934 663:0.096050874 664:0.15545767 665:0.06651588 666:0.011445697 667:0 668:0 669:0 670:0 671:0.15694438 672:0 673:0 674:0 675:0 676:0 677:0 678:0 679:0.044969227 680:0.30749557 681:0.067723717 682:0 683:0 684:0 685:0.027170027 686:0.0077334961 687:0.0075661538 688:0 689:0.0079852792 690:0 691:0.0074658169 692:0.011040907 693:0.0086258781 694:0.0073464569 695:0.0032943285 696:0.002258578 697:0.016435222 698:0.020862244 699:0.0017242918 700:0.0074756712 701:0.0035711254 702:0 703:0.0009582335 704:0 705:0.0032004248 706:0.4186214 707:0.44577006 708:0.0034432752 709:0.0018068624 710:0.0014284502 711:0 712:0.0009582335 713:0 714:0 715:0.018015565 716:0.78971705 717:0.0037554828 718:0.0025068001 719:0 720:0 721:0.0071837431 722:0.0032213638 723:0.0022085537 724:0.016071205 725:0.020400174 726:0.0016861012 727:0.0073100955 728:0.00349203 729:0 730:0.0015616833 731:0.0020952179 732:0.0022085537 733:0.046316 734:0.097578068 735:0.01287917 736:0.0028929887 737:0 738:0 739:0.00093700997 740:0 741:0 742:0.017616546 743:0.77222592 744:0.0036723041 745:0.002451278 746:0 747:0 748:0.0021863566 749:0 750:0.0026502643 751:0.058844477 752:0.62225141 753:0 754:0.00088342146 755:0.001396812 756:0 757:0.0019276197 758:0.0025861731 759:0.0027260659 760:0.057168847 761:0.12044273 762:0.01589704 763:0.003570879 764:0 765:0 766:0.01404216 767:0.0065623727 768:0.0021808527 769:0.040713303 770:0.37883124 771:0.016220451 772:0.0054908788 773:0.00086205774 774:0 775:0.0026986675 776:0 777:0.0032712789 778:0.072633019 779:0.76805846 780:0 781:0.0010904263 782:0.0017241155 783:0 784:0.0034697154 785:0.00086205774 786:0.00054521317 787:0.099879724 788:0.48055027 789:0.010143777 790:0.00054521317 791:0 792:0 793:0.01501548 794:0.0070172374 795:0.0023320164 796:0.043535308 797:0.40508958 798:0.017344756 799:0.0058714739 800:0.00092181046 801:0 802:0.0066628368 803:0 804:0.0029150206 805:0.12779539 806:0.67697573 807:0.0078708534 808:0.002652383 809:0.00092181046 810:0.0021020512 811:0.0037102155 812:0.00092181046 813:0.00058300411 814:0.10680279 815:0.51385916 816:0.010846884 817:0.00058300411 818:0 819:0 820:0.0025403753 821:0 822:0.0011660082 823:0.010704296 824:0.28791804 825:0.0035433553 826:0.0034980245 827:0.00092181046 828:0 829:0.0060812641 830:0 831:0.0026605799 832:0.11664064 833:0.61788519 834:0.0071838377 835:0.0024208669 836:0.00084134926 837:0.0019185715 838:0.0041388911 839:0 840:0.0026605799 841:0.22001879 842:0.6942377 843:0.010876628 844:0.0021284639 845:0.00084134926 846:0 847:0.002318636 848:0 849:0.001064232 850:0.0097699599 851:0.26278681 852:0.0032340698 853:0.0031926958 854:0.00084134926 855:0 856:0.0018813141 857:0.00084134926 858:0 859:0 860:0.069078756 861:0.0049037426 862:0.0021284639 863:0 864:0 865:0.0036274558 866:0 867:0.0023318169 868:0.19283147 869:0.60845202 870:0.0095326228 871:0.0018654535 872:0.00073738527 873:0 874:0.0013190749 875:0.0028378414 876:0.013180626 877:0.072904951 878:0.76366399 879:0.0058527776 880:0.0027981802 881:0 882:0.0010428202 883:0.0016488436 884:0.00073738527 885:0 886:0 887:0.060542821 888:0.0042977961 889:0.0018654535 890:0 891:0 892:0 893:0 894:0 895:0 896:0.0085739865 897:0 898:0 899:0 900:0 901:0.0014044207 902:0.0030214534 903:0.014033429 904:0.077621995 905:0.81307403 906:0.0062314599 907:0.002979226 908:0 909:0.0011102921 910:0.0099951758 911:0.006624639 912:0.012926757 913:0.16545749 914:0.54312567 915:0.061747617 916:0.067695655 917:0.037694922 918:0.0067608292 919:0 920:0 921:0 922:0 923:0.0091287345 924:0 925:0 926:0 927:0 928:0.00070221035 929:0 930:0 931:0 932:0.0031599466 933:0 934:0 935:0 936:0 937:0.013135348 938:0.008705894 939:0.016987942 940:0.21743907 941:0.71375882 942:0.081146792 943:0.088963519 944:0.049537491 945:0.0088848708 946:0 947:0.074417941 948:0.17395317 949:0.3562054 950:0.49570692 951:0.12114534 952:0.028796237 953:0.017570571 954:0.035777543 955:0.00092282294 956:0 957:0 958:0 959:0.0041527032 960:0 961:0 962:0 963:0 964:0 965:0 966:0.0016636427 967:0 968:0.013380933 969:0 970:0 971:0 972:0 973:0 974:0.063835455 975:0.14921643 976:0.30555177 977:0.4252157 978:0.10391805 979:0.024701314 980:0.015071975 981:0.030689854 982:0.0035621746 983:0 984:0.0023078742 985:0.139339 986:0.81395129 987:0.0040363551 988:0.002867616 989:0.0017700588 990:0 991:0 992:0 993:0.001427067 994:0 995:0.011478118 996:0 997:0 998:0 999:0 1000:0.0051453633 1001:0 1002:0 1003:0.0037664764 1004:0.06895634 1005:0.0017700588 1006:0 1007:0.00088502941 1008:0 1009:0.0029854007 1010:0 1011:0.0019341919 1012:0.11677776 1013:0.68215937 1014:0.0033828037 1015:0.0024033024 1016:0.0014834576 1017:0 1018:0 1019:0 1020:0.0072825528 1021:0.10230676 1022:0.68146145 1023:0 1024:0 1025:0 1026:0 1027:0.0043122455 1028:0 1029:0 1030:0.0031566228 1031:0.05779119 1032:0.0014834576 1033:0 1034:0.00074172878 1035:0 1036:0 1037:0 1038:0 1039:0 1040:0.2066614 1041:0 1042:0 1043:0 1044:0 1045:0 1046:0 1047:0.0066517 1048:0.093444418 1049:0.62242969 1050:0 1051:0 1052:0 1053:0 1054:0 1055:0 1056:0 1057:0.019195328 1058:0.65241927 1059:0 1060:0 1061:0 1062:0 1063:0 1064:0 1065:0 1066:0 1067:0.18875931 1068:0 1069:0 1070:0 1071:0 1072:0 1073:0 1074:0 1075:0 1076:0.37703545 1077:0 1078:0 1079:0 1080:0 1081:0 1082:0 1083:0 1084:0.01759765 1085:0.59811668 1086:0 1087:0 1088:0 1089:0 1090:0 1091:0 1092:0 1093:0.017216582 1094:0.55866696 1095:0 1096:0 1097:0 1098:0 1099:0 1100:0 1101:0 1102:0 1103:0.34565378 1104:0 1105:0 1106:0 1107:0 1108:0 1109:0 1110:0 1111:0 1112:0.45832853 1113:0 1114:0 1115:0 1116:0 1117:0 1118:0 1119:0 1120:0.016330588 1121:0.52991702 1122:0 1123:0 1124:0 1125:0 1126:0 1127:0 1128:0 1129:0 1130:0.49771378 1131:0 1132:0 1133:0 1134:0 1135:0 1136:0 1137:0 1138:0 1139:0.43474217 1140:0 1141:0 1142:0 1143:0 1144:0 1145:0 1146:0 1147:0 1148:0.53122641 1149:0 1150:0 1151:0 1152:0 1153:0 1154:0 1155:0 1156:0 1157:0.49043191 1158:0 1159:0 1160:0 1161:0 1162:0 1163:0 1164:0 1165:0 1166:0.42732163 1167:0 1168:0 1169:0 1170:0 1171:0 1172:0 1173:0 1174:0 1175:0.52345422 1176:0 1177:0 1178:0 1179:0 1180:0 1181:0 1182:0 1183:0.036556253 1184:0.54911937 1185:0 1186:0 1187:0 1188:0 1189:0 1190:0 1191:0 1192:0 1193:0.4141015 1194:0 1195:0 1196:0 1197:0 1198:0 1199:0 1200:0 1201:0 1202:0.36977375 1203:0 1204:0 1205:0 1206:0 1207:0 1208:0 1209:0 1210:0.035425305 1211:0.53213117 1212:0 1213:0 1214:0 1215:0 1216:0 1217:0 1218:0 1219:0.031480547 1220:0.63747766 1221:0 1222:0 1223:0 1224:0 1225:0 1226:0 1227:0 1228:0 1229:0.37585257 1230:0 1231:0 1232:0 1233:0 1234:0 1235:0 1236:0 1237:0.034793169 1238:0.21544414 1239:0 1240:0 1241:0 1242:0 1243:0 1244:0 1245:0 1246:0.031998065 1247:0.64795735 1248:0 1249:0 1250:0 1251:0 1252:0 1253:0 1254:0 1255:0.024864196 1256:0.6241933 1257:0 1258:0 1259:0 1260:0 1261:0 1262:0 1263:0 1264:0.036893356 1265:0.22844879 1266:0 1267:0 1268:0 1269:0 1270:0 1271:0 1272:0 1273:0.018239757 1274:0.17127958 1275:0 1276:0 1277:0 1278:0 1279:0 1280:0 1281:0 1282:0.02636505 1283:0.66187091 1284:0 1285:0 1286:0 1287:0 1288:0 1289:0 1290:0.0065188903 1291:0.033021675 1292:0.69044719 1293:0.0094708655 1294:0.0085142858 1295:0 1296:0 1297:0 1298:0 1299:0 1300:0.016417243 1301:0.15416535 1302:0 1303:0 1304:0 1305:0 1306:0 1307:0 1308:0 1309:0 1310:0.09774571 1311:0 1312:0 1313:0 1314:0 1315:0 1316:0 1317:0.0058675237 1318:0.029722153 1319:0.6214578 1320:0.008524538 1321:0.0076635395 1322:0 1323:0 1324:0.0087080284 1325:0.0041993769 1326:0 1327:0.0033993182 1328:0.76094819 1329:0 1330:0 1331:0.0017599187 1332:0 1333:0 1334:0 1335:0 1336:0 1337:0.086597471 1338:0 1339:0 1340:0 1341:0 1342:0 1343:0 1344:0 1345:0.024812747 1346:0.16966736 1347:0.037368031 1348:0 1349:0 1350:0 1351:0.0077148474 1352:0.0037204234 1353:0 1354:0.0030116141 1355:0.6741594 1356:0 1357:0 1358:0.0015591939 1359:0 1360:0.0034662909 1361:0.0033774846 1362:0.0025215518 1363:0 1364:0.71208269 1365:0.0024174275 1366:0.0053556967 1367:0 1368:0 1369:0.00055263514 1370:0 1371:0.0018457581 1372:0.24142852 1373:0.25708577 1374:0.0019858154 1375:0.0010420588 1376:0.00082381984 1377:0 1378:0.00055263514 1379:0 1380:0 1381:0.010389988 1382:0.45544785 1383:0.0021658727 1384:0.0014457288 1385:0 1386:0 1387:0.0020263288 1388:0.00041190992 1389:0.0010420588 1390:0.00041190992 1391:0.60325468 1392:0.00041190992 1393:0.0002605147 1394:0.00041190992 1395:0.00058252859 1396:0 1397:0 1398:0.0010420588 1399:0.0015833442 1400:0.55047348 1401:0.033265916 1402:0.0023446322 1403:0.0016476397 1404:0 1405:0.00062029317 1406:0 1407:0 1408:0.011662014 1409:0.51120744 1410:0.0024310362 1411:0.0016227266 1412:0 1413:0 1414:0.0014473507 1415:0 1416:0.001754454 1417:0.038954577 1418:0.4119255 1419:0 1420:0.000584818 1421:0.00092467848 1422:0 1423:0 1424:0 1425:0.001169636 1426:0.0017771899 1427:0.61786687 1428:0.037338596 1429:0.0026316809 1430:0.001849357 1431:0 1432:0.028867178 1433:0.00046233924 1434:0.000584818 1435:0 1436:0.42599658 1437:0.018567631 1438:0.021779245 1439:0.025004925 1440:0.019893782 1441:0.0018428607 1442:0 1443:0.0022338844 1444:0.04959949 1445:0.52449021 1446:0 1447:0.00074462814 1448:0.0011773605 1449:0 1450:0.0023693923 1451:0.00058868025 1452:0.00037231407 1453:0.068205665 1454:0.3281572 1455:0.0069269622 1456:0.00037231407 1457:0 1458:0 1459:0.03675556 1460:0.00058868025 1461:0.00074462814 1462:0 1463:0.54240643 1464:0.023641509 1465:0.027730744 1466:0.031837889 1467:0.025330051 1468:0.0032751074 1469:0 1470:0.082424091 1471:0.1729827 1472:0.51376168 1473:0.011602464 1474:0.034464811 1475:0.092472107 1476:0.030892425 1477:0.0022629944 1478:0.00056224548 1479:0.00035559525 1480:0.06514288 1481:0.31342125 1482:0.0066159059 1483:0.00035559525 1484:0 1485:0 1486:0.0015494666 1487:0 1488:0.00071119051 1489:0.0065289364 1490:0.17561161 1491:0.0021612204 1492:0.0021335715 1493:0.00056224548 1494:0 1495:0.0031280382 1496:0 1497:0.078722826 1498:0.16521489 1499:0.49069114 1500:0.011081453 1501:0.032917164 1502:0.088319634 1503:0.029505196 1504:0.0018417142 1505:0.001124491 1506:0.0095487379 1507:0.050109712 1508:0.76128392 1509:0.016104801 1510:0.00035559525 1511:0.00056224548 1512:0.001282117 1513:0.0013784955 1514:0 1515:0.00063271637 1516:0.0058085209 1517:0.15623428 1518:0.0019227471 1519:0.0018981491 1520:0.00050020623 1521:0 1522:0.0011184951 1523:0.00050020623 1524:0 1525:0 1526:0.041069299 1527:0.0029154154 1528:0.0012654327 1529:0 1530:0 1531:0.0016384959 1532:0.0010004125 1533:0.0084951117 1534:0.044580509 1535:0.67728238 1536:0.014327766 1537:0.00031635819 1538:0.00050020623 1539:0.0011406457 1540:0.0013421941 1541:0.010186296 1542:0.0033289363 1543:0.018926179 1544:0.71569318 1545:0.0095210642 1546:0.0083876518 1547:0.002419675 1548:0.0029845173 1549:0.0012304194 1550:0.00055026027 1551:0 1552:0 1553:0.045178973 1554:0.0032071517 1555:0.0013920606 1556:0 1557:0 1558:0 1559:0 1560:0 1561:0 1562:0.0063981807 1563:0 1564:0 1565:0 1566:0 1567:0.0014765032 1568:0.011205606 1569:0.0036620524 1570:0.020820062 1571:0.78731032 1572:0.010473807 1573:0.0092269774 1574:0.0026618041 1575:0.0032831684 1576:0.0068433858 1577:0.011052717 1578:0 1579:0.11282506 1580:0.60089794 1581:0.038383553 1582:0.035169143 1583:0.015699545 1584:0.018042625 1585:0 1586:0 1587:0 1588:0 1589:0.0067522286 1590:0 1591:0 1592:0 1593:0 1594:0.0005194022 1595:0 1596:0 1597:0 1598:0.0023373099 1599:0 1600:0 1601:0 1602:0 1603:0.0072220695 1604:0.011664327 1605:0 1606:0.11906832 1607:0.63414907 1608:0.040507535 1609:0.037115252 1610:0.016568291 1611:0.019041027 1612:0.000821247 1613:0 1614:0 1615:0.12527642 1616:0.7475117 1617:0.068071203 1618:0.011314211 1619:0.016248555 1620:0.01698132 1621:0.00045356174 1622:0 1623:0 1624:0 1625:0.0020410278 1626:0 1627:0 1628:0 1629:0 1630:0 1631:0 1632:0.00081767005 1633:0 1634:0.0065766452 1635:0 1636:0 1637:0 1638:0 1639:0.00071714409 1640:0 1641:0 1642:0.10939613 1643:0.65275562 1644:0.059442361 1645:0.009879999 1646:0.014188855 1647:0.014828734 1648:0.0085755323 1649:0.010972133 1650:0.017755379 1651:0.015271625 1652:0.74600193 1653:0.01088523 1654:0.014068915 1655:0.014579886 1656:0.0071606753 1657:0 1658:0 1659:0.00082301077 1660:0 1661:0.0066196015 1662:0 1663:0 1664:0 1665:0 1666:0.0029674076 1667:0 1668:0 1669:0.002172183 1670:0.039768147 1671:0.0010208192 1672:0 1673:0.00051040962 1674:0 1675:0.0086315445 1676:0.011043799 1677:0.01787135 1678:0.015371374 1679:0.75087454 1680:0.010956328 1681:0.014160808 1682:0.014675116 1683:0.0072074463 1684:0.0016259352 1685:0.0080963157 1686:0.0061740274 1687:0.062275546 1688:0.65484869 1689:0.01273773 1690:0.01026059 1691:0.011177373 1692:0.0016617733 1693:0.0033353181 1694:0 1695:0 1696:0.0024414986 1697:0.044698755 1698:0.0011473843 1699:0 1700:0.00057369217 1701:0 1702:0 1703:0 1704:0 1705:0 1706:0.15984283 1707:0 1708:0 1709:0 1710:0 1711:0.0018275249 1712:0.009100128 1713:0.006939507 1714:0.069996707 1715:0.73603934 1716:0.014317002 1717:0.011532737 1718:0.012563186 1719:0.0018678063 1720:0.014368598 1721:0.011993397 1722:0.011198753 1723:0.036474436 1724:0.64992697 1725:0.014103198 1726:0.024178436 1727:0.011497077 1728:0.0044338696 1729:0 1730:0 1731:0 1732:0 1733:0.18199028 1734:0 1735:0 1736:0 1737:0 1738:0 1739:0 1740:0 1741:0 1742:0.36351471 1743:0 1744:0 1745:0 1746:0 1747:0.016359477 1748:0.013655174 1749:0.012750426 1750:0.041528249 1751:0.73997933 1752:0.016057305 1753:0.027528543 1754:0.013090085 1755:0.0050482163 1756:0.024459539 1757:0.020519913 1758:0.038059182 1759:0.042912602 1760:0.52707726 1761:0.016985009 1762:0.023617056 1763:0.0090464249 1764:0.02378155 1765:0 1766:0 1767:0 1768:0 1769:0.42074226 1770:0 1771:0 1772:0 1773:0 1774:0 1775:0 1776:0 1777:0 1778:0.55789402 1779:0 1780:0 1781:0 1782:0 1783:0.028310165 1784:0.02375033 1785:0.044050779 1786:0.049668265 1787:0.6100542 1788:0.019658932 1789:0.027335052 1790:0.010470589 1791:0.027525442 1792:0.049914951 1793:0.03487783 1794:0.0047814331 1795:0.12435078 1796:0.29394806 1797:0.12963164 1798:0.037244047 1799:0.081518684 1800:0.036796509 1801:0 1802:0 1803:0 1804:0 1805:0.56572905 1806:0 1807:0 1808:0 1809:0 1810:0 1811:0 1812:0 1813:0 1814:0.69128378 1815:0 1816:0 1817:0 1818:0 1819:0.050615954 1820:0.035367652 1821:0.0048485833 1822:0.12609716 1823:0.29807625 1824:0.13145218 1825:0.0377671 1826:0.082663527 1827:0.037313277 1828:0.011903287 1829:0.018419601 1830:0.03168887 1831:0.058896738 1832:0.17994693 1833:0.094962307 1834:0.10152862 1835:0.076064342 1836:0.064132254 1837:0 1838:0 1839:0 1840:0 1841:0.65636407 1842:0 1843:0 1844:0 1845:0 1846:0 1847:0 1848:0 1849:0.045838222 1850:0.68854584 1851:0 1852:0 1853:0 1854:0 1855:0.011302001 1856:0.017489148 1857:0.03008813 1858:0.055921612 1859:0.17085704 1860:0.090165355 1861:0.096399978 1862:0.072222006 1863:0.060892659 1864:0.027372647 1865:0.030042236 1866:0.037482223 1867:0.022988321 1868:0.12939589 1869:0.080625353 1870:0.058581642 1871:0.040063834 1872:0.033450037 1873:0 1874:0 1875:0 1876:0.041704733 1877:0.6264558 1878:0 1879:0 1880:0 1881:0 1882:0 1883:0 1884:0 1885:0.037060733 1886:0.75047583 1887:0 1888:0 1889:0 1890:0 1891:0.024904302 1892:0.027333159 1893:0.034102241 1894:0.020915335 1895:0.11772754 1896:0.073354912 1897:0.053299006 1898:0.036451053 1899:0.03043366 1900:0.043841224 1901:0.05470286 1902:0.029438779 1903:0.035411493 1904:0.035725002 1905:0.035520208 1906:0.025023515 1907:0.048974274 1908:0.036394515 1909:0 1910:0 1911:0 1912:0.034888714 1913:0.70649267 1914:0 1915:0 1916:0 1917:0 1918:0 1919:0 1920:0 1921:0.027110384 1922:0.68058183 1923:0 1924:0 1925:0 1926:0 1927:0.04127182 1928:0.051496888 1929:0.02771346 1930:0.033336131 1931:0.033631266 1932:0.033438475 1933:0.023556961 1934:0.046104037 1935:0.034261541 1936:0.016540924 1937:0.026487891 1938:0.040501713 1939:0.085004761 1940:0.091546075 1941:0.053002218 1942:0.012231291 1943:0.030725299 1944:0.035512239 1945:0 1946:0 1947:0 1948:0.02661405 1949:0.66812182 1950:0 1951:0 1952:0 1953:0 1954:0 1955:0 1956:0.0065804567 1957:0.033333542 1958:0.69696799 1959:0.0095603113 1960:0.0085946973 1961:0 1962:0 1963:0.016238095 1964:0.026002954 1965:0.039760212 1966:0.083448504 1967:0.089870061 1968:0.05203186 1969:0.012007362 1970:0.030162784 1971:0.034862085 1972:0.031819346 1973:0.082318745 1974:0.13112 1975:0.12254354 1976:0.038530309 1977:0.022706812 1978:0.0027371093 1979:0.030001948 1980:0.019421807 1981:0 1982:0 1983:0.0057557827 1984:0.029156125 1985:0.60962277 1986:0.0083621969 1987:0.0075175953 1988:0 1989:0 1990:0.0085421929 1991:0.0041194041 1992:0 1993:0.0033345817 1994:0.74645671 1995:0 1996:0 1997:0.0017264029 1998:0 1999:0.027831692 2000:0.07200242 2001:0.11468782 2002:0.10718618 2003:0.033701625 2004:0.019861155 2005:0.0023940901 2006:0.026242053 2007:0.016987833 2008:0.019098808 2009:0.012593577 2010:0.014433392 2011:0 2012:0.0414963 2013:0.11780278 2014:0.13759301 2015:0.039292569 2016:0.011293757 2017:0.0077291436 2018:0.0037273176 2019:0 2020:0.0030171949 2021:0.67540866 2022:0 2023:0 2024:0.0015620832 2025:0 2026:0.0034727142 2027:0.0033837433 2028:0.0025262244 2029:0 2030:0.71340223 2031:0.0024219071 2032:0.0053656212 2033:0 2034:0 2035:0.017280976 2036:0.011394916 2037:0.013059616 2038:0 2039:0.037546665 2040:0.10659026 2041:0.12449685 2042:0.035552686 2043:0.010218813 2044:0.010424827 2045:0.0042227177 2046:0.0049883176 2047:0.011988824 2048:0.042542423 2049:0.035702156 2050:0.026282641 2051:0.019834022 2052:0.0053605061 2053:0.0024778779 2054:0.00050370032 2055:0.0012742722 2056:0.00050370032 2057:0.73768454 2058:0.00050370032 2059:0.00031856805 2060:0.00050370032 2061:0.00071233983 2062:0 2063:0 2064:0.0012742722 2065:0.0019361781 2066:0.67314153 2067:0.040678924 2068:0.0028671123 2069:0.0020148013 2070:0 2071:0.0054428339 2072:0.0060444045 2073:0.0025485441 2074:0.0010074006 2075:0.012864155 2076:0.0031444199 2077:0.00063713609 2078:0.00050370032 2079:0 2080:0.0081459735 2081:0.008059206 2082:0.0019114082 2083:0 2084:0.015864946 2085:0.019537887 2086:0.0014493285 2087:0 2088:0 2089:0 2090:0 2091:0.0014998118 2092:0.0022788717 2093:0.79228413 2094:0.047878886 2095:0.0033745765 2096:0.0023714108 2097:0 2098:0.037016076 2099:0.0005928527 2100:0.00074990592 2101:0 2102:0.5462509 2103:0.023809076 2104:0.027927294 2105:0.03206355 2106:0.025509585 2107:0.0095877691 2108:0.0094856443 2109:0.0022497177 2110:0 2111:0.018672961 2112:0.022995993 2113:0.0017058522 2114:0 2115:0 2116:0.12182107 2117:0.06783956 2118:0.0026246708 2119:0.0005928527 2120:0.0031926094 2121:0.035481887 2122:0.13525479 2123:0.15825824 2124:0.045347212 2125:0.040416066 2126:0.00064730724 2127:0.00081878606 2128:0 2129:0.59642498 2130:0.02599598 2131:0.030492464 2132:0.035008642 2133:0.027852684 2134:0.0036012771 2135:0 2136:0.090632751 2137:0.19021014 2138:0.56492749 2139:0.012757959 2140:0.03789718 2141:0.10168145 2142:0.033969018 2143:0.13301055 2144:0.07407074 2145:0.0028657513 2146:0.00064730724 2147:0.0034858561 2148:0.038740959 2149:0.14767818 2150:0.17279453 2151:0.049512431 2152:0.21770234 2153:0.04236385 2154:0.032339633 2155:0.018000873 2156:0.074618152 2157:0.24129834 2158:0.091401721 2159:0.2096828 2160:0.13000974 2161:0.0030509575 2162:0 2163:0.076782949 2164:0.16114369 2165:0.4785996 2166:0.010808386 2167:0.032106023 2168:0.086143274 2169:0.028778133 2170:0.0017963309 2171:0.0010967814 2172:0.0093134392 2173:0.048874915 2174:0.74252446 2175:0.015707949 2176:0.00034683272 2177:0.00054839071 2178:0.0012505232 2179:0.18443474 2180:0.035890131 2181:0.027397738 2182:0.015250118 2183:0.063215578 2184:0.20442498 2185:0.077434411 2186:0.17764068 2187:0.11014265 2188:0.0049735072 2189:0.0042194024 2190:0.018657377 2191:0.083173664 2192:0.16824032 2193:0.086683952 2194:0.019963555 2195:0.016957062 2196:0.0056619844 2197:0.0016159878 2198:0.00098666974 2199:0.0083784139 2200:0.043968104 2201:0.66797851 2202:0.014130945 2203:0.00031201236 2204:0.00049333487 2205:0.0011249766 2206:0.0013237563 2207:0.010046367 2208:0.0032832065 2209:0.01866619 2210:0.70586167 2211:0.0093902728 2212:0.0082724302 2213:0.0023864358 2214:0.0029435188 2215:0.0044741905 2216:0.0037957943 2217:0.016784265 2218:0.074823421 2219:0.15134979 2220:0.077981293 2221:0.017959308 2222:0.015254653 2223:0.0050935479 2224:0 2225:0.0045485836 2226:0.010314803 2227:0.042595362 2228:0.11466249 2229:0.038218169 2230:0.0086865804 2231:0.022813883 2232:0.0096790467 2233:0.0013466215 2234:0.010219897 2235:0.0033399171 2236:0.018988609 2237:0.71805395 2238:0.0095524702 2239:0.0084153191 2240:0.0024276565 2241:0.0029943619 2242:0.006241402 2243:0.010080456 2244:0 2245:0.10290032 2246:0.54803949 2247:0.035007114 2248:0.032075461 2249:0.014318523 2250:0.016455492 2251:0 2252:0.0046271509 2253:0.01049297 2254:0.043331108 2255:0.11664304 2256:0.038878308 2257:0.0088366229 2258:0.023207945 2259:0.009846232 2260:0.0063884281 2261:0.061147873 2262:0.36058949 2263:0.11423168 2264:0.066740194 2265:0.004968123 2266:0.012707125 2267:0.013951491 2268:0.02021657 2269:0.0062980844 2270:0.010172003 2271:0 2272:0.10383482 2273:0.5530166 2274:0.035325037 2275:0.03236676 2276:0.014448559 2277:0.016604935 2278:0.00071617739 2279:0 2280:0 2281:0.10924866 2282:0.65187572 2283:0.059362233 2284:0.0098666808 2285:0.014169729 2286:0.014808745 2287:0.0064464456 2288:0.061703198 2289:0.36386424 2290:0.11526909 2291:0.067346306 2292:0.0050132418 2293:0.012822527 2294:0.014078193 2295:0.02040017 2296:0.0054948938 2297:0.0089005389 2298:0.082902395 2299:0.046233353 2300:0.12181931 2301:0.098184915 2302:0.19775496 2303:0.10507695 2304:0.030467421 2305:0.00064979808 2306:0 2307:0 2308:0.099122889 2309:0.59145625 2310:0.053860211 2311:0.0089521819 2312:0.0128564 2313:0.013436188 2314:0.0077702159 2315:0.009941755 2316:0.016087996 2317:0.013837488 2318:0.67594592 2319:0.0098630131 2320:0.012747723 2321:0.013210709 2322:0.0064882262 2323:0.0049855964 2324:0.0080755874 2325:0.075218539 2326:0.041948189 2327:0.11052842 2328:0.08908459 2329:0.17942593 2330:0.095337836 2331:0.027643531 2332:0.0031899725 2333:0.0024828749 2334:0.0016048829 2335:0.1022209 2336:0.27373723 2337:0.15313159 2338:0.016175506 2339:0.014637743 2340:0.0023428803 2341:0.0077007353 2342:0.0098528566 2343:0.015944138 2344:0.013713754 2345:0.66990166 2346:0.0097748188 2347:0.012633734 2348:0.01309258 2349:0.006430209 2350:0.0014505974 2351:0.0072232245 2352:0.0055082321 2353:0.05555987 2354:0.58423106 2355:0.011364117 2356:0.0091541073 2357:0.0099720263 2358:0.0014825709 2359:0.003161448 2360:0.0024606733 2361:0.0015905321 2362:0.10130685 2363:0.27128949 2364:0.1517623 2365:0.016030866 2366:0.014506854 2367:0.0023219304 2368:0.0039172238 2369:0.0082483117 2370:0.086010581 2371:0.16451984 2372:0.13207065 2373:0.20977076 2374:0.044388315 2375:0.0020364677 2376:0 2377:0.0016299195 2378:0.0081161555 2379:0.0061891566 2380:0.06242815 2381:0.65645337 2382:0.012768943 2383:0.010285733 2384:0.011204763 2385:0.0016658454 2386:0.01281496 2387:0.010696583 2388:0.0099878619 2389:0.032530553 2390:0.5796521 2391:0.012578257 2392:0.021564086 2393:0.010253928 2394:0.0039544471 2395:0.0044014688 2396:0.0092679634 2397:0.09664316 2398:0.18485769 2399:0.14839715 2400:0.23570251 2401:0.049875573 2402:0.0022882147 2403:0 2404:0.0016017503 2405:0.0076058051 2406:0.12865796 2407:0.2237224 2408:0.072514597 2409:0.14488969 2410:0.095786728 2411:0.026670194 2412:0 2413:0.015317501 2414:0.012785441 2415:0.011938319 2416:0.038883209 2417:0.69284816 2418:0.015034574 2419:0.02577518 2420:0.012256344 2421:0.0047266825 2422:0.022901648 2423:0.019212947 2424:0.035635096 2425:0.040179388 2426:0.49350636 2427:0.01590319 2428:0.022112826 2429:0.008470235 2430:0.022266842 2431:0.0019145445 2432:0.0090910878 2433:0.15378264 2434:0.26741153 2435:0.086675448 2436:0.17318415 2437:0.11449223 2438:0.031878423 2439:0 2440:0.025380633 2441:0.06175971 2442:0.12276435 2443:0.22534565 2444:0.20280042 2445:0.056717838 2446:0.078539811 2447:0.014079601 2448:0.017715392 2449:0.029102406 2450:0.024414967 2451:0.04528351 2452:0.051058198 2453:0.62712616 2454:0.020209074 2455:0.028100005 2456:0.010763602 2457:0.028295723 2458:0.051311788 2459:0.035853863 2460:0.0049152383 2461:0.12783066 2462:0.302174 2463:0.1332593 2464:0.038286297 2465:0.083799929 2466:0.037826234 2467:0.032252591 2468:0.07848152 2469:0.15600353 2470:0.28635933 2471:0.25770985 2472:0.072074531 2473:0.099804934 2474:0.017891737 2475:0.02251194 2476:0.012123556 2477:0.017599047 2478:0.099073879 2479:0.20534505 2480:0.40398116 2481:0.17130204 2482:0.13221762 2483:0.019117336 2484:0.021488272 2485:0.056704006 2486:0.039621649 2487:0.0054317675 2488:0.14126404 2489:0.33392866 2490:0.14726316 2491:0.042309701 2492:0.092606239 2493:0.041801292 2494:0.013335006 2495:0.020635098 2496:0.035500386 2497:0.065980797 2498:0.20159082 2499:0.10638431 2500:0.11374042 2501:0.085213309 2502:0.071846037 2503:0.013397588 2504:0.019448484 2505:0.10948529 2506:0.22692421 2507:0.44643446 2508:0.18930371 2509:0.14611202 2510:0.021126325 2511:0.023746416 2512:0.0097291487 2513:0.019288519 2514:0.036786135 2515:0.22067452 2516:0.53858024 2517:0.27732271 2518:0.056258402 2519:0.064102721 2520:0.0090483866 2521:0.014922288 2522:0.023091318 2523:0.039726039 2524:0.07383457 2525:0.22558642 2526:0.11904736 2527:0.12727907 2528:0.09535635 2529:0.080397956 2530:0.036140725 2531:0.039665444 2532:0.049488628 2533:0.030352001 2534:0.17084433 2535:0.10645148 2536:0.077346668 2537:0.052897187 2538:0.044164841 2539:0.010887221 2540:0.021584454 2541:0.041164832 2542:0.24694168 2543:0.60268809 2544:0.31033277 2545:0.062954907 2546:0.071732944 2547:0.010125427 2548:0.018078083 2549:0.0082562259 2550:0.041919651 2551:0.061705592 2552:0.2329898 2553:0.40339908 2554:0.24853313 2555:0.14103758 2556:0.035360916 2557:0.054488941 2558:0.059803118 2559:0.074613415 2560:0.045761351 2561:0.25757996 2562:0.16049563 2563:0.11661465 2564:0.079752459 2565:0.066586806 2566:0.095921657 2567:0.11968619 2568:0.064410074 2569:0.077477972 2570:0.078163909 2571:0.077715833 2572:0.054749772 2573:0.10715243 2574:0.079628758 2575:0.027256111 2576:0.012447814 2577:0.06320176 2578:0.093032787 2579:0.35127594 2580:0.60819999 2581:0.37471044 2582:0.21264067 2583:0.053313232 2584:0.0026718023 2585:0.10624038 2586:0.060978106 2587:0.11707783 2588:0.1525685 2589:0.17059758 2590:0.13251931 2591:0.082887329 2592:0.042420508 2593:0.13372523 2594:0.16685557 2595:0.089794655 2596:0.10801273 2597:0.108969 2598:0.10834433 2599:0.076327141 2600:0.14938214 2601:0.11101116 2602:0.053594412 2603:0.085823675 2604:0.13123 2605:0.27542476 2606:0.29661934 2607:0.17173301 2608:0.039630726 2609:0.099553345 2610:0.11506355 2611:0.0037247833 2612:0.14811066 2613:0.085010117 2614:0.16321923 2615:0.2126971 2616:0.2378316 2617:0.18474634 2618:0.11555396 2619:0.059138806 2620:0.03542052 2621:0.14141729 2622:0.44068419 2623:0.35399638 2624:0.21320133 2625:0.13786696 2626:0.034026413 2627:0.093591603 2628:0.034691224 2629:0.02294413 2630:0.036741695 2631:0.056180449 2632:0.1179112 2633:0.12698474 2634:0.073520061 2635:0.016966181 2636:0.04261946 2637:0.049259485 2638:0.044960151 2639:0.11631487 2640:0.18527016 2641:0.17315177 2642:0.054442618 2643:0.032084307 2644:0.003867485 2645:0.0423922 2646:0.027442656 2647:0.015163764 2648:0.060541697 2649:0.18865988 2650:0.15154824 2651:0.09127293 2652:0.059021778 2653:0.014566937 2654:0.040067198 2655:0.014851547 2656:0.050706237 2657:0.39610204 2658:0.79399364 2659:0.046306075 2660:0.007745141 2661:0 2662:0.0046570687 2663:0.0093461999 2664:0.0085610434 2665:0.038757511 2666:0.10026823 2667:0.15971054 2668:0.14926399 2669:0.04693179 2670:0.027658001 2671:0.0033339322 2672:0.036543831 2673:0.023656705 2674:0.026596381 2675:0.017537407 2676:0.020099474 2677:0 2678:0.057786401 2679:0.16404833 2680:0.19160756 2681:0.054717556 2682:0.01572732 2683:0.043710874 2684:0.34145635 2685:0.68445538 2686:0.039917753 2687:0.0066766321 2688:0 2689:0.0040145859 2690:0.0080568111 2691:0.0073799737 2692:0 2693:0 2694:0 2695:0 2696:0.018807404 2697:0.39343582 2698:0.34678108 2699:0 2700:0 2701:0.031505341 2702:0.020774331 2703:0.023809284 2704:0 2705:0.068452182 2706:0.19432714 2707:0.22697304 2708:0.064816913 2709:0.018630151 2710:0.01900574 2711:0.0076985329 2712:0.0090943156 2713:0.021857098 2714:0.077560062 2715:0.065089414 2716:0.047916481 2717:0.036159858 2718:0.0097728608 2719:0 2720:0 2721:0 2722:0 2723:0.022278734 2724:0.46605326 2725:0.41078733 2726:0 2727:0 2728:0.027630697 2729:0.09136325 2730:0.0062443668 2731:0.070465174 2732:0.59531977 2733:0.22558694 2734:0.22032114 2735:0.046897562 2736:0.16722402 2737:0.13008811 2738:0.14446613 2739:0.060912257 2740:0.024077686 2741:0.30746365 2742:0.075154167 2743:0.015228065 2744:0.012038843 2745:0 2746:0.19469532 2747:0.19262151 2748:0.045684195 2749:0 2750:0.37918499 2751:0.46697123 2752:0.034640118 2753:0 2754:0 2755:0.3687286 2756:0.12038844 2757:0.053298226 2758:0 2759:0.032303606 2760:0.024077686 2761:0.0076140327 2762:0.012038843 2763:0 2764:0.48153774 2765:0.15921254 2766:0.045684195 2767:0.012038843 2768:0.032303606 2769:0 2770:0.038070164 2771:0.012038843 2772:0 2773:0.014038014 2774:0.013888487 2775:0.0032939433 2776:0 2777:0.027340174 2778:0.033669779 2779:0.002497638 2780:0 2781:0 2782:0.17836536 2783:0.099327869 2784:0.0038429341 2785:0.00086803033 2786:0.0046744863 2787:0.051951107 2788:0.19803446 2789:0.23171514 2790:0.066395507 2791:0.03472006 2792:0.011479617 2793:0.0032939433 2794:0.00086803033 2795:0.0023291698 2796:0 2797:0.0027449529 2798:0.00086803033 2799:0 2800:0.91275089 2801:0.14662679 2802:0.0010979811 2803:0 2804:0 2805:0 2806:0 2807:0 2808:0 2809:0.14951621 2810:0.083262392 2811:0.0032213707 2812:0.00072763347 2813:0.0039184261 2814:0.043548437 2815:0.16600399 2816:0.1942371 2817:0.055656572 2818:0.24471766 2819:0.047620903 2820:0.036352752 2821:0.020234654 2822:0.083877735 2823:0.27124175 2824:0.10274403 2825:0.23570295 2826:0.14614303 2827:0.76512083 2828:0.12291109 2829:0.00092039159 2830:0 2831:0 2832:0 2833:0 2834:0 2835:0 2836:0.070035619 2837:0.019157637 2838:0.060461051 2839:0.087767203 2840:0.22648403 2841:0 2842:0 2843:0 2844:0 2845:0.27241871 2846:0.053011398 2847:0.040467738 2848:0.022525135 2849:0.093372357 2850:0.30194523 2851:0.11437424 2852:0.26238358 2853:0.16268583 2854:0.0073461021 2855:0.0062322541 2856:0.027557816 2857:0.12285138 2858:0.2484988 2859:0.12803624 2860:0.029487102 2861:0.025046371 2862:0.008363015 2863:0.077963369 2864:0.021326205 2865:0.067304999 2866:0.097702098 2867:0.25212111 2868:0 2869:0 2870:0 2871:0 2872:0.66484 2873:0.0057275552 2874:0 2875:0.015377179 2876:0.16957844 2877:0.20068833 2878:0.061518877 2879:0.09685621 2880:0.090775456 2881:0.0063245669 2882:0.0053656085 2883:0.023725678 2884:0.1057679 2885:0.21394302 2886:0.11023176 2887:0.02538668 2888:0.02156347 2889:0.0072000698 2890:0 2891:0.0064297264 2892:0.014580663 2893:0.060211387 2894:0.16208308 2895:0.054023932 2896:0.012279061 2897:0.032248945 2898:0.013681978 2899:0.57238859 2900:0.0049310921 2901:0 2902:0.013238858 2903:0.14599718 2904:0.17278098 2905:0.052964177 2906:0.083387567 2907:0.078152391 2908:0.66206874 2909:0.051813558 2910:0.12588123 2911:0.14310696 2912:0.13335666 2913:0.013497721 2914:0.056143961 2915:0.016002895 2916:0.032675304 2917:0 2918:0.0069262066 2919:0.015706529 2920:0.064860692 2921:0.17459855 2922:0.058195464 2923:0.013227206 2924:0.034739092 2925:0.014738451 2926:0.0095625956 2927:0.091529932 2928:0.53975272 2929:0.17098906 2930:0.099900864 2931:0.0074365948 2932:0.019020814 2933:0.020883457 2934:0.030261417 2935:0.71319129 2936:0.055814413 2937:0.13560133 2938:0.15415716 2939:0.14365397 2940:0.014539966 2941:0.060479195 2942:0.01723858 2943:0.035198372 2944:0.0013851618 2945:0.06438255 2946:0.083751349 2947:0.075959689 2948:0.14952383 2949:0 2950:0 2951:0 2952:0 2953:0.011146232 2954:0.10668796 2955:0.62913974 2956:0.19930611 2957:0.11644518 2958:0.0086681496 2959:0.022170801 2960:0.024341911 2961:0.03527293 2962:0.0095009503 2963:0.015389484 2964:0.14334245 2965:0.079939815 2966:0.21063178 2967:0.1697667 2968:0.34192836 2969:0.18168339 2970:0.052679718 2971:0.0016145548 2972:0.075044774 2973:0.097621188 2974:0.088539171 2975:0.17428607 2976:0 2977:0 2978:0 2979:0 2980:0.47746997 2981:0.0050147614 2982:0.033799206 2983:0 2984:0 2985:0 2986:0 2987:0.01978968 2988:0.030414191 2989:0.0099891754 2990:0.016180303 2991:0.15070838 2992:0.08404768 2993:0.22145551 2994:0.1784905 2995:0.35949902 2996:0.19101955 2997:0.055386769 2998:0.0063914509 2999:0.0049747053 3000:0.0032155544 3001:0.20481051 3002:0.54846179 3003:0.30681551 3004:0.032409355 3005:0.029328284 3006:0.0046942111 3007:0.50200571 3008:0.0052724548 3009:0.035536044 3010:0 3011:0 3012:0 3013:0 3014:0.020806612 3015:0.031977084 3016:0 3017:0 3018:0 3019:0.027165973 3020:0.1605259 3021:0 3022:0 3023:0 3024:0 3025:0.005054964 3026:0.0039344676 3027:0.0025431646 3028:0.16198353 3029:0.43377547 3030:0.24265873 3031:0.025632384 3032:0.023195581 3033:0.0037126262 3034:0.0062634037 3035:0.013188551 3036:0.13752571 3037:0.26305727 3038:0.21117297 3039:0.33541075 3040:0.070974228 3041:0.0032561886 3042:0 3043:0 3044:0 3045:0 3046:0.021485421 3047:0.12695907 3048:0 3049:0 3050:0 3051:0 3052:0.52218775 3053:0.095595229 3054:0.066813023 3055:0.045987249 3056:0.14987876 3057:0.019905409 3058:0.043803904 3059:0.018790212 3060:0.38063549 3061:0.0056529534 3062:0.011903155 3063:0.12412204 3064:0.23741891 3065:0.19059141 3066:0.30272061 3067:0.064056865 3068:0.0029388306 3069:0 3070:0.0020571814 3071:0.0097683897 3072:0.16523971 3073:0.28733415 3074:0.09313292 3075:0.18608667 3076:0.12302209 3077:0.034253421 3078:0 3079:0.47129375 3080:0.086278229 3081:0.060301224 3082:0.041505192 3083:0.13527112 3084:0.017965368 3085:0.039534643 3086:0.016958861 3087:0.3435376 3088:0.47876538 3089:0 3090:0.0027094679 3091:0.00262857 3092:0.017476943 3093:0 3094:0.0031881007 3095:0.027305833 3096:0.1506619 3097:0.0023006921 3098:0.010924684 3099:0.18479931 3100:0.32134619 3101:0.10415716 3102:0.20811393 3103:0.13758435 3104:0.038308033 3105:0 3106:0.030499694 3107:0.074216126 3108:0.14752489 3109:0.27079598 3110:0.24370357 3111:0.06815735 3112:0.094380632 3113:0.016919339 3114:0.021288438 3115:0.53543733 3116:0 3117:0.0030301904 3118:0.0029397165 3119:0.019545707 3120:0 3121:0.0035654795 3122:0.030538052 3123:0.1684959 3124:0.24581746 3125:0.31726828 3126:0.087015059 3127:0.11014951 3128:0.27252378 3129:0.10598272 3130:0 3131:0.13956115 3132:0.10241998 3133:0.036227798 3134:0.088154549 3135:0.17523132 3136:0.32165378 3137:0.28947318 3138:0.080957884 3139:0.11210612 3140:0.020096935 3141:0.025286589 3142:0.013617812 3143:0.01976817 3144:0.11128496 3145:0.2306543 3146:0.45377277 3147:0.19241541 3148:0.14851375 3149:0.021473591 3150:0.024136751 3151:0.29198408 3152:0.37685398 3153:0.10335723 3154:0.13083654 3155:0.32370608 3156:0.12588718 3157:0 3158:0.16577193 3159:0.12165533 3160:0.04492829 3161:0 3162:0 3163:0 3164:0.00078079478 3165:0 3166:0 3167:0 3168:0.024217228 3169:0.015481201 3170:0.022473141 3171:0.1265126 3172:0.26221581 3173:0.51586462 3174:0.21874451 3175:0.16883558 3176:0.024411923 3177:0.027439495 3178:0.011242241 3179:0.022288298 3180:0.04250717 3181:0.25499416 3182:0.62234105 3183:0.32045236 3184:0.065007794 3185:0.074072073 3186:0.010455605 3187:0.051076038 3188:0 3189:0 3190:0 3191:0.00088763457 3192:0 3193:0 3194:0 3195:0.027530985 3196:0 3197:0 3198:0 3199:0 3200:0.0057696247 3201:0 3202:0 3203:0 3204:0 3205:0.011444231 3206:0.022688754 3207:0.043270901 3208:0.25957567 3209:0.63352272 3210:0.32620996 3211:0.066175796 3212:0.075402934 3213:0.010643462 3214:0.019002991 3215:0.0086786297 3216:0.044064338 3217:0.064862564 3218:0.24490998 3219:0.42403772 3220:0.26124854 3221:0.14825332 3222:0.037170045 3223:0 3224:0 3225:0 3226:0 3227:0.0058732882 3228:0 3229:0 3230:0 3231:0 3232:0 3233:0 3234:0 3235:0 3236:0.21540037 3237:0.14731812 3238:0.077718785 3239:0 3240:0 3241:0.019431426 3242:0.0088742949 3243:0.045057796 3244:0.066324931 3245:0.25043163 3246:0.43359792 3247:0.26713855 3248:0.15159578 3249:0.038008067 3250:0.0019047812 3251:0.075740891 3252:0.043472509 3253:0.083467119 3254:0.10876913 3255:0.12162242 3256:0.094475659 3257:0.059092032 3258:0.030242427 3259:0 3260:0 3261:0 3262:0 3263:0.22025671 3264:0.1506395 3265:0.079471004 3266:0 3267:0 3268:0 3269:0 3270:0.0088742949 3271:0.11385909 3272:0.57704255 3273:0.38342984 3274:0.14659641 3275:0 3276:0 3277:0.0018061498 3278:0.071818954 3279:0.04122146 3280:0.07914511 3281:0.10313696 3282:0.1153247 3283:0.089583617 3284:0.056032189 3285:0.028676445 3286:0.017175433 3287:0.068573334 3288:0.21368805 3289:0.17165307 3290:0.10338146 3291:0.066851778 3292:0.01649943 3293:0.045382628 3294:0.016821797 3295:0 3296:0 3297:0.0084147752 3298:0.10796335 3299:0.54716272 3300:0.36357547 3301:0.1390055 3302:0 3303:0 3304:0 3305:0 3306:0.28946735 3307:0.46084709 3308:0.30680271 3309:0 3310:0.01149844 3311:0 3312:0 3313:0.013999246 3314:0.055892329 3315:0.17417153 3316:0.13990992 3317:0.084263523 3318:0.054489134 3319:0.013448253 3320:0.036990192 3321:0.013711006 3322:0.046812194 3323:0.36568294 3324:0.73301801 3325:0.042749948 3326:0.0071503442 3327:0 3328:0.0042994239 3329:0.008628448 3330:0.0079035885 3331:0 3332:0 3333:0.23593726 3334:0.3756244 3335:0.25006686 3336:0 3337:0.0093720777 3338:0 3339:0 3340:0 3341:0 3342:0.0010098834 3343:0.017755721 3344:0.00071409544 3345:0 3346:0 3347:0 3348:0 3349:0.047013593 3350:0.3672562 3351:0.73617165 3352:0.04293387 3353:0.0071811069 3354:0 3355:0.0043179211 3356:0.0086655699 3357:0.0079375918 3358:0 3359:0 3360:0 3361:0 3362:0.020228459 3363:0.42316315 3364:0.37298326 3365:0 3366:0 3367:0 3368:0 3369:0.0010142282 3370:0.017832111 3371:0.00071716767 3372:0 3373:0 3374:0 3375:0 3376:0 3377:0 3378:0 3379:0 3380:0 3381:0 3382:0 3383:0 3384:0 3385:0 3386:0 3387:0 3388:0 3389:0.023687407 3390:0.49552155 3391:0.43676119 3392:0 3393:0 3394:0.029377771 3395:0.097140099 3396:0.0066391947 3397:0.074920649 3398:0.63296152 3399:0.23985068 3400:0.23425192 3401:0.04986287 3402:0.1777975 3403:0 3404:0 3405:0 3406:0 3407:0 3408:0 3409:0 3410:0 3411:0 3412:0 3413:0 3414:0 3415:0 3416:0.0062984933 3417:0 3418:0 3419:0 3420:0 3421:0.334233 3422:0.10912576 3423:0.048312026 3424:0 3425:0.029281512 3426:0.021825151 3427:0.0069017185 3428:0.010912575 3429:0 3430:0.43648852 3431:0.14431775 3432:0.04141031 3433:0.010912575 3434:0.029281512 3435:0 3436:0.034508593 3437:0.010912575 3438:0 3439:0.40743678 3440:0.032737725 3441:0.013803437 3442:0 3443:0.034161764 3444:0 3445:0.013803437 3446:0.010912575 3447:0.061730844 3448:0.66132888 3449:0.21424903 3450:0.034508593 3451:0 3452:0 3453:0 3454:0.013803437 3455:0 3456:0 3457:0.029411463 3458:0.0097244167 3459:0.0027903089 3460:0.00073531099 3461:0.0019730464 3462:0 3463:0.0023252575 3464:0.00073531099 3465:0 3466:0.7731939 3467:0.12420797 3468:0.00093010298 3469:0 3470:0 3471:0 3472:0 3473:0 3474:0 3475:0.044561653 3476:0.014436525 3477:0.0023252575 3478:0 3479:0 3480:0 3481:0.00093010298 3482:0 3483:0 3484:0.58988504 3485:0.0022059329 3486:0.028372016 3487:0 3488:0 3489:0 3490:0.028182657 3491:0.066530615 3492:0.17195851 3493:0.68829375 3494:0.11056938 3495:0.00082797351 3496:0 3497:0 3498:0 3499:0 3500:0 3501:0 3502:0.063003223 3503:0.017233986 3504:0.054390054 3505:0.078954349 3506:0.20374238 3507:0 3508:0 3509:0 3510:0 3511:0.52511302 3512:0.0019637116 3513:0.025256641 3514:0 3515:0 3516:0 3517:0.025088075 3518:0.059225256 3519:0.15307669 3520:0.036307775 3521:0 3522:0.001655947 3523:0.0229324 3524:0.33926529 3525:0.19518804 3526:0 3527:0 3528:0.0074056204 3529:0.06114117 3530:0.016724638 3531:0.052782562 3532:0.076620862 3533:0.1977208 3534:0 3535:0 3536:0 3537:0 3538:0.5213871 3539:0.0044917174 3540:0 3541:0.012059237 3542:0.13298841 3543:0.1573857 3544:0.048244914 3545:0.075957492 3546:0.071188785 3547:0.035234703 3548:0 3549:0.0016070057 3550:0.022254635 3551:0.32923834 3552:0.18941928 3553:0 3554:0 3555:0.0071867481 3556:0.66677177 3557:0.10880474 3558:0.05651163 3559:0.051332684 3560:0.052723861 3561:0.097470614 3562:0 3563:0 3564:0 3565:0.42412472 3566:0.0036538081 3567:0 3568:0.0098096414 3569:0.10818003 3570:0.12802611 3571:0.039245046 3572:0.061787969 3573:0.057908843 3574:0.49057533 3575:0.038392468 3576:0.093274647 3577:0.10603845 3578:0.098813735 3579:0.010001452 3580:0.041601182 3581:0.01185772 3582:0.024211531 3583:0.54238855 3584:0.088507714 3585:0.045969644 3586:0.041756807 3587:0.042888466 3588:0.079287917 3589:0 3590:0 3591:0 3592:0.39284957 3593:0.018746564 3594:0.00065361307 3595:0.030052881 3596:0.1277318 3597:0.017168899 3598:0.027453695 3599:0.084232807 3600:0.12146157 3601:0.66757607 3602:0.052244561 3603:0.12692836 3604:0.14429737 3605:0.13446596 3606:0.013609999 3607:0.056610987 3608:0.016136013 3609:0.032947108 3610:0.0012965678 3611:0.060264686 3612:0.07839467 3613:0.071101359 3614:0.13996039 3615:0 3616:0 3617:0 3618:0 3619:0.53459062 3620:0.025510368 3621:0.0008894382 3622:0.040896031 3623:0.17381773 3624:0.023363478 3625:0.037359053 3626:0.1146242 3627:0.16528519 3628:0 3629:0.021556712 3630:0.0033427971 3631:0.024198029 3632:0.30263784 3633:0.062772931 3634:0.0105823 3635:0.0035854401 3636:0 3637:0.0021336961 3638:0.099174545 3639:0.12901014 3640:0.11700791 3641:0.23032573 3642:0 3643:0 3644:0 3645:0 3646:0.63099487 3647:0.0066271994 3648:0.044666946 3649:0 3650:0 3651:0 3652:0 3653:0.026152821 3654:0.040193519 3655:0 3656:0.035474791 3657:0.0055010721 3658:0.039821473 3659:0.49803578 3660:0.10330224 3661:0.017414755 3662:0.0059003774 3663:0 3664:0.307652 3665:0 3666:0.097884269 3667:0.20598246 3668:0.2652393 3669:0.046087513 3670:0.11564823 3671:0.045528828 3672:0.088179551 3673:0.47123068 3674:0.0049492315 3675:0.033357538 3676:0 3677:0 3678:0 3679:0 3680:0.01953108 3681:0.030016756 3682:0 3683:0 3684:0 3685:0.025500586 3686:0.150685 3687:0 3688:0 3689:0 3690:0 3691:0.22975632 3692:0 3693:0.073100547 3694:0.15382891 3695:0.19808227 3696:0.034418425 3697:0.086366779 3698:0.034001196 3699:0.065853007 3700:0.20794525 3701:0.09313129 3702:0.71100208 3703:0.033877355 3704:0.23810362 3705:0.0069133864 3706:0.0053690133 3707:0.0054927713 3708:0.040139268 3709:0 3710:0 3711:0 3712:0.018474257 3713:0.10916586 3714:0 3715:0 3716:0 3717:0 3718:0.44900357 3719:0.082197636 3720:0.057449233 3721:0.039542174 3722:0.12887337 3723:0.017115682 3724:0.037664823 3725:0.016156779 3726:0.32728973 3727:0.15064885 3728:0.067470269 3729:0.51509543 3730:0.024542925 3731:0.1724975 3732:0.0050084997 3733:0.003889657 3734:0.0039793152 3735:0.029079456 3736:0.40407077 3737:0.1439395 3738:0.26658134 3739:0.058732306 3740:0.16013706 3741:0.01776492 3742:0.074451886 3743:0.050009173 3744:0.18021368 3745:0.42697639 3746:0.078165193 3747:0.054630894 3748:0.037602318 3749:0.12255112 3750:0.016276023 3751:0.035817066 3752:0.015364161 3753:0.31123359 3754:0.43374544 3755:0 3756:0.0024546874 3757:0.0023813966 3758:0.015833527 3759:0 3760:0.0028883128 3761:0.024738172 3762:0.13649465 3763:0.38424791 3764:0.13687813 3765:0.25350342 3766:0.055851023 3767:0.15228107 3768:0.01689341 3769:0.070799433 3770:0.047555828 3771:0.17137278 3772:0.27607374 3773:0.27874516 3774:0.11151774 3775:0.11792455 3776:0.086867971 3777:0.037014947 3778:0.01155959 3779:0.05171579 3780:0 3781:0.48380509 3782:0 3783:0.002737989 3784:0.0026562396 3785:0.017660914 3786:0 3787:0.0032216602 3788:0.027593267 3789:0.15224784 3790:0.22211327 3791:0.28667409 3792:0.078624194 3793:0.099527792 3794:0.2462443 3795:0.095762802 3796:0 3797:0.12610327 3798:0.092543622 3799:0.3079361 3800:0.31091584 3801:0.12438828 3802:0.13153452 3803:0.09689362 3804:0.041286935 3805:0.012893711 3806:0.057684438 3807:0 3808:0.23346605 3809:0.28154892 3810:0.30632829 3811:0.074660234 3812:0.10986905 3813:0.076205966 3814:0.017819635 3815:0.078717135 3816:0.057830366 3817:0.28369495 3818:0.36615548 3819:0.10042303 3820:0.12712222 3821:0.3145164 3822:0.12231337 3823:0 3824:0.16106583 3825:0.11820166 3826:0.043652822 3827:0 3828:0 3829:0 3830:0.00075862881 3831:0 3832:0 3833:0 3834:0.023529726 3835:0.29819532 3836:0.35960934 3837:0.39125887 3838:0.095360044 3839:0.14033062 3840:0.097334336 3841:0.022760191 3842:0.10054173 3843:0.073864037 3844:0.0015172576 3845:0.030508292 3846:0.042142116 3847:0.17199437 3848:0.35940415 3849:0.10979512 3850:0.049404885 3851:0.02998211 3852:0.020615656 3853:0.076571107 3854:0 3855:0 3856:0 3857:0.0013307054 3858:0 3859:0 3860:0 3861:0.041273326 3862:0 3863:0 3864:0 3865:0 3866:0.0086495853 3867:0 3868:0 3869:0 3870:0 3871:0.0026614109 3872:0.05351438 3873:0.073921188 3874:0.30169411 3875:0.63042828 3876:0.19259084 3877:0.08666076 3878:0.052591408 3879:0.036161777 3880:0.022621992 3881:0.027018563 3882:0.10813147 3883:0.19572875 3884:0.60194908 3885:0.15791037 3886:0.015533275 3887:0.090133272 3888:0 3889:0 3890:0 3891:0 3892:0 3893:0.008909817 3894:0 3895:0 3896:0 3897:0 3898:0 3899:0 3900:0 3901:0 3902:0.32676379 3903:0.22348256 3904:0.11789991 3905:0 3906:0 3907:0.023302598 3908:0.027831444 3909:0.11138472 3910:0.20161745 3911:0.62005934 3912:0.16266127 3913:0.01600061 3914:0.092845025 3915:0 3916:0.012144797 3917:0.016583782 3918:0.026253498 3919:0.12633162 3920:0.52319679 3921:0.24218098 3922:0.058399205 3923:0.019398149 3924:0.04329267 3925:0 3926:0 3927:0 3928:0 3929:0.21106437 3930:0.14435261 3931:0.07615431 3932:0 3933:0 3934:0 3935:0 3936:0.0085039293 3937:0.10910722 3938:0.55295988 3939:0.36742753 3940:0.14047826 3941:0 3942:0 3943:0.0078446083 3944:0.010711853 3945:0.016957748 3946:0.08160055 3947:0.33794504 3948:0.15643036 3949:0.037721412 3950:0.012529718 3951:0.027963748 3952:0.014934049 3953:0.017630232 3954:0 3955:0.028003104 3956:0.084304556 3957:0.47439389 3958:0.26777729 3959:0.053681851 3960:0.010643154 3961:0 3962:0 3963:0.0077477212 3964:0.099404909 3965:0.50378817 3966:0.3347542 3967:0.12798629 3968:0 3969:0 3970:0 3971:0 3972:0.26652077 3973:0.42431493 3974:0.28248192 3975:0 3976:0.010586939 3977:0 3978:0 3979:0.013606046 3980:0.016062472 3981:0 3982:0.025512941 3983:0.076807812 3984:0.43220863 3985:0.24396531 3986:0.048908217 3987:0.0096967163 3988:0 3989:0 3990:0 3991:0 3992:0.03916924 3993:0.13194195 3994:0.045660118 3995:0 3996:0 3997:0 3998:0 3999:0.44895506 4000:0.71475983 4001:0.47584168 4002:0 4003:0.017833731 4004:0 4005:0 4006:0 4007:0 4008:0.0019216646 4009:0.033786613 4010:0.0013588221 4011:0 4012:0 4013:0 4014:0 4015:0 4016:0 4017:0 4018:0 4019:0.065980707 4020:0.22225663 4021:0.07691461 4022:0 4023:0 4024:0 4025:0 4026:0 4027:0 4028:0 4029:0 4030:0 4031:0 4032:0 4033:0 4034:0 4035:0.056739015 4036:0.99758259 4037:0.040120543 4038:0 4039:0 4040:0 4041:0 4042:0 4043:0 4044:0 4045:0 4046:0 4047:0 4048:0 4049:0 4050:0 4051:0 4052:0 4053:0 4054:0 4055:0 4056:0 4057:0 4058:0 4059:0 4060:0 4061:0 4062:0 4063:0 4064:0 4065:0 4066:0 4067:0 4068:0 4069:0 4070:0 4071:0 4072:0 4073:0 4074:0 4075:0 4076:0 4077:0 4078:0 4079:0 4080:0 4081:0 4082:0.19096276 4083:0 4084:0 4085:0 4086:0 4087:0 4088:0 4089:0 4090:0 4091:0 4092:0 4093:0 4094:0 4095:0 4096:0.81477443 4097:0 4098:0 4099:0 4100:0.54742657 4101:0 4102:0 4103:0 4104:0 4105:0.36671087 4106:0.02946538 4107:0.012423695 4108:0 4109:0.030747078 4110:0 4111:0.012423695 4112:0.0098217938 4113:0.055560452 4114:0.59522484 4115:0.19283347 4116:0.031059239 4117:0 4118:0 4119:0 4120:0.012423695 4121:0 4122:0 4123:0.45527246 4124:0 4125:0.024847391 4126:0 4127:0.026354638 4128:0 4129:0 4130:0.0098217938 4131:0.11956167 4132:0.48666581 4133:0.062941184 4134:0.012423695 4135:0 4136:0.0043924397 4137:0 4138:0.049694777 4139:0.02946538 4140:0.018110492 4141:0.052683994 4142:0.017067899 4143:0.0027490868 4144:0 4145:0 4146:0 4147:0.0010996347 4148:0 4149:0 4150:0.69740456 4151:0.0026080127 4152:0.033543439 4153:0 4154:0 4155:0 4156:0.033319566 4157:0.078657283 4158:0.20330173 4159:0.043075317 4160:0.0055709923 4161:0.0010996347 4162:0 4163:0.00038877958 4164:0 4165:0.0043985384 4166:0.0026080127 4167:0.0016029792 4168:0.63809341 4169:0.05025042 4170:0 4171:0 4172:0 4173:0 4174:0.0010996347 4175:0.043124988 4176:0.21754218 4177:0.58852846 4178:0.0022008599 4179:0.028306768 4180:0 4181:0 4182:0 4183:0.028117845 4184:0.066377613 4185:0.17156305 4186:0.040692495 4187:0 4188:0.001855928 4189:0.025701838 4190:0.38023677 4191:0.21875999 4192:0 4193:0 4194:0.0082999626 4195:0.53847675 4196:0.042405519 4197:0 4198:0 4199:0 4200:0 4201:0.000927964 4202:0.036392482 4203:0.18358034 4204:0.067301839 4205:0.0033778401 4206:0.031745461 4207:0.053873519 4208:0.21569639 4209:0.1876129 4210:0.070385924 4211:0.038038586 4212:0.0038401343 4213:0.037247027 4214:0 4215:0.001698785 4216:0.023525642 4217:0.3480418 4218:0.20023739 4219:0 4220:0 4221:0.0075971977 4222:0.70485244 4223:0.1150188 4224:0.059739123 4225:0.054264397 4226:0.055735026 4227:0.10303736 4228:0 4229:0 4230:0 4231:0.061603335 4232:0.0030918355 4233:0.029057546 4234:0.049312003 4235:0.19743319 4236:0.17172755 4237:0.064426288 4238:0.034817827 4239:0.0035149869 4240:0.42490856 4241:0.019244189 4242:0.022352145 4243:0.047684475 4244:0.046002148 4245:0.061700154 4246:0.067358841 4247:0.058765388 4248:0.16720295 4249:0.59470811 4250:0.097045291 4251:0.05040394 4252:0.045784727 4253:0.047025547 4254:0.08693614 4255:0 4256:0 4257:0 4258:0.43074439 4259:0.020554883 4260:0.00071666149 4261:0.032951823 4262:0.14005298 4263:0.018825035 4264:0.030101917 4265:0.092358021 4266:0.13317792 4267:0.35850988 4268:0.01623698 4269:0.018859269 4270:0.040233022 4271:0.038813585 4272:0.05205853 4273:0.056832957 4274:0.049582367 4275:0.14107485 4276:0.44050681 4277:0.020522063 4278:0.05372321 4279:0.030183363 4280:0.042609428 4281:0.10435305 4282:0.067056669 4283:0.029121952 4284:0.10685619 4285:0.56157755 4286:0.026798169 4287:0.00093433836 4288:0.042960523 4289:0.18259231 4290:0.024542902 4291:0.039244994 4292:0.1204106 4293:0.17362903 4294:0 4295:0.022644927 4296:0.0035115465 4297:0.025419582 4298:0.31791544 4299:0.065941802 4300:0.01111651 4301:0.0037664385 4302:0 4303:0.57430518 4304:0.02675538 4305:0.070040956 4306:0.039351178 4307:0.055551503 4308:0.13604897 4309:0.087424284 4310:0.037967377 4311:0.13931241 4312:0.019887675 4313:0.011698546 4314:0.023694554 4315:0.022074884 4316:0.20217652 4317:0.22949929 4318:0.10894037 4319:0.021049155 4320:0.026238543 4321:0 4322:0.034479071 4323:0.005346666 4324:0.038703749 4325:0.48405673 4326:0.10040271 4327:0.016925951 4328:0.0057347635 4329:0 4330:0.29901671 4331:0 4332:0.095136817 4333:0.20020087 4334:0.25779447 4335:0.044793912 4336:0.11240217 4337:0.044250908 4338:0.085704495 4339:0.03028089 4340:0.017812158 4341:0.036077229 4342:0.033611127 4343:0.30783312 4344:0.34943465 4345:0.16587215 4346:0.032049355 4347:0.039950696 4348:0.17705062 4349:0.17414171 4350:0.23197816 4351:0.17899765 4352:0.13970874 4353:0.12627645 4354:0.060243532 4355:0.2033755 4356:0.21208392 4357:0.19440376 4358:0 4359:0.061852579 4360:0.13015928 4361:0.16760338 4362:0.029122468 4363:0.073077537 4364:0.028769438 4365:0.055720216 4366:0.17594875 4367:0.078801195 4368:0.60160032 4369:0.028664652 4370:0.20146666 4371:0.0058496248 4372:0.0045428842 4373:0.0046475996 4374:0.033963046 4375:0.1151083 4376:0.11321709 4377:0.15081908 4378:0.11637415 4379:0.09083072 4380:0.082097809 4381:0.039166938 4382:0.13222325 4383:0.13788497 4384:0.16034604 4385:0.30964603 4386:0.21816597 4387:0.36625562 4388:0.098981859 4389:0.015229801 4390:0.041085092 4391:0.10260646 4392:0.1433312 4393:0.14100238 4394:0.063149955 4395:0.4821124 4396:0.022971371 4397:0.161452 4398:0.0046877912 4399:0.0036405911 4400:0.0037245083 4401:0.027217415 4402:0.37819697 4403:0.13472264 4404:0.24951137 4405:0.054971509 4406:0.14988302 4407:0.016627381 4408:0.06968452 4409:0.046806943 4410:0.16867409 4411:0.12849862 4412:0.24814513 4413:0.17483455 4414:0.29351111 4415:0.079322401 4416:0.012204907 4417:0.032924903 4418:0.082227091 4419:0.11486322 4420:0.1992384 4421:0.038206875 4422:0.26774224 4423:0.24048458 4424:0.10519923 4425:0.11820793 4426:0.022207177 4427:0.061828037 4428:0.096434629 4429:0.43833475 4430:0.15614513 4431:0.28918663 4432:0.063712628 4433:0.17371619 4434:0.019271331 4435:0.080765181 4436:0.054249799 4437:0.19549526 4438:0.31493396 4439:0.31798141 4440:0.12721501 4441:0.13452364 4442:0.09909553 4443:0.042225182 4444:0.013186721 4445:0.058995318 4446:0 4447:0.23091966 4448:0.04428222 4449:0.31031642 4450:0.27872447 4451:0.12192715 4452:0.13700439 4453:0.025738381 4454:0.071659425 4455:0.11176887 4456:0.1680095 4457:0.10242535 4458:0.051738832 4459:0.066324237 4460:0.066675642 4461:0.042929252 4462:0.072700089 4463:0.14372312 4464:0.092239407 4465:0.38217733 4466:0.38587546 4467:0.15437742 4468:0.16324657 4469:0.12025399 4470:0.051240925 4471:0.016002294 4472:0.071591751 4473:0 4474:0.28975307 4475:0.34942839 4476:0.38018189 4477:0.092660292 4478:0.1363577 4479:0.094578689 4480:0.022115824 4481:0.097695283 4482:0.071772862 4483:0.20388218 4484:0.12429478 4485:0.062785891 4486:0.08048551 4487:0.080911946 4488:0.052095326 4489:0.088222707 4490:0.17441028 4491:0.11193398 4492:0.075948239 4493:0.070273892 4494:0.057396929 4495:0.062059763 4496:0.15233281 4497:0.10816195 4498:0.091969618 4499:0.18635303 4500:0.082549018 4501:0.3342387 4502:0.40307594 4503:0.43855101 4504:0.10688638 4505:0.15729263 4506:0.10909931 4507:0.025511255 4508:0.11269439 4509:0.082792111 4510:0.0017006512 4511:0.034195883 4512:0.047235907 4513:0.19278363 4514:0.40284595 4515:0.12306624 4516:0.055376539 4517:0.0336061 4518:0.023107506 4519:0.087608532 4520:0.081063006 4521:0.06620905 4522:0.071587765 4523:0.17572039 4524:0.124768 4525:0.10608966 4526:0.21496371 4527:0.095222725 4528:0.01551404 4529:0.066412938 4530:0.036005896 4531:0.16643367 4532:0.22283321 4533:0.11800065 4534:0.085015918 4535:0.033179864 4536:0.014062774 4537:0.0021390614 4538:0.043011226 4539:0.059412834 4540:0.24248124 4541:0.50669546 4542:0.15479144 4543:0.069652036 4544:0.042269404 4545:0.029064382 4546:0.018182022 4547:0.021715687 4548:0.086908737 4549:0.15731348 4550:0.48380581 4551:0.12691764 4552:0.012484592 4553:0.072443006 4554:0 4555:0.019513399 4556:0.083533504 4557:0.045287843 4558:0.20933854 4559:0.2802773 4560:0.14841999 4561:0.10693214 4562:0.041733288 4563:0.017688011 4564:0.008256941 4565:0.055883599 4566:0 4567:0.1027323 4568:0.24290117 4569:0.31557403 4570:0.13529754 4571:0.02847998 4572:0.014050408 4573:0.019655321 4574:0.023475321 4575:0.093951001 4576:0.17006068 4577:0.52300887 4578:0.13720185 4579:0.013496226 4580:0.078313104 4581:0 4582:0.010243917 4583:0.013988121 4584:0.022144352 4585:0.10655845 4586:0.44130705 4587:0.20427528 4588:0.049258676 4589:0.016361989 4590:0.036516586 4591:0.0089260056 4592:0.060411879 4593:0 4594:0.11105676 4595:0.26258359 4596:0.34114517 4597:0.14626077 4598:0.030787729 4599:0.01518892 4600:0.06622848 4601:0.046597284 4602:0.069188844 4603:0.12594217 4604:0.3472316 4605:0.14706767 4606:0.10551895 4607:0.069618496 4608:0.025185498 4609:0.0089888228 4610:0.012274283 4611:0.019431205 4612:0.093502806 4613:0.3872377 4614:0.17924729 4615:0.043223457 4616:0.014357303 4617:0.03204254 4618:0.01711233 4619:0.020201778 4620:0 4621:0.032087637 4622:0.096601219 4623:0.54358898 4624:0.30683528 4625:0.061511886 4626:0.012195564 4627:0.058114105 4628:0.040888141 4629:0.060711763 4630:0.11051161 4631:0.30468846 4632:0.1290488 4633:0.092590673 4634:0.061088773 4635:0.022099747 4636:0.025902841 4637:0.0074897314 4638:0.043546057 4639:0.091590184 4640:0.28702834 4641:0.34970571 4642:0.20096524 4643:0.038831101 4644:0.0040897304 4645:0.01398595 4646:0.016510963 4647:0 4648:0.026225306 4649:0.078952416 4650:0.44427663 4651:0.25077724 4652:0.050273817 4653:0.0099674651 4654:0 4655:0 4656:0 4657:0 4658:0.040262912 4659:0.135626 4660:0.046935026 4661:0 4662:0 4663:0.021170457 4664:0.0061213761 4665:0.035590301 4666:0.074856885 4667:0.23458898 4668:0.28581534 4669:0.16424939 4670:0.031736755 4671:0.0033425468 4672:0.029818702 4673:0 4674:0.056528514 4675:0.047245018 4676:0.24402284 4677:0.65681045 4678:0.18581129 4679:0 4680:0.060250903 4681:0 4682:0 4683:0 4684:0 4685:0.04160607 4686:0.14015044 4687:0.048500764 4688:0 4689:0 4690:0 4691:0 4692:0 4693:0 4694:0 4695:0 4696:0 4697:0 4698:0 4699:0.030813444 4700:0 4701:0.058414288 4702:0.048821097 4703:0.25216337 4704:0.67872144 4705:0.1920099 4706:0 4707:0.062260854 4708:0.027649265 4709:0 4710:0.13087147 4711:0.12855229 4712:0.21549733 4713:0.41032574 4714:0.39148838 4715:0.0089148964 4716:0.044378458 4717:0 4718:0 4719:0 4720:0 4721:0 4722:0 4723:0 4724:0 4725:0 4726:0 4727:0 4728:0 4729:0 4730:0 4731:0 4732:0 4733:0 4734:0 4735:0.035794529 4736:0 4737:0.16942521 4738:0.16642282 4739:0.27898122 4740:0.53120459 4741:0.50681789 4742:0.011541157 4743:0.057452016 4744:0.018511773 4745:0 4746:0.017652659 4747:0.059032803 4748:0.17900043 4749:0.39426535 4750:0.36070544 4751:0.01662048 4752:0 4753:0 4754:0 4755:0 4756:0 4757:0 4758:0 4759:0 4760:0 4761:0 4762:0.055164216 4763:0 4764:0 4765:0 4766:0.037063457 4767:0 4768:0 4769:0 4770:0 4771:0.02876869 4772:0 4773:0.027433562 4774:0.091741424 4775:0.27818016 4776:0.61271807 4777:0.56056344 4778:0.025829479 4779:0 4780:0.15694406 4781:0 4782:0 4783:0 4784:0.39048005 4785:0.090113021 4786:0.10327476 4787:0 4788:0.14828415 4789:0.55333919 4790:0 4791:0.030199576 4792:0 4793:0.032031488 4794:0 4795:0 4796:0.011937431 4797:0.14531553 4798:0.59149474 4799:0.07649886 4800:0.015099788 4801:0 4802:0.0053385813 4803:0 4804:0.060399146 4805:0.035812291 4806:0.022011534 4807:0.35113032 4808:0.11937432 4809:0.015099788 4810:0 4811:0.016015744 4812:0 4813:0.015099788 4814:0.047749723 4815:0.11155137 4816:0.38163826 4817:0.083562012 4818:0.015099788 4819:0 4820:0.010677163 4821:0 4822:0.022649681 4823:0.047749723 4824:0.022011534 4825:0.055608462 4826:0.0071919219 4827:0.0014195832 4828:0 4829:0.00050189845 4830:0 4831:0.0056783322 4832:0.0033668371 4833:0.0020693803 4834:0.82375236 4835:0.064871225 4836:0 4837:0 4838:0 4839:0 4840:0.0014195832 4841:0.055672586 4842:0.28083801 4843:0.03587913 4844:0.0078559532 4845:0.0014195832 4846:0 4847:0.0010037969 4848:0 4849:0.0021293747 4850:0.0044891163 4851:0.0020693803 4852:0.36503932 4853:0 4854:0 4855:0 4856:0 4857:0.031603666 4858:0.073950942 4859:0.091773996 4860:0.28728638 4861:0.63822221 4862:0.050260562 4863:0 4864:0 4865:0 4866:0 4867:0.0010998567 4868:0.043133692 4869:0.21758609 4870:0.079768585 4871:0.0040035388 4872:0.037625874 4873:0.063852853 4874:0.2556512 4875:0.22236562 4876:0.083423955 4877:0.045084714 4878:0.0045514667 4879:0.28282311 4880:0 4881:0 4882:0 4883:0 4884:0.02448571 4885:0.057295294 4886:0.07110414 4887:0.22258212 4888:0.071499899 4889:0.065471234 4890:0.042736495 4891:0.11310766 4892:0.4355909 4893:0.16555966 4894:0.084458384 4895:0.13148517 4896:0.034535782 4897:0.060841221 4898:0.0030535855 4899:0.028698066 4900:0.048701949 4901:0.19499069 4902:0.16960306 4903:0.063629251 4904:0.034387084 4905:0.0034715019 4906:0.41965189 4907:0.019006113 4908:0.02207562 4909:0.047094556 4910:0.045433041 4911:0.060936843 4912:0.066525524 4913:0.058038384 4914:0.16513443 4915:0.054534515 4916:0.049936323 4917:0.032596047 4918:0.086269655 4919:0.33223458 4920:0.12627593 4921:0.064418232 4922:0.10028658 4923:0.026341187 4924:0.2566559 4925:0.06432104 4926:0.032995215 4927:0.045318969 4928:0.60804326 4929:0.24770808 4930:0.058196499 4931:0.12367006 4932:0.151462 4933:0.35178981 4934:0.015932627 4935:0.018505762 4936:0.039478877 4937:0.038086046 4938:0.051082722 4939:0.055767655 4940:0.048652973 4941:0.13843048 4942:0.43224975 4943:0.020137388 4944:0.052716199 4945:0.029617593 4946:0.041810738 4947:0.10239701 4948:0.065799729 4949:0.028576077 4950:0.10485323 4951:0.21515197 4952:0.053919659 4953:0.027659545 4954:0.03799042 4955:0.50971634 4956:0.2076511 4957:0.04878552 4958:0.10367133 4959:0.12696902 4960:0.29696907 4961:0.15100601 4962:0.030562624 4963:0.17370114 4964:0.28672735 4965:0.1219221 4966:0.014952901 4967:0.0060083834 4968:0.055607038 4969:0.53788522 4970:0.025058669 4971:0.065599261 4972:0.036855696 4973:0.052028666 4974:0.12742133 4975:0.081880213 4976:0.03555965 4977:0.13047782 4978:0.018626484 4979:0.010956675 4980:0.022191948 4981:0.020674991 4982:0.18935536 4983:0.21494543 4984:0.10203184 4985:0.019714308 4986:0.024574608 4987:0.36954394 4988:0.18790966 4989:0.038031679 4990:0.21615113 4991:0.35679928 4992:0.15171806 4993:0.01860717 4994:0.0074767438 4995:0.069196579 4996:0.073026497 4997:0.129343 4998:0.14216137 4999:0.18746956 5000:0.18735176 5001:0.26424719 5002:0 5003:0.0098832548 5004:0.087232286 5005:0.022590249 5006:0.013288284 5007:0.026914453 5008:0.025074683 5009:0.22965067 5010:0.26068639 5011:0.12374449 5012:0.023909565 5013:0.029804149 5014:0.13208388 5015:0.12991377 5016:0.17306111 5017:0.13353642 5018:0.10422597 5019:0.094205174 5020:0.044943077 5021:0.15172285 5022:0.15821954 5023:0.088566727 5024:0.15686754 5025:0.17241369 5026:0.22736357 5027:0.22722071 5028:0.32047969 5029:0 5030:0.011986437 5031:0.10579555 5032:0.085835371 5033:0.10315221 5034:0.27655274 5035:0.32581612 5036:0.4043098 5037:0.099159522 5038:0.11617947 5039:0.13196867 5040:0.15546944 5041:0.10267492 5042:0.10098799 5043:0.13452841 5044:0.10380404 5045:0.081019673 5046:0.073230044 5047:0.034936335 5048:0.1179412 5049:0.12299138 5050:0.14302632 5051:0.27619973 5052:0.19460085 5053:0.32669465 5054:0.088290369 5055:0.013584759 5056:0.036647301 5057:0.091523456 5058:0.12784933 5059:0.066723809 5060:0.080184993 5061:0.21497725 5062:0.25327196 5063:0.31428873 5064:0.077081288 5065:0.090311684 5066:0.10258536 5067:0.1208536 5068:0.37815237 5069:0.2628199 5070:0.017404837 5071:0.054784333 5072:0.1295864 5073:0.06011275 5074:0.011721995 5075:0.2905486 5076:0.23071053 5077:0.13569718 5078:0.26204635 5079:0.18462887 5080:0.30995375 5081:0.083766082 5082:0.012888632 5083:0.034769374 5084:0.086833496 5085:0.12129792 5086:0.21039984 5087:0.040347244 5088:0.2827413 5089:0.25395665 5090:0.11109254 5091:0.12483 5092:0.023451235 5093:0.065291676 5094:0.10183695 5095:0.35877461 5096:0.24935215 5097:0.016512956 5098:0.051977004 5099:0.12294597 5100:0.057032377 5101:0.011121322 5102:0.27565994 5103:0.21888817 5104:0.074348572 5105:0.074194673 5106:0.069768802 5107:0.043759095 5108:0.093693149 5109:0.0022820232 5110:0.038314129 5111:0.2759864 5112:0.27959914 5113:0.25551986 5114:0.048999668 5115:0.34337487 5116:0.30841739 5117:0.13491622 5118:0.15159966 5119:0.028480327 5120:0.079293406 5121:0.12367577 5122:0.18590779 5123:0.11333687 5124:0.057250644 5125:0.073389853 5126:0.073778694 5127:0.047502567 5128:0.080444933 5129:0.15903416 5130:0.1020658 5131:0.090292543 5132:0.090105641 5133:0.084730647 5134:0.053143187 5135:0.11378554 5136:0.0027714007 5137:0.046530552 5138:0.33517139 5139:0.33955887 5140:0.23774148 5141:0.043961088 5142:0.035455725 5143:0.078800837 5144:0.022946374 5145:0.032391103 5146:0.10553988 5147:0.35884521 5148:0.27076005 5149:0.21679521 5150:0.13216708 5151:0.066762481 5152:0.085583119 5153:0.086036563 5154:0.055394822 5155:0.093810357 5156:0.18545669 5157:0.1190234 5158:0.080758477 5159:0.074724741 5160:0.061032206 5161:0.065990363 5162:0.16198092 5163:0.11501247 5164:0.097794582 5165:0.19815584 5166:0.087777321 5167:0.27724074 5168:0.051264949 5169:0.041346473 5170:0.091893105 5171:0.026758771 5172:0.037772682 5173:0.12307467 5174:0.41846511 5175:0.31574514 5176:0.19921328 5177:0.22962318 5178:0.47252508 5179:0.070684009 5180:0.12429916 5181:0.13029842 5182:0 5183:0.069778598 5184:0.0019984056 5185:0.088417182 5186:0.081811239 5187:0.066820177 5188:0.072248539 5189:0.17734233 5190:0.12591964 5191:0.1070689 5192:0.21694788 5193:0.096101656 5194:0.015657239 5195:0.067025947 5196:0.03633824 5197:0.16796989 5198:0.22489002 5199:0.11908982 5200:0.085800638 5201:0.033486123 5202:0.014192577 5203:0.21810561 5204:0.25139943 5205:0.51733685 5206:0.077387306 5207:0.13608703 5208:0.14265523 5209:0 5210:0.07639603 5211:0.0021879238 5212:0 5213:0.13102198 5214:0.067564565 5215:0.23877265 5216:0.43656756 5217:0.23061279 5218:0.020158184 5219:0.0064363074 5220:0.03072083 5221:0.017597058 5222:0.075329979 5223:0.040840286 5224:0.18878015 5225:0.25275227 5226:0.13384419 5227:0.096430719 5228:0.037634812 5229:0.015950935 5230:0.0074460565 5231:0.050395472 5232:0 5233:0.092643333 5234:0.21904672 5235:0.28458264 5236:0.12201045 5237:0.025683063 5238:0.012670568 5239:0 5240:0.14725466 5241:0.075935327 5242:0.26835486 5243:0.49065513 5244:0.25918406 5245:0.022655638 5246:0.0072337195 5247:0.034526919 5248:0.085579404 5249:0.016552717 5250:0.035299814 5251:0.068691144 5252:0.22167561 5253:0.42995932 5254:0.070031911 5255:0.19288699 5256:0.096283335 5257:0.0088303789 5258:0.05976467 5259:0 5260:0.10986698 5261:0.25977046 5262:0.33749039 5263:0.14469384 5264:0.030457891 5265:0.015026197 5266:0.065518956 5267:0.046098074 5268:0.068447605 5269:0.12459291 5270:0.34351162 5271:0.14549209 5272:0.1043885 5273:0.068872655 5274:0.024915679 5275:0.10148977 5276:0.01963009 5277:0.041862526 5278:0.081461755 5279:0.26288809 5280:0.50989456 5281:0.083051788 5282:0.22874728 5283:0.11418371 5284:0.077034705 5285:0.12592412 5286:0.13483564 5287:0.11174318 5288:0.18284192 5289:0.21792862 5290:0.13516889 5291:0.064707821 5292:0.14991986 5293:0.072196268 5294:0.050796123 5295:0.075423388 5296:0.1372907 5297:0.37852033 5298:0.1603198 5299:0.11502717 5300:0.075891756 5301:0.02745494 5302:0.032179597 5303:0.0093046371 5304:0.054098103 5305:0.11378424 5306:0.35658082 5307:0.43444611 5308:0.24966297 5309:0.048240622 5310:0.0050807506 5311:0.084885636 5312:0.13875757 5313:0.1485773 5314:0.1231314 5315:0.20147611 5316:0.24013864 5317:0.14894452 5318:0.071302467 5319:0.16519882 5320:0.0097957292 5321:0.067798057 5322:0.094568261 5323:0.12686947 5324:0.29344926 5325:0.18902177 5326:0.10504605 5327:0.0014091467 5328:0.047411907 5329:0.022286369 5330:0.006444039 5331:0.037466296 5332:0.078802655 5333:0.24695436 5334:0.30088091 5335:0.17290711 5336:0.033409627 5337:0.0035187353 5338:0.031390471 5339:0 5340:0.05950818 5341:0.049735342 5342:0.25688549 5343:0.69143148 5344:0.19560556 5345:0 5346:0.063426779 5347:0.0067841508 5348:0.046954365 5349:0.065494393 5350:0.087864984 5351:0.20323183 5352:0.13090931 5353:0.072750911 5354:0.00097592158 5355:0.03283569 5356:0.0070374705 5357:0.13748845 5358:0.18111522 5359:0.18987968 5360:0.16900583 5361:0.14029182 5362:0.025137622 5363:0.013515069 5364:0.0035990208 5365:0.023339286 5366:0 5367:0.044245226 5368:0.036978974 5369:0.19099822 5370:0.51408969 5371:0.14543567 5372:0 5373:0.047158763 5374:0.020942615 5375:0 5376:0.099127079 5377:0.097370443 5378:0.16322596 5379:0.31079648 5380:0.29652833 5381:0.006752485 5382:0.033613949 5383:0.0052324651 5384:0.10222473 5385:0.13466189 5386:0.14117839 5387:0.12565838 5388:0.10430908 5389:0.0186902 5390:0.010048657 5391:0.0026759261 5392:0.31205664 5393:0.19400887 5394:0.071952389 5395:0.074089624 5396:0.18737487 5397:0.064568801 5398:0.079232124 5399:0.1465701 5400:0.38923538 5401:0.020749419 5402:0 5403:0.098212629 5404:0.096472198 5405:0.16172019 5406:0.30792937 5407:0.29379285 5408:0.0066901931 5409:0.033303859 5410:0.010730929 5411:0 5412:0.010232916 5413:0.034220212 5414:0.1037632 5415:0.22854825 5416:0.2090942 5417:0.0096345816 5418:0 5419:0.30917791 5420:0.19221913 5421:0.071288626 5422:0.073406145 5423:0.18564633 5424:0.063973152 5425:0.078501205 5426:0.14521799 5427:0.38564468 5428:0.0054656726 5429:0.0017313851 5430:0.020421888 5431:0.04386169 5432:0.48900254 5433:0.2433073 5434:0.068998916 5435:0.030949664 5436:0.003976861 5437:0.011835242 5438:0 5439:0.011285979 5440:0.037741793 5441:0.11444141 5442:0.25206801 5443:0.23061195 5444:0.01062607 5445:0 5446:0.064565712 5447:0 5448:0 5449:0 5450:0.16064081 5451:0.037071879 5452:0.042486529 5453:0 5454:0.061003081 5455:0.0060281416 5456:0.0019095609 5457:0.022523492 5458:0.04837547 5459:0.53932549 5460:0.26834591 5461:0.076099552 5462:0.034134675 5463:0.0043861173 5464:0.019311506 5465:0.0066000554 5466:0.036187473 5467:0.074456124 5468:0.58936204 5469:0.18770367 5470:0.26190582 5471:0.015065138 5472:0.0093279793 5473:0.3965707 5474:0.13482275 5475:0.017053877 5476:0 5477:0.018088368 5478:0 5479:0.017053877 5480:0.053929096 5481:0.12598742 5482:0.43102672 5483:0.094375914 5484:0.017053877 5485:0 5486:0.012058912 5487:0 5488:0.025580815 5489:0.053929096 5490:0.024860084 5491:0.62161746 5492:0.094375914 5493:0.017053877 5494:0 5495:0.024117825 5496:0 5497:0.0085269385 5498:0.026964548 5499:0.019066815 5500:0.44504252 5501:0.053929096 5502:0.076742439 5503:0 5504:0.030147281 5505:0 5506:0.0085269385 5507:0 5508:0.019066815 5509:0.068419228 5510:0.014980805 5511:0.0027070551 5512:0 5513:0.0019141771 5514:0 5515:0.0040605826 5516:0.0085604603 5517:0.0039461771 5518:0.69610684 5519:0 5520:0 5521:0 5522:0 5523:0.060266187 5524:0.14101976 5525:0.17500719 5526:0.54783692 5527:0.070644032 5528:0.0085604603 5529:0.012181747 5530:0 5531:0.0047854427 5532:0 5533:0.0013535276 5534:0 5535:0.0030265798 5536:0.35791165 5537:0.05831029 5538:0.025051925 5539:0.023025253 5540:0.013433377 5541:0.033607304 5542:0.048094959 5543:0.029584905 5544:0.11721292 5545:0.3467959 5546:0 5547:0 5548:0 5549:0 5550:0.030024222 5551:0.070255126 5552:0.087187445 5553:0.27292879 5554:0.087672722 5555:0.080280411 5556:0.052403219 5557:0.1386919 5558:0.53411879 5559:0.20300821 5560:0.10356233 5561:0.16122628 5562:0.042347557 5563:0.17830926 5564:0.029049807 5565:0.012480706 5566:0.011471031 5567:0.0066924211 5568:0.01674294 5569:0.023960595 5570:0.014739007 5571:0.058394713 5572:0.12366334 5573:0.10305075 5574:0.086674448 5575:0.17547969 5576:0.46624825 5577:0.23087492 5578:0.13080602 5579:0.012369658 5580:0.032551726 5581:0.055870692 5582:0.051159837 5583:0.033394698 5584:0.08838339 5585:0.34037482 5586:0.12936988 5587:0.065996575 5588:0.10274375 5589:0.026986585 5590:0.26294435 5591:0.065897001 5592:0.033803646 5593:0.046429351 5594:0.62294122 5595:0.25377729 5596:0.0596224 5597:0.12670016 5598:0.15517305 5599:0.078806227 5600:0.065670559 5601:0.055234528 5602:0.11182694 5603:0.29712335 5604:0.14712834 5605:0.083358004 5606:0.007882741 5607:0.020744052 5608:0.23689439 5609:0.048068982 5610:0.13083379 5611:0.078418394 5612:0.11476348 5613:0.052486487 5614:0.040855454 5615:0.03922013 5616:0.14106175 5617:0.24082818 5618:0.060354425 5619:0.030960432 5620:0.042524193 5621:0.57054583 5622:0.23243216 5623:0.054607578 5624:0.11604345 5625:0.14212149 5626:0.33240933 5627:0.16902705 5628:0.034209963 5629:0.19443061 5630:0.32094535 5631:0.13647227 5632:0.016737378 5633:0.0067254231 5634:0.062243175 5635:0.21696927 5636:0.044025915 5637:0.1198294 5638:0.071822647 5639:0.10511076 5640:0.048071864 5641:0.037419114 5642:0.035921337 5643:0.12919709 5644:0.32057281 5645:0.023486638 5646:0 5647:0.0087402417 5648:0.015871788 5649:0.065574817 5650:0.054591076 5651:0.010476063 5652:0.056732673 5653:0.43531082 5654:0.22135151 5655:0.044800088 5656:0.25461905 5657:0.42029802 5658:0.17871897 5659:0.021918644 5660:0.0088073624 5661:0.081511333 5662:0.086022852 5663:0.15236188 5664:0.1674615 5665:0.22083308 5666:0.22069432 5667:0.31127465 5668:0 5669:0.011642155 5670:0.10275681 5671:0.41981016 5672:0.030757223 5673:0 5674:0.011445893 5675:0.020785099 5676:0.085874327 5677:0.071490431 5678:0.01371906 5679:0.074294986 5680:0.024549006 5681:0.014393353 5682:0.029528445 5683:0.024573366 5684:0.10411433 5685:0.071657819 5686:0.024507005 5687:0.01115196 5688:0.015231436 5689:0.094649651 5690:0.16764148 5691:0.18425537 5692:0.24297932 5693:0.24282664 5694:0.34249082 5695:0 5696:0.012809688 5697:0.11306178 5698:0.091730701 5699:0.1102369 5700:0.29554689 5701:0.34819376 5702:0.43207854 5703:0.10596998 5704:0.12415889 5705:0.14103252 5706:0.16614736 5707:0.027010902 5708:0.015836789 5709:0.032489705 5710:0.027037705 5711:0.11455543 5712:0.078844022 5713:0.02696469 5714:0.012270334 5715:0.01675892 5716:0.25646192 5717:0.19401568 5718:0.025544691 5719:0.10234836 5720:0.059832299 5721:0.036179395 5722:0.057825811 5723:0.039907799 5724:0.20765045 5725:0.073762545 5726:0.088643758 5727:0.23765534 5728:0.27998977 5729:0.34744325 5730:0.085212642 5731:0.09983872 5732:0.11340716 5733:0.13360252 5734:0.4180439 5735:0.29054494 5736:0.019240884 5737:0.060563566 5738:0.14325655 5739:0.066454082 5740:0.012958556 5741:0.32119875 5742:0.25504833 5743:0.20622631 5744:0.156012 5745:0.020541012 5746:0.082300423 5747:0.048112384 5748:0.029092597 5749:0.046498926 5750:0.032090683 5751:0.166976 5752:0.13385511 5753:0.050330564 5754:0.032186054 5755:0.16492549 5756:0.17224467 5757:0.109383 5758:0.15410706 5759:0.061939618 5760:0.020661062 5761:0.42403532 5762:0.29470904 5763:0.019516645 5764:0.061431565 5765:0.14530971 5766:0.067406503 5767:0.013144278 5768:0.32580218 5769:0.25870369 5770:0.087872496 5771:0.087690603 5772:0.082459671 5773:0.051718827 5774:0.11073583 5775:0.0026971208 5776:0.045283427 5777:0.32618803 5778:0.33045791 5779:0.13577353 5780:0.051051903 5781:0.032647346 5782:0.16728921 5783:0.17471328 5784:0.11095068 5785:0.15631572 5786:0.062827338 5787:0.020957177 5788:0.057614218 5789:0.083254428 5790:0.13064754 5791:0.1604685 5792:0.28828342 5793:0.11023347 5794:0.013631569 5795:0.059221495 5796:0.041272239 5797:0.10143073 5798:0.10122077 5799:0.095182732 5800:0.05969875 5801:0.12782174 5802:0.0031132713 5803:0.052270403 5804:0.376517 5805:0.3814457 5806:0.26706846 5807:0.049383979 5808:0.039829423 5809:0.088521441 5810:0.025776961 5811:0.036386759 5812:0.11855892 5813:0.40311114 5814:0.30416009 5815:0.066503766 5816:0.096100115 5817:0.15080571 5818:0.18522788 5819:0.33276392 5820:0.12724187 5821:0.015734843 5822:0.068359037 5823:0.047640312 5824:0.072907918 5825:0.13498091 5826:0.036126411 5827:0.069682211 5828:0.23267489 5829:0.068190309 5830:0.090288623 5831:0.041336059 5832:0.055555216 5833:0.26264076 5834:0.048565247 5835:0.039169095 5836:0.087053854 5837:0.025349607 5838:0.035783507 5839:0.11659335 5840:0.396428 5841:0.29911745 5842:0.18872236 5843:0.21753083 5844:0.44764109 5845:0.066961666 5846:0.11775335 5847:0.12343668 5848:0 5849:0.066103936 5850:0.0018931661 5851:0.071699185 5852:0.13274307 5853:0.035527476 5854:0.068526958 5855:0.2288174 5856:0.067059789 5857:0.088791738 5858:0.040650753 5859:0.054634172 5860:0.11408873 5861:0.085396666 5862:0.071339853 5863:0.025258232 5864:0.35147212 5865:0.24406237 5866:0.16679825 5867:0.032335518 5868:0.0054098403 5869:0.16978772 5870:0.19570581 5871:0.40272895 5872:0.060243356 5873:0.10593908 5874:0.11105219 5875:0 5876:0.059471682 5877:0.0017032234 5878:0 5879:0.1019961 5880:0.05259669 5881:0.1858763 5882:0.33985283 5883:0.17952413 5884:0.015692453 5885:0.005010444 5886:0.023915109 5887:0.10264213 5888:0.07682876 5889:0.064182276 5890:0.022724056 5891:0.31620868 5892:0.21957543 5893:0.15006327 5894:0.029091274 5895:0.0048670673 5896:0.0010020888 5897:0.012629155 5898:0.018928669 5899:0.1187257 5900:0.44187227 5901:0.37517143 5902:0.018945285 5903:0 5904:0.0046883287 5905:0 5906:0.10406045 5907:0.05366122 5908:0.18963834 5909:0.34673128 5910:0.18315761 5911:0.01601006 5912:0.0051118528 5913:0.024399139 5914:0.0604764 5915:0.011697309 5916:0.02494532 5917:0.048541973 5918:0.15665151 5919:0.30383937 5920:0.049489452 5921:0.13630745 5922:0.068040547 5923:0.0010223706 5924:0.012884763 5925:0.019311776 5926:0.12112864 5927:0.45081553 5928:0.3827647 5929:0.019328728 5930:0 5931:0.004783218 5932:0.023661663 5933:0.056383267 5934:0.09966166 5935:0.17454781 5936:0.4702464 5937:0.11743996 5938:0.0069004754 5939:0.03612506 5940:0.025018787 5941:0.073453232 5942:0.01420728 5943:0.030298008 5944:0.058957954 5945:0.19026529 5946:0.36903625 5947:0.060108741 5948:0.16555587 5949:0.08264047 5950:0.055753877 5951:0.091137594 5952:0.097587307 5953:0.08087414 5954:0.13233186 5955:0.15772586 5956:0.097828503 5957:0.046832293 5958:0.10850451 5959:0.028738907 5960:0.068481808 5961:0.12104674 5962:0.21200172 5963:0.57115037 5964:0.14263985 5965:0.0083811573 5966:0.043876659 5967:0.030387238 5968:0.19021753 5969:0.011305284 5970:0.051598186 5971:0.28740143 5972:0.1523368 5973:0.2502879 5974:0.17077048 5975:0.080678128 5976:0.16935003 5977:0.066420183 5978:0.10857318 5979:0.11625679 5980:0.096346219 5981:0.15764834 5982:0.18790049 5983:0.11654413 5984:0.055791806 5985:0.12926258 5986:0.0076648319 5987:0.053049722 5988:0.073996515 5989:0.099271133 5990:0.22961427 5991:0.14790324 5992:0.082195034 5993:0.0011026104 5994:0.037098239 5995:0.22660815 5996:0.013468104 5997:0.061469466 5998:0.34238436 5999:0.18148044 6000:0.29817062 6001:0.20344068 6002:0.096112707 6003:0.20174848 6004:0.24940949 6005:0.12747812 6006:0.22308961 6007:0.21281334 6008:0.29192438 6009:0.23944052 6010:0.20411051 6011:0.13394428 6012:0.071611121 6013:0.0056462295 6014:0.039078601 6015:0.054508868 6016:0.073127187 6017:0.16914329 6018:0.10895159 6019:0.060548233 6020:0.000812228 6021:0.027328084 6022:0.0058570594 6023:0.1144272 6024:0.15073635 6025:0.15803072 6026:0.1406581 6027:0.11676035 6028:0.020921231 6029:0.011248156 6030:0.0029953488 6031:0.18372525 6032:0.09390561 6033:0.16433695 6034:0.15676703 6035:0.21504347 6036:0.17638171 6037:0.15035617 6038:0.098668849 6039:0.052751688 6040:0.028648742 6041:0.011994793 6042:0.029383546 6043:0.066618536 6044:0.50030463 6045:0.61662731 6046:0.043972057 6047:0.058919492 6048:0.039680105 6049:0.004597876 6050:0.089826996 6051:0.1183302 6052:0.12405639 6053:0.11041863 6054:0.091658556 6055:0.016423468 6056:0.0088299642 6057:0.0023513919 6058:0.27421067 6059:0.17047963 6060:0.063226062 6061:0.065104095 6062:0.16465019 6063:0.056737949 6064:0.069622916 6065:0.1287942 6066:0.34202923 6067:0.022489675 6068:0.0094160852 6069:0.023066507 6070:0.05229651 6071:0.39274634 6072:0.48406132 6073:0.034518698 6074:0.046252649 6075:0.031149454 6076:0.31921209 6077:0.16576839 6078:0.055456457 6079:0.032254906 6080:0.098531969 6081:0.2314359 6082:0.076247886 6083:0.08338061 6084:0.23254243 6085:0.29246426 6086:0.18182809 6087:0.067434881 6088:0.069437931 6089:0.17561059 6090:0.060514869 6091:0.07425756 6092:0.13736774 6093:0.36479736 6094:0.0051702074 6095:0.0016377893 6096:0.019317915 6097:0.0414906 6098:0.46256787 6099:0.23015451 6100:0.065268949 6101:0.029276577 6102:0.0037618785 6103:0.34046133 6104:0.17680322 6105:0.059148071 6106:0.034402044 6107:0.10509103 6108:0.24684208 6109:0.081323539 6110:0.088931073 6111:0.24802227 6112:0.091226164 6113:0.055354574 6114:0.099126923 6115:0.097917995 6116:0.21174311 6117:0.080172629 6118:0.099914766 6119:0.091574881 6120:0.074675363 6121:0.0057800736 6122:0.0018309793 6123:0.021596613 6124:0.046384739 6125:0.51713135 6126:0.25730303 6127:0.07296793 6128:0.032729977 6129:0.0042056214 6130:0.018516805 6131:0.0063284522 6132:0.034698299 6133:0.071392131 6134:0.56510882 6135:0.17997935 6136:0.25112796 6137:0.014445183 6138:0.0089441175 6139:0.101987 6140:0.061884077 6141:0.11081972 6142:0.10946819 6143:0.23671986 6144:0.089629616 6145:0.11170049 6146:0.10237685 6147:0.083483903 6148:0.1083058 6149:0.11490497 6150:0.088097417 6151:0.09550876 6152:0.21841124 6153:0.05883485 6154:0.048209357 6155:0.032978944 6156:0.081476329 6157:0.56943004 6158:0.086452656 6159:0.015622132 6160:0 6161:0.022093031 6162:0 6163:0.0078110659 6164:0.02470076 6165:0.017466075 6166:0.40767931 6167:0.04940152 6168:0.070299586 6169:0 6170:0.027616289 6171:0 6172:0.0078110659 6173:0 6174:0.017466075 6175:0.53649407 6176:0.26012691 6177:0.090213983 6178:0 6179:0.038662804 6180:0 6181:0 6182:0 6183:0 6184:0.17684601 6185:0.25811818 6186:0.12497705 6187:0.04940152 6188:0.088372124 6189:0.02470076 6190:0.046866394 6191:0.01235038 6192:0 6193:0.14037162 6194:0.017009869 6195:0.024205464 6196:0 6197:0.0095088055 6198:0 6199:0.0026894963 6200:0 6201:0.0060138967 6202:0.71118024 6203:0.11586414 6204:0.04977886 6205:0.045751808 6206:0.026692488 6207:0.066778632 6208:0.095565998 6209:0.058786014 6210:0.23290527 6211:0.060891395 6212:0.088874925 6213:0.043031941 6214:0.017009869 6215:0.030428177 6216:0.0085049343 6217:0.016136977 6218:0.0042524671 6219:0 6220:0.5715936 6221:0.033229612 6222:0.12908202 6223:0.074165026 6224:0.034703883 6225:0.051249666 6226:0.028592945 6227:0.087062091 6228:0.079181721 6229:0.25350365 6230:0.041300335 6231:0.017743916 6232:0.016308454 6233:0.0095146668 6234:0.023803567 6235:0.034064963 6236:0.02095456 6237:0.083020214 6238:0.17581313 6239:0.14650805 6240:0.12322573 6241:0.24948083 6242:0.66286874 6243:0.32823666 6244:0.18596793 6245:0.017586038 6246:0.046279041 6247:0.20374731 6248:0.011844856 6249:0.046011912 6250:0.026436483 6251:0.012370367 6252:0.018268192 6253:0.010192094 6254:0.031033705 6255:0.028224708 6256:0.041188919 6257:0.010328408 6258:0.04278274 6259:0.077489493 6260:0.38200768 6261:0.071716286 6262:0.032940022 6263:0.038188554 6264:0.016017888 6265:0.13941611 6266:0.1161778 6267:0.097715414 6268:0.19783306 6269:0.52564097 6270:0.26028477 6271:0.14746866 6272:0.013945359 6273:0.036698306 6274:0.4190899 6275:0.085038846 6276:0.23145809 6277:0.13873 6278:0.20302809 6279:0.092853854 6280:0.072277392 6281:0.069384339 6282:0.24955237 6283:0.032661947 6284:0.0081902103 6285:0.033925813 6286:0.061447538 6287:0.30292406 6288:0.056869507 6289:0.026120745 6290:0.030282721 6291:0.012701849 6292:0.10692916 6293:0.048101095 6294:0.011857408 6295:0.071860692 6296:0.21909546 6297:0.013001679 6298:0.017293058 6299:0.018383372 6300:0.050216886 6301:0.4340683 6302:0.08807816 6303:0.23973047 6304:0.14368825 6305:0.21028438 6306:0.096172478 6307:0.074860607 6308:0.071864156 6309:0.25847145 6310:0.64133734 6311:0.046987323 6312:0 6313:0.017485711 6314:0.031753068 6315:0.13118885 6316:0.1092148 6317:0.020958391 6318:0.11349928 6319:0.11075084 6320:0.049820242 6321:0.012281195 6322:0.074429015 6323:0.226926 6324:0.013466363 6325:0.017911117 6326:0.019040399 6327:0.052011652 6328:0.12367287 6329:0.034776611 6330:0 6331:0.005328898 6332:0.095191145 6333:0.10259217 6334:0.07383655 6335:0.11956846 6336:0.07745136 6337:0.73903586 6338:0.054145166 6339:0 6340:0.020149407 6341:0.036590191 6342:0.15117359 6343:0.1258521 6344:0.0241511 6345:0.13078926 6346:0.04321619 6347:0.025338128 6348:0.05198202 6349:0.043259074 6350:0.18328337 6351:0.12614678 6352:0.043142253 6353:0.019631966 6354:0.026813494 6355:0.14251265 6356:0.040074327 6357:0 6358:0.0061406789 6359:0.10969215 6360:0.11822061 6361:0.085084486 6362:0.13778299 6363:0.089249961 6364:0.012946152 6365:0.059144297 6366:0.049813431 6367:0.1875615 6368:0.43631351 6369:0.12244377 6370:0.0245731 6371:0.017335433 6372:0.058905324 6373:0.047467774 6374:0.027830879 6375:0.057095982 6376:0.047514877 6377:0.20131469 6378:0.13855703 6379:0.047386563 6380:0.021563347 6381:0.029451391 6382:0.45069494 6383:0.34095465 6384:0.04489112 6385:0.17986252 6386:0.10514666 6387:0.063580082 6388:0.10162054 6389:0.070132216 6390:0.36491579 6391:0.014219788 6392:0.06496288 6393:0.054714049 6394:0.2060137 6395:0.47923779 6396:0.13448972 6397:0.026990588 6398:0.019040884 6399:0.064700397 6400:0.098676656 6401:0.060322704 6402:0.057725756 6403:0.1061976 6404:0.13682852 6405:0.20093266 6406:0.071194164 6407:0.03357719 6408:0.12137979 6409:0.40425188 6410:0.30582007 6411:0.040265195 6412:0.16132811 6413:0.094311541 6414:0.057028303 6415:0.091148785 6416:0.062905255 6417:0.32731207 6418:0.26238737 6419:0.098659693 6420:0.063092205 6421:0.32329259 6422:0.33763989 6423:0.2144163 6424:0.30208593 6425:0.12141616 6426:0.040500521 6427:0.088508257 6428:0.05410659 6429:0.051777252 6430:0.095254187 6431:0.12272866 6432:0.18022702 6433:0.063857772 6434:0.030117139 6435:0.10887188 6436:0.076757267 6437:0.040036111 6438:0.047963476 6439:0.030858613 6440:0.032310314 6441:0.029689729 6442:0.099540361 6443:0.10890767 6444:0.08848183 6445:0.24973458 6446:0.093902144 6447:0.060049784 6448:0.30770284 6449:0.32135828 6450:0.20407676 6451:0.28751879 6452:0.11556125 6453:0.038547513 6454:0.10597252 6455:0.15313375 6456:0.2403061 6457:0.29515719 6458:0.53025313 6459:0.20275756 6460:0.02507318 6461:0.10892886 6462:0.075913953 6463:0.073055892 6464:0.038105497 6465:0.04565059 6466:0.029370555 6467:0.030752252 6468:0.028258036 6469:0.094740344 6470:0.10365595 6471:0.084215076 6472:0.084250546 6473:0.048139699 6474:0.067195488 6475:0.057506285 6476:0.012167346 6477:0.027337092 6478:0.066615765 6479:0.060047926 6480:0.059599648 6481:0.11639859 6482:0.16819976 6483:0.26394853 6484:0.32419613 6485:0.58242191 6486:0.22270579 6487:0.027539996 6488:0.11964578 6489:0.083382721 6490:0.12760749 6491:0.23625108 6492:0.063230452 6493:0.12196168 6494:0.40724052 6495:0.11935047 6496:0.15802816 6497:0.072348666 6498:0.097235825 6499:0.092539507 6500:0.052875907 6501:0.073806493 6502:0.063164021 6503:0.013364426 6504:0.030026643 6505:0.073169734 6506:0.06595572 6507:0.065463338 6508:0.064297038 6509:0.042201574 6510:0.017848021 6511:0.045950807 6512:0.045129149 6513:0.024250821 6514:0.078573385 6515:0.085869005 6516:0.037989726 6517:0.12098474 6518:0.22398979 6519:0.05994883 6520:0.11563194 6521:0.38610498 6522:0.11315625 6523:0.1498266 6524:0.068593815 6525:0.092189344 6526:0.19251258 6527:0.14409778 6528:0.1203784 6529:0.042620575 6530:0.59307175 6531:0.41182926 6532:0.28145427 6533:0.054562742 6534:0.0091285291 6535:0.060960061 6536:0.040011338 6537:0.01692172 6538:0.043565988 6539:0.042786974 6540:0.022992218 6541:0.074495474 6542:0.081412456 6543:0.036018082 6544:0.057909047 6545:0.077047335 6546:0.036710011 6547:0.017891615 6548:0.04279814 6549:0.020338579 6550:0.052689042 6551:0.046394814 6552:0.038459265 6553:0.13627386 6554:0.10200248 6555:0.085212245 6556:0.030169822 6557:0.41981763 6558:0.29152153 6559:0.199233 6560:0.038623322 6561:0.0064618108 6562:0.0013304333 6563:0.016767225 6564:0.025130838 6565:0.15762737 6566:0.58665616 6567:0.49810012 6568:0.025152898 6569:0 6570:0.0062245067 6571:0.04099207 6572:0.054539488 6573:0.025985911 6574:0.012664935 6575:0.030295514 6576:0.014397067 6577:0.037296986 6578:0.032841492 6579:0.027224155 6580:0.056106345 6581:0.098958553 6582:0.079862084 6583:0.022009302 6584:0.014265452 6585:0.01420808 6586:0.043219207 6587:0.05946068 6588:0.079087331 6589:0.0012462502 6590:0.01570628 6591:0.023540687 6592:0.14765351 6593:0.54953555 6594:0.46658288 6595:0.023561351 6596:0 6597:0.0058306517 6598:0.028843117 6599:0.068730129 6600:0.12148567 6601:0.21277045 6602:0.57322141 6603:0.14315708 6604:0.0084115481 6605:0.04403576 6606:0.030497424 6607:0.052556221 6608:0.09269696 6609:0.074808819 6610:0.020616666 6611:0.013362807 6612:0.013309065 6613:0.040484516 6614:0.055698311 6615:0.074083088 6616:0.059472406 6617:0.049833684 6618:0.034764672 6619:0.020517081 6620:0.0091798481 6621:0.028147445 6622:0.022182416 6623:0.034122157 6624:0.037027989 6625:0.034283999 6626:0.08169518 6627:0.14440237 6628:0.25290685 6629:0.68135223 6630:0.17016181 6631:0.0099982781 6632:0.052342537 6633:0.03625037 6634:0.22691946 6635:0.013486606 6636:0.061553911 6637:0.34285472 6638:0.18172975 6639:0.29858024 6640:0.20372016 6641:0.096244746 6642:0.20202564 6643:0.070691108 6644:0.059234165 6645:0.041322579 6646:0.024387364 6647:0.010911508 6648:0.033457097 6649:0.026366843 6650:0.040558861 6651:0.044012841 6652:0.029518722 6653:0.029087248 6654:0.013997032 6655:0.048277116 6656:0.013372919 6657:0.035789817 6658:0.013478994 6659:0.025702146 6660:0.018683264 6661:0.2556118 6662:0.015191891 6663:0.069336963 6664:0.38620625 6665:0.20470818 6666:0.33633358 6667:0.22947912 6668:0.1084142 6669:0.22757034 6670:0.28133149 6671:0.14379409 6672:0.25164292 6673:0.24005139 6674:0.32928788 6675:0.27008659 6676:0.23023468 6677:0.15108785 6678:0.080776652 6679:0.033251153 6680:0.032765123 6681:0.015766856 6682:0.054381412 6683:0.015063829 6684:0.040315184 6685:0.015183316 6686:0.028951998 6687:0.021045629 6688:0.049564714 6689:0.066835206 6690:0.00078660631 6691:0.042822453 6692:0.03630763 6693:0.023623265 6694:0.031120801 6695:0.019570265 6696:0.063207398 6697:0.19464046 6698:0.099484588 6699:0.17410029 6700:0.16608064 6701:0.2278193 6702:0.18686063 6703:0.1592889 6704:0.10453081 6705:0.055885691 6706:0.030350778 6707:0.012707409 6708:0.031129237 6709:0.070576376 6710:0.53002797 6711:0.65326143 6712:0.046584458 6713:0.062419927 6714:0.042037519 6715:0.034291571 6716:0.046240239 6717:0.00054421713 6718:0.029626907 6719:0.025119598 6720:0.016343863 6721:0.021531067 6722:0.013539776 6723:0.043730324 6724:0.030224351 6725:0.019324587 6726:0.025899954 6727:0.020873657 6728:0.15003464 6729:0.074862767 6730:0.067555017 6731:0.047892555 6732:0.022832033 6733:0.025806979 6734:0.01080499 6735:0.026468895 6736:0.060010422 6737:0.45067775 6738:0.555462 6739:0.039610322 6740:0.053075072 6741:0.035744104 6742:0.36629695 6743:0.19021979 6744:0.063636472 6745:0.037012613 6746:0.11306577 6747:0.26557348 6748:0.087494706 6749:0.095679532 6750:0.26684323 6751:0.025699478 6752:0.016431513 6753:0.022022485 6754:0.017748672 6755:0.12757303 6756:0.0636551 6757:0.05744139 6758:0.040722585 6759:0.019413861 6760:0.27660458 6761:0.02974784 6762:0.012319583 6763:0.01486066 6764:0.028008661 6765:0.078416194 6766:0.019756158 6767:0.060085969 6768:0.12001892 6769:0.47167227 6770:0.2449417 6771:0.08194324 6772:0.047660302 6773:0.14559222 6774:0.34197294 6775:0.11266495 6776:0.12320436 6777:0.34360797 6778:0.12638396 6779:0.076687761 6780:0.1373296 6781:0.13565477 6782:0.29334712 6783:0.11107049 6784:0.13842108 6785:0.12686707 6786:0.10345462 6787:0.35617744 6788:0.038305618 6789:0.015863648 6790:0.019135735 6791:0.036066117 6792:0.10097475 6793:0.025439556 6794:0.077371338 6795:0.15454564 6796:0.053614858 6797:0.018792608 6798:0.026554212 6799:0.05533956 6800:0.19856019 6801:0.0022689795 6802:0.028887176 6803:0.028977573 6804:0.043987052 6805:0.18764128 6806:0.11385772 6807:0.20389219 6808:0.20140558 6809:0.43553019 6810:0.16490549 6811:0.20551269 6812:0.18835855 6813:0.15359827 6814:0.19926696 6815:0.21140846 6816:0.16208646 6817:0.17572226 6818:0.40184498 6819:0.10824759 6820:0.088698221 6821:0.060676471 6822:0.14990462 6823:0.079601562 6824:0.027901238 6825:0.039424831 6826:0.082162213 6827:0.29480076 6828:0.0033687362 6829:0.042888565 6830:0.043022776 6831:0.065307233 6832:0.017104431 6833:0.012706199 6834:0.011556188 6835:0.12841808 6836:0.25959644 6837:0.075353536 6838:0.038994013 6839:0.012326182 6840:0.024928334 6841:0.44512607 6842:0.21582581 6843:0.074850027 6844:0 6845:0.032078308 6846:0 6847:0 6848:0 6849:0 6850:0.14672813 6851:0.21415918 6852:0.10369275 6853:0.040988159 6854:0.073321847 6855:0.02049408 6856:0.03888478 6857:0.01024704 6858:0 6859:0.70138252 6860:0.098712006 6861:0.032403985 6862:0 6863:0.027495693 6864:0 6865:0 6866:0 6867:0 6868:0.31299443 6869:0.19721119 6870:0.064807965 6871:0.02049408 6872:0.036660924 6873:0.02049408 6874:0.051846374 6875:0.098499171 6876:0.04787761 6877:0.061814485 6878:0.090222235 6879:0.043684289 6880:0.017267732 6881:0.030889457 6882:0.0086338659 6883:0.016381608 6884:0.0043169329 6885:0 6886:0.58025874 6887:0.033733361 6888:0.13103885 6889:0.07528934 6890:0.03522998 6891:0.052026592 6892:0.029026403 6893:0.088381919 6894:0.080382086 6895:0.13186013 6896:0.083082287 6897:0.027302679 6898:0.0086338659 6899:0.015444729 6900:0.0086338659 6901:0.021842144 6902:0.041496308 6903:0.02017016 6904:0.63859048 