#ifndef CONV_7_WEIGHT
#define CONV_7_WEIGHT
#include "cam_mlkernels.h"
__ro_fram int16_t conv_7_weight[32][16][5][5] = {
    0,     0,     -1817, 0,     965,   1387,  -971,  0,     770,   0,     0,
    0,     0,     0,     0,     0,     0,     -1067, -1668, -1321, -1329, 0,
    753,   -1804, -887,  0,     -1173, 0,     887,   762,   -1549, 1335,  -949,
    0,     -659,  0,     0,     0,     -1607, 1217,  -1468, -1149, 830,   813,
    -696,  0,     0,     0,     0,     -1744, 0,     0,     -875,  -1089, 688,
    -1669, -1034, 0,     1425,  -1485, 0,     0,     0,     -1788, -937,  0,
    0,     -1429, 0,     -1352, -955,  0,     0,     680,   0,     895,   -742,
    -814,  -1155, 1388,  -1126, 0,     -1392, -1217, -1163, 0,     0,     0,
    -719,  692,   -1720, 0,     -1014, 0,     1155,  0,     -1269, 942,   -1480,
    871,   928,   0,     0,     1004,  -1633, 0,     1415,  -1098, 0,     0,
    1069,  -982,  -1560, 996,   1363,  0,     0,     -1056, 0,     0,     0,
    0,     -1523, -697,  1169,  -680,  -792,  0,     -1318, 793,   0,     698,
    -1313, 0,     1259,  -661,  675,   -1608, 0,     -679,  0,     1302,  867,
    -785,  -1486, 0,     0,     0,     0,     -1046, 802,   758,   856,   0,
    -1073, 1386,  1194,  -1438, 0,     0,     0,     0,     0,     0,     0,
    -1655, 0,     0,     0,     -1536, -1726, 941,   0,     0,     -1062, 0,
    -1635, 0,     -1314, -1448, 0,     1428,  0,     -1256, 905,   0,     -703,
    875,   -1103, 0,     -1154, 0,     -1147, 0,     0,     1272,  872,   -1535,
    939,   0,     -1564, -991,  0,     0,     0,     -1391, 0,     -777,  -967,
    718,   -1686, 0,     1255,  -1219, -1380, 0,     0,     -847,  -1594, 1134,
    -811,  0,     -1822, 0,     0,     0,     991,   0,     -1309, -850,  0,
    0,     -1219, -1185, 0,     990,   1330,  0,     0,     0,     731,   -1656,
    0,     919,   0,     -1161, 1650,  739,   1085,  0,     0,     1252,  1150,
    0,     0,     -971,  0,     0,     -1156, 0,     0,     0,     0,     -1520,
    1046,  0,     904,   1614,  0,     1029,  0,     0,     0,     -850,  946,
    0,     0,     0,     0,     0,     931,   -1040, -1747, -1824, 0,     0,
    960,   -1444, -861,  -1326, -1455, 0,     1052,  -1098, 1286,  901,   1405,
    0,     918,   -1655, 1086,  0,     0,     -956,  1085,  -1644, -1467, 939,
    0,     732,   657,   -687,  -1575, 1012,  0,     0,     -678,  0,     -1285,
    1187,  0,     0,     -1381, -1608, 0,     1039,  0,     0,     1232,  -957,
    0,     757,   1382,  0,     -1300, -1392, 1391,  -1008, 0,     0,     0,
    -1656, 0,     726,   0,     -1591, 0,     -1605, -1635, -1421, 0,     0,
    0,     -1725, -1094, 1091,  0,     0,     0,     -1149, 1380,  -982,  -1313,
    -1539, -1142, 0,     -1541, 1095,  0,     -1744, 0,     0,     1059,  0,
    0,     908,   1037,  -797,  1234,  -874,  0,     -1402, -1685, 1011,  0,
    -1185, 0,     0,     -1071, 877,   834,   -1265, 0,     0,     836,   0,
    786,   0,     -1820, -1558, -1779, -1797, 0,     765,   -759,  -1661, -861,
    0,     -1556, -741,  1010,  1085,  -696,  817,   1010,  1435,  -762,  0,
    0,     -1133, 765,   0,     -1672, 0,     -670,  -905,  0,     1386,  0,
    0,     -1370, 0,     -1784, 1187,  0,     0,     0,     0,     0,     -1140,
    0,     0,     742,   -1407, 0,     0,     0,     -713,  0,     833,   -1710,
    0,     834,   -1096, 0,     -947,  -1646, -974,  -956,  906,   -1245, -1573,
    0,     1324,  1193,  -1110, 0,     0,     1171,  0,     -1492, -1566, 1311,
    0,     0,     0,     -1696, 0,     1303,  1003,  747,   793,   810,   961,
    0,     0,     -1519, 0,     0,     0,     879,   0,     -860,  1345,  -1653,
    -809,  -1442, 1307,  -1421, 0,     803,   1418,  -1504, 0,     -1184, 0,
    0,     -879,  0,     1192,  -1338, 1097,  0,     -1216, 702,   -1007, 872,
    0,     -1588, 1038,  -682,  0,     0,     -1159, -1583, 0,     -1381, 0,
    0,     0,     -1169, -1428, 1502,  0,     -1609, 1371,  1383,  -911,  -819,
    0,     -1309, 745,   1205,  1204,  -1472, 1420,  786,   0,     1163,  795,
    1072,  0,     0,     -874,  -1235, 0,     -681,  0,     0,     870,   -875,
    0,     0,     0,     0,     1209,  -890,  0,     -1198, 0,     1115,  -1242,
    0,     1555,  0,     -1145, -1559, 918,   -1697, 0,     0,     0,     0,
    1112,  0,     1133,  0,     -1219, 0,     1299,  0,     -1180, -1276, 0,
    -852,  0,     0,     -1755, 722,   683,   -1058, -1481, -1156, 0,     1334,
    0,     740,   828,   -1157, 0,     -1332, 0,     -1565, 1235,  0,     -1277,
    0,     1001,  -1087, 1603,  -956,  1319,  -1362, 0,     922,   1215,  -950,
    1490,  797,   -1377, 0,     908,   0,     -688,  1157,  -968,  0,     880,
    0,     0,     0,     0,     -1411, 0,     0,     -1261, 1099,  -1504, -695,
    -1574, 959,   0,     1286,  0,     -991,  0,     0,     -1040, 1089,  1413,
    1441,  -1126, 0,     693,   0,     -1230, 720,   1292,  1072,  0,     -1104,
    0,     -845,  0,     1266,  0,     -1541, -1172, 0,     -1276, 0,     0,
    0,     0,     0,     1322,  -1379, 696,   -1408, 771,   1298,  1420,  658,
    -1263, -1324, 0,     -1412, -1443, 0,     -1161, -1639, 0,     0,     -1057,
    0,     1172,  -882,  1017,  0,     0,     -1225, 0,     -1024, -1574, -1732,
    676,   0,     0,     -1646, -1768, -1681, 1240,  1183,  962,   -1652, -1719,
    -1106, -1132, 0,     -1073, -1075, 0,     -1635, -876,  0,     -881,  -1768,
    -978,  -889,  0,     -1454, 1316,  -1014, 0,     -1214, 0,     0,     -1527,
    -889,  0,     0,     1320,  0,     -1300, 0,     -1174, -1668, 1221,  0,
    -1778, 0,     -1529, 0,     -1758, -891,  0,     900,   1030,  -1239, 0,
    1173,  918,   1240,  1065,  0,     0,     1180,  1098,  0,     0,     -664,
    -1443, 0,     1055,  -1205, -1507, -1600, 0,     -996,  779,   0,     0,
    0,     1262,  0,     0,     -939,  0,     -1303, 784,   0,     1785,  1449,
    0,     0,     828,   0,     0,     861,   0,     -1016, 1926,  1273,  -1299,
    0,     1460,  0,     0,     0,     0,     1795,  1384,  -1259, 1317,  1462,
    1676,  -869,  0,     0,     -1477, 0,     -747,  0,     0,     0,     0,
    914,   -1223, 0,     -1154, 0,     1261,  -928,  -1078, -1821, 0,     0,
    -963,  1403,  0,     0,     665,   0,     0,     1313,  -936,  2145,  -732,
    1670,  0,     0,     971,   0,     975,   -1583, 0,     0,     0,     -1001,
    0,     0,     0,     0,     0,     725,   0,     664,   -1442, -1071, 0,
    0,     1478,  749,   0,     771,   0,     0,     0,     -1582, 0,     -1270,
    -930,  0,     0,     0,     0,     0,     0,     0,     -1652, -1057, 1687,
    0,     0,     0,     -762,  1709,  -1240, 0,     1014,  0,     -1134, 0,
    1544,  -1236, 0,     -962,  -1012, 0,     -1535, 0,     753,   658,   0,
    0,     0,     1308,  0,     -1026, 0,     0,     1669,  1364,  0,     -1070,
    0,     -1093, 1402,  0,     -1268, 2114,  0,     1430,  0,     865,   0,
    0,     1596,  937,   0,     1501,  -791,  2317,  720,   1271,  0,     2294,
    -804,  0,     0,     2052,  1036,  1024,  1696,  -1539, 1316,  791,   0,
    894,   0,     2124,  1919,  1867,  1077,  0,     0,     1169,  1272,  0,
    0,     0,     1815,  1462,  -878,  1200,  1805,  1172,  865,   0,     985,
    0,     -1363, -961,  1337,  0,     1560,  1392,  0,     -1553, -1518, 0,
    0,     0,     1442,  0,     1391,  0,     1382,  0,     1910,  1035,  0,
    807,   -951,  1783,  2323,  1397,  987,   1646,  0,     671,   1226,  -957,
    0,     0,     -767,  0,     1394,  -1304, 682,   0,     0,     0,     1421,
    0,     -1174, 0,     0,     -666,  -1693, 732,   0,     -710,  1175,  0,
    -895,  -726,  -1274, 0,     1367,  -861,  1199,  0,     0,     1616,  -731,
    -909,  0,     -849,  -1028, -960,  762,   1580,  -705,  -1448, 0,     1511,
    -1350, 1516,  1575,  1448,  -1088, -1480, 0,     731,   1632,  1768,  0,
    856,   -775,  0,     0,     0,     -864,  -1096, 1832,  1008,  0,     -1057,
    -1278, 0,     0,     1508,  0,     0,     1679,  -1253, 1384,  1038,  -1060,
    0,     1124,  0,     -703,  -1687, -878,  0,     -1250, 1439,  -1763, 1135,
    0,     0,     0,     0,     1368,  1468,  1154,  -1276, 0,     -1296, 0,
    0,     0,     1353,  2117,  994,   1688,  -1028, -966,  1263,  0,     1322,
    -855,  -1527, 0,     0,     0,     0,     0,     -1024, 0,     0,     0,
    0,     0,     0,     0,     -1151, 0,     -1207, 0,     1362,  0,     0,
    -924,  1062,  1325,  1433,  -656,  -1146, 1827,  -701,  -810,  0,     0,
    1532,  -839,  0,     0,     0,     -991,  1637,  1285,  -1477, -1496, 0,
    0,     -1056, -810,  0,     2139,  903,   0,     893,   -835,  0,     0,
    -1245, 1551,  1159,  1821,  0,     0,     0,     0,     1420,  943,   0,
    912,   0,     -869,  1405,  -834,  -1174, 0,     0,     0,     1172,  0,
    0,     814,   1375,  -1052, 0,     0,     1145,  -1623, 0,     -973,  1099,
    1109,  -1502, 0,     742,   1291,  1117,  -1293, 1430,  0,     -797,  0,
    -1281, 0,     1393,  -1608, -1176, 1176,  0,     1618,  -1390, 0,     842,
    -1115, -1183, 958,   0,     0,     -1351, -1037, 1313,  1042,  971,   0,
    0,     1526,  0,     -1432, -1502, -1100, 0,     660,   -919,  -671,  -1628,
    -1583, 0,     845,   0,     0,     0,     0,     -1406, 0,     0,     0,
    0,     -1030, 1419,  0,     727,   0,     0,     1629,  1195,  -1178, 1460,
    0,     705,   1367,  -1006, -1582, -1216, 1094,  -845,  1462,  0,     1333,
    0,     -1618, 1114,  783,   0,     1547,  0,     919,   -901,  1018,  0,
    0,     -767,  -1417, 0,     0,     0,     -1497, 725,   0,     0,     0,
    1147,  -1220, 0,     0,     0,     0,     0,     0,     984,   -1622, 772,
    0,     0,     -1448, 1309,  -1339, 1461,  -1375, 0,     0,     -1400, 1440,
    0,     0,     0,     1293,  1376,  1058,  0,     1398,  -1551, -1603, 0,
    0,     -1636, -1246, -1638, -906,  1417,  1307,  740,   0,     1280,  1040,
    0,     848,   0,     0,     1302,  1455,  0,     -1073, -1046, -1192, 0,
    0,     -1299, 0,     -1315, 0,     -1456, 0,     -1162, -708,  1594,  1203,
    0,     0,     0,     -1218, -1025, 845,   -1184, 1206,  1280,  -1427, -1537,
    0,     0,     0,     -1247, 1076,  -1225, 1286,  811,   0,     -1050, 1508,
    -1484, 1391,  -1157, 1413,  -1397, 0,     656,   854,   -1118, -690,  0,
    -702,  1380,  -701,  0,     1251,  0,     0,     -994,  0,     -1585, -1048,
    -976,  1527,  0,     -1201, -1280, 1023,  0,     -982,  -1088, 1277,  -1285,
    -984,  0,     0,     1543,  0,     664,   1077,  -937,  0,     0,     1391,
    0,     0,     1170,  -1269, -1378, 1471,  1164,  -1336, 0,     -758,  1459,
    0,     0,     -1312, 698,   0,     -817,  1145,  1087,  1348,  1179,  -1057,
    -1043, 0,     0,     0,     -1409, -658,  765,   -1350, -1591, 1450,  0,
    0,     -1291, 871,   0,     0,     1566,  0,     -857,  -1387, -714,  0,
    0,     1023,  0,     0,     -1194, 0,     -1333, 0,     -702,  -1196, 0,
    -695,  0,     -1471, 0,     -1136, 0,     0,     -1251, 0,     0,     -964,
    968,   0,     0,     0,     0,     -1083, 1208,  1258,  0,     0,     -676,
    1225,  0,     1452,  -745,  -1496, 0,     0,     0,     0,     -1146, 994,
    -671,  0,     0,     0,     830,   1269,  -1104, 0,     0,     -675,  -1278,
    0,     -1559, 0,     -1030, 1273,  1196,  1624,  -1043, -1142, -1027, 0,
    -1124, 0,     -678,  1063,  0,     0,     0,     0,     0,     -675,  1466,
    -1413, -1485, 986,   1302,  0,     0,     0,     1626,  -848,  -1476, 0,
    -1120, 0,     1603,  750,   1317,  0,     0,     0,     1209,  -934,  0,
    1091,  0,     1561,  1530,  1237,  1957,  1264,  -1049, 1865,  1326,  0,
    1470,  1408,  2166,  0,     2460,  2224,  0,     1592,  0,     0,     1637,
    0,     1271,  0,     0,     1409,  0,     0,     -1624, 869,   0,     1013,
    2310,  1228,  0,     2145,  1610,  0,     -1158, 0,     2201,  0,     1094,
    1311,  1243,  754,   -683,  1639,  -1678, 0,     -763,  1053,  -1019, 1242,
    2522,  0,     2116,  1919,  0,     1578,  0,     949,   1144,  -1047, 2787,
    871,   2175,  0,     0,     1045,  1274,  0,     -774,  0,     2413,  1709,
    0,     0,     -1155, 0,     0,     673,   0,     -969,  1003,  1544,  949,
    0,     -1221, 0,     0,     0,     0,     1338,  0,     0,     0,     729,
    0,     0,     -906,  -703,  0,     0,     0,     0,     0,     0,     1108,
    0,     2084,  2039,  0,     -959,  863,   1803,  0,     0,     778,   0,
    0,     0,     0,     -691,  -853,  -1062, 0,     -818,  -2019, 0,     2667,
    1741,  2274,  739,   1355,  0,     2372,  -684,  0,     0,     2149,  2004,
    0,     -729,  2155,  0,     0,     0,     1719,  0,     0,     765,   872,
    -1095, 931,   1058,  0,     1281,  1202,  0,     0,     0,     2571,  0,
    687,   1637,  1914,  1717,  -840,  940,   1609,  0,     0,     0,     0,
    2164,  0,     2112,  0,     1830,  1662,  -889,  0,     0,     0,     0,
    2046,  -660,  -748,  858,   1989,  825,   -721,  0,     776,   0,     0,
    0,     880,   0,     1210,  -700,  1127,  667,   -1131, 0,     0,     2017,
    1871,  0,     0,     0,     0,     0,     2664,  0,     0,     1114,  1372,
    2548,  679,   2878,  0,     1246,  1299,  0,     1844,  1126,  -1275, 1219,
    1053,  1416,  1109,  0,     0,     0,     -1098, -1502, -1358, -1110, 0,
    0,     -921,  0,     0,     0,     -1845, 0,     0,     1740,  828,   1804,
    0,     1535,  721,   -921,  -1129, 0,     0,     -1131, -1402, -813,  0,
    0,     -677,  -680,  0,     0,     0,     -1052, -744,  1255,  1671,  0,
    0,     0,     0,     783,   -746,  0,     2145,  0,     1095,  0,     711,
    0,     2185,  1320,  -918,  1406,  1938,  1408,  672,   1235,  1596,  1417,
    0,     -1652, -1553, -798,  0,     -834,  0,     887,   1908,  867,   1231,
    -1296, -945,  0,     1347,  -771,  0,     -1119, 0,     1193,  0,     0,
    0,     0,     1549,  1521,  0,     0,     977,   0,     0,     0,     1008,
    1720,  0,     1786,  1536,  0,     1909,  992,   2016,  0,     1125,  0,
    2042,  0,     972,   -1605, 1163,  0,     -817,  766,   -1745, 0,     756,
    1053,  0,     -1650, 0,     1398,  1817,  1414,  -1523, 1470,  0,     957,
    921,   1007,  1235,  0,     1509,  -1291, -932,  1502,  688,   -845,  -1217,
    0,     1436,  1648,  0,     -1870, 0,     0,     1372,  0,     -667,  1630,
    2047,  0,     2225,  0,     1768,  1193,  2933,  0,     -691,  -1122, 0,
    1178,  2507,  1557,  1149,  2009,  1322,  -767,  1924,  -1306, 0,     -1221,
    -1179, 0,     -1444, 0,     -1178, -938,  1715,  968,   0,     856,   0,
    0,     0,     -913,  0,     1843,  1198,  0,     1435,  -946,  1112,  0,
    -859,  936,   1197,  -741,  0,     1178,  0,     0,     0,     2032,  0,
    -1639, 0,     1956,  2335,  851,   -935,  0,     0,     1012,  877,   1398,
    1472,  1965,  0,     1063,  0,     0,     0,     0,     0,     0,     0,
    2329,  0,     0,     -1006, -770,  0,     0,     743,   701,   1175,  2241,
    0,     0,     1636,  1230,  0,     0,     -740,  981,   -1868, -1643, -1310,
    -1115, 0,     -1530, 1059,  0,     0,     0,     1611,  0,     1914,  0,
    -1308, -1189, 0,     1690,  -1209, -1309, 1153,  1514,  1860,  892,   993,
    0,     0,     0,     0,     0,     0,     0,     1910,  1070,  807,   -1136,
    -684,  1156,  1020,  -1042, 0,     0,     0,     -863,  0,     1498,  -1047,
    -730,  0,     0,     1111,  0,     1105,  1949,  1878,  1769,  2113,  0,
    0,     0,     2570,  1179,  2395,  669,   2292,  2769,  2353,  1100,  1975,
    2032,  1061,  2078,  0,     0,     -1811, -1160, 661,   0,     -1052, -735,
    0,     0,     1385,  2324,  -828,  1692,  1493,  0,     2087,  0,     0,
    0,     2018,  1266,  0,     2035,  2788,  0,     0,     0,     1268,  -1502,
    822,   1341,  -964,  0,     919,   1808,  0,     0,     1539,  0,     0,
    1827,  1307,  0,     -697,  1679,  1029,  680,   0,     1925,  823,   0,
    -1773, 0,     0,     -1119, -1412, 755,   0,     1935,  -678,  876,   0,
    1875,  0,     0,     731,   -1591, 1994,  2250,  2627,  0,     0,     1355,
    0,     1295,  1197,  893,   677,   0,     -986,  879,   0,     0,     0,
    1736,  931,   -1176, -771,  0,     -999,  0,     0,     -1286, 1624,  1087,
    0,     0,     0,     0,     1832,  -1242, -668,  -1091, 983,   -1402, -1612,
    1292,  1071,  1498,  0,     1484,  1224,  1218,  -1205, 758,   -1059, 1625,
    -1280, 0,     0,     0,     -935,  0,     0,     -656,  863,   0,     -1175,
    0,     1786,  0,     0,     -1107, 0,     0,     1715,  0,     0,     2300,
    2143,  1066,  0,     1374,  0,     0,     -1094, 1030,  1924,  0,     1240,
    1656,  0,     -1254, 933,   -1512, -1370, 0,     1464,  0,     1483,  0,
    1042,  0,     0,     2068,  727,   -1586, 1620,  0,     2036,  1955,  0,
    -1112, 0,     1942,  1124,  -1148, 0,     1078,  1611,  0,     -1304, 731,
    1273,  1593,  -829,  0,     0,     1446,  0,     2245,  0,     1266,  1048,
    1006,  -1027, 0,     1208,  1190,  0,     0,     0,     0,     -1715, -1019,
    1063,  0,     -1737, -1232, 1631,  -1296, 0,     1039,  0,     0,     0,
    0,     1424,  -841,  1328,  1348,  -1156, 689,   1344,  1411,  -752,  -1985,
    -2148, 0,     793,   -1055, -1916, 1123,  1061,  0,     0,     -1747, -1396,
    0,     1121,  1740,  0,     0,     1907,  2510,  0,     -1468, -906,  0,
    0,     0,     922,   -1466, 920,   1433,  0,     0,     -1003, -967,  1093,
    0,     0,     -1677, -841,  0,     -1140, -942,  -1186, -730,  1689,  0,
    0,     0,     707,   989,   0,     1262,  924,   0,     891,   673,   0,
    -1170, 0,     0,     0,     1346,  0,     0,     782,   -699,  0,     757,
    0,     0,     -820,  -1700, 0,     0,     883,   814,   0,     0,     0,
    1532,  1468,  -765,  0,     940,   1345,  0,     1376,  -1028, 1018,  -1027,
    -695,  1271,  0,     0,     1511,  1426,  -1680, 0,     1428,  0,     0,
    -1285, 0,     0,     0,     0,     0,     0,     -880,  1282,  1167,  -1293,
    0,     1152,  1335,  1575,  -690,  0,     0,     0,     -1361, 0,     1059,
    0,     -699,  978,   0,     -749,  -770,  0,     0,     -998,  657,   -929,
    0,     1317,  0,     1050,  0,     0,     -993,  0,     0,     -1290, -864,
    0,     0,     -926,  1445,  -746,  0,     0,     0,     867,   0,     1798,
    1431,  0,     -1012, 1083,  1503,  -911,  1064,  2034,  0,     2071,  1155,
    -1005, 0,     0,     1316,  0,     -977,  -864,  1927,  1873,  -1672, 0,
    1102,  987,   0,     887,   -967,  0,     0,     1343,  993,   1693,  1176,
    0,     -759,  -1391, 0,     0,     2213,  1973,  0,     0,     1349,  2214,
    -988,  -1204, 928,   749,   0,     -1347, 0,     -817,  0,     0,     -1057,
    -866,  0,     0,     0,     1584,  0,     1314,  0,     -1418, -921,  931,
    807,   0,     0,     1119,  0,     0,     -1491, 0,     0,     -1321, 0,
    0,     0,     0,     0,     1107,  1873,  -684,  0,     0,     0,     838,
    0,     1991,  0,     0,     0,     0,     978,   -1010, -1261, 0,     -1382,
    0,     0,     1221,  1329,  0,     726,   0,     755,   -1134, 0,     -689,
    0,     -1050, 0,     0,     0,     656,   739,   767,   0,     1150,  -1409,
    0,     0,     0,     1493,  1405,  0,     0,     0,     0,     1461,  1321,
    -1407, 0,     0,     1149,  -996,  761,   1444,  1084,  0,     -1404, 991,
    1151,  1087,  0,     1385,  1227,  1724,  -1500, 0,     -1440, 1712,  0,
    -851,  0,     -1324, 717,   0,     -1301, 0,     1358,  1062,  -656,  0,
    -1307, 1531,  0,     0,     790,   1131,  -1638, 0,     0,     -1395, 0,
    1054,  742,   0,     856,   -1287, 1079,  0,     0,     933,   -718,  0,
    1378,  0,     1649,  807,   815,   0,     0,     -1196, -1058, 827,   0,
    770,   1081,  0,     -1555, 0,     -1180, 1194,  -1386, -752,  0,     749,
    1068,  -1402, -659,  -1354, 0,     0,     -1335, 0,     -683,  0,     0,
    -666,  661,   0,     0,     0,     -1435, 0,     1398,  0,     -686,  -704,
    0,     0,     1606,  1467,  -1083, 0,     1493,  1174,  0,     0,     -803,
    0,     -1213, -731,  -1711, 0,     0,     -1007, -1045, 0,     -773,  -1177,
    1531,  1816,  1180,  0,     0,     1723,  0,     1377,  1587,  1541,  0,
    0,     0,     0,     -1013, 0,     0,     1552,  -875,  1088,  1545,  0,
    1693,  -767,  0,     679,   1736,  672,   1180,  -848,  1400,  0,     1691,
    0,     1929,  -679,  1089,  1916,  0,     0,     797,   0,     2260,  2226,
    938,   0,     1344,  1522,  0,     2194,  1199,  1288,  1953,  758,   2003,
    0,     1590,  0,     0,     0,     0,     1830,  1045,  0,     1996,  -1225,
    1003,  2074,  1304,  0,     800,   1844,  2511,  1078,  0,     818,   863,
    0,     1916,  0,     0,     1020,  0,     0,     0,     1949,  0,     2194,
    -847,  1428,  1784,  2283,  1201,  1643,  -1159, 1657,  0,     1097,  -693,
    1849,  838,   0,     -1409, 1756,  -1112, 0,     0,     -1421, 0,     0,
    1263,  1522,  -1201, 0,     1302,  673,   660,   0,     0,     0,     1873,
    0,     1501,  1426,  0,     1286,  0,     0,     0,     0,     0,     0,
    -797,  0,     656,   -994,  1376,  1578,  967,   -969,  0,     0,     0,
    2142,  0,     944,   0,     1528,  2294,  0,     0,     1430,  0,     2213,
    0,     0,     1288,  803,   0,     2355,  0,     0,     0,     1102,  0,
    1916,  1490,  1472,  -721,  0,     0,     0,     1058,  1205,  2291,  2165,
    0,     929,   0,     2358,  840,   766,   2780,  0,     0,     1616,  836,
    2447,  0,     0,     1446,  2302,  -814,  -683,  1393,  761,   -1100, 1724,
    1336,  0,     1052,  0,     1634,  1801,  806,   -949,  -740,  -705,  -1392,
    0,     0,     0,     0,     1765,  0,     1195,  1770,  -1281, 1144,  2113,
    2151,  0,     0,     0,     859,   737,   1075,  2163,  1729,  982,   2287,
    1986,  0,     0,     1077,  863,   0,     0,     2086,  1309,  0,     0,
    -985,  1457,  721,   -1876, 0,     0,     0,     0,     1100,  0,     0,
    1121,  -1210, 0,     -1799, 0,     0,     -1140, -1347, 1048,  1592,  0,
    1414,  0,     0,     0,     0,     -1506, 1034,  0,     -765,  1519,  0,
    0,     0,     0,     1374,  1636,  0,     0,     -1192, 1062,  1404,  0,
    0,     -1334, 940,   0,     -1056, 1150,  1432,  925,   0,     1355,  1597,
    1941,  1981,  1811,  1965,  0,     0,     -1049, 0,     1110,  1555,  0,
    1596,  1576,  0,     1240,  1511,  -1053, 0,     1703,  -888,  0,     1639,
    0,     1043,  1206,  0,     -698,  1149,  -949,  0,     1878,  1664,  2080,
    1332,  -873,  -1193, 1605,  -823,  1835,  0,     1596,  1638,  1522,  830,
    0,     1251,  2233,  1301,  2107,  0,     1758,  -934,  1608,  0,     1755,
    0,     1132,  0,     1171,  0,     0,     -675,  1863,  0,     1739,  0,
    0,     0,     -1035, 999,   0,     757,   0,     0,     -816,  -1421, 996,
    0,     1935,  773,   0,     0,     0,     0,     0,     0,     1187,  0,
    0,     0,     0,     0,     0,     0,     0,     0,     0,     1122,  1496,
    0,     0,     2318,  0,     1354,  0,     1077,  2282,  0,     0,     2016,
    2337,  0,     0,     0,     0,     0,     2038,  870,   0,     1628,  -1857,
    0,     1393,  761,   -1407, 715,   0,     -807,  0,     0,     0,     -834,
    1283,  -854,  -729,  0,     0,     888,   0,     0,     2217,  1257,  781,
    0,     0,     -1941, 0,     961,   -789,  -1043, 742,   -854,  0,     -1115,
    0,     0,     -677,  0,     -1057, 0,     1542,  0,     0,     -1501, 1284,
    682,   1076,  -1097, 1163,  1442,  1022,  -756,  0,     0,     0,     -1247,
    813,   731,   -924,  0,     0,     1063,  0,     -1019, -1271, 0,     -661,
    1004,  0,     -849,  -785,  1165,  0,     0,     -890,  -975,  -1336, 995,
    -759,  -1205, 869,   0,     -1470, 0,     0,     -820,  743,   0,     -1081,
    1089,  1150,  1066,  0,     0,     -1348, -870,  -1298, 1746,  0,     -784,
    1134,  -1453, 0,     -1301, -1511, 0,     1347,  0,     1623,  1154,  -856,
    0,     -786,  0,     704,   843,   833,   0,     1580,  -930,  1854,  1083,
    1889,  0,     0,     0,     0,     0,     1363,  1331,  1285,  1146,  1405,
    0,     -1591, 830,   0,     -985,  0,     807,   2144,  821,   0,     0,
    -1124, -669,  0,     1550,  1482,  762,   686,   0,     -951,  802,   1288,
    -1165, 0,     -864,  1720,  0,     -1089, 0,     1133,  1418,  -1169, 2132,
    2396,  0,     2102,  0,     1654,  0,     0,     0,     0,     1212,  848,
    -1069, -1347, 0,     697,   0,     1169,  0,     1087,  0,     0,     -790,
    0,     0,     868,   0,     0,     -1298, 1474,  1793,  1160,  1348,  -1483,
    0,     -1817, 0,     692,   -1281, 1026,  0,     1984,  -754,  1842,  0,
    -848,  1564,  1511,  0,     0,     -686,  0,     0,     1970,  860,   0,
    2366,  0,     0,     0,     -1123, 1303,  -1768, -731,  1027,  0,     949,
    0,     -1504, 0,     1467,  0,     -1317, -1247, 1627,  -1126, -683,  0,
    -1685, -1219, 0,     1297,  1443,  -1586, 1134,  0,     0,     0,     -1105,
    738,   0,     0,     1310,  0,     729,   -1310, 0,     -1747, -694,  -1356,
    1678,  0,     -774,  -1337, 716,   -1578, 1034,  1183,  1585,  781,   0,
    0,     -1018, -1629, -1241, -909,  0,     664,   -1429, 1037,  1491,  -990,
    0,     0,     0,     0,     1515,  1934,  0,     -1737, 810,   0,     -1273,
    0,     -1674, -1782, 1284,  0,     -1625, 978,   -794,  0,     0,     775,
    1308,  0,     0,     0,     0,     0,     861,   1831,  1838,  0,     -831,
    2063,  0,     1420,  0,     1262,  0,     -1391, 1065,  -823,  0,     -1111,
    1946,  0,     1423,  -1272, -886,  0,     1883,  775,   0,     745,   1501,
    -888,  1679,  821,   0,     1173,  1105,  815,   -1065, 0,     -1161, 0,
    -1185, -1384, 0,     1375,  0,     -840,  -1133, 0,     814,   0,     0,
    1598,  0,     0,     1680,  0,     665,   0,     1073,  1197,  0,     -908,
    -1828, 0,     -1201, 0,     -1733, 0,     -1324, 903,   -751,  1279,  0,
    0,     1212,  -840,  0,     1489,  966,   -710,  0,     0,     0,     1808,
    2020,  0,     875,   -820,  1535,  1566,  0,     1599,  0,     1556,  853,
    0,     0,     0,     0,     0,     -763,  0,     1418,  2346,  0,     0,
    0,     2241,  0,     1901,  -681,  0,     1853,  0,     0,     1897,  0,
    0,     2316,  1477,  1152,  -1146, 1758,  2047,  0,     0,     -909,  0,
    0,     0,     0,     0,     0,     1976,  694,   0,     -673,  1580,  980,
    959,   0,     -695,  1960,  2799,  1687,  0,     0,     0,     1185,  2825,
    0,     1184,  0,     2183,  1153,  -963,  1712,  2461,  1556,  1587,  0,
    -1325, 1085,  1198,  0,     761,   1070,  0,     0,     0,     723,   873,
    1189,  0,     0,     1200,  0,     1421,  780,   0,     -1661, 0,     -1114,
    1557,  1505,  0,     0,     -900,  1035,  780,   0,     759,   1934,  0,
    1318,  0,     -1024, 0,     794,   -888,  802,   0,     1066,  1514,  0,
    1453,  0,     -1306, 1125,  1508,  0,     0,     900,   0,     0,     1537,
    0,     2647,  0,     0,     1613,  -733,  2109,  2954,  1973,  1304,  1387,
    0,     1656,  0,     2342,  1817,  0,     0,     0,     2117,  0,     0,
    2340,  0,     1223,  0,     1624,  0,     0,     1986,  1431,  2959,  2182,
    0,     1030,  0,     3134,  752,   1721,  1988,  0,     0,     1797,  0,
    1826,  0,     1433,  0,     1722,  0,     0,     1796,  0,     0,     -961,
    -1032, 2017,  0,     1978,  1571,  -844,  -1131, 0,     883,   0,     -764,
    0,     1801,  0,     -743,  -681,  1619,  1159,  1325,  0,     0,     2325,
    0,     2221,  0,     2185,  957,   936,   2190,  2757,  0,     802,   894,
    1805,  1947,  1533,  0,     0,     0,     1549,  1128,  -793,  0,     -762,
    0,     -1206, 673,   994,   1279,  -710,  0,     1244,  1515,  0,     1731,
    -1110, 1222,  -1064, -1103, -1310, -1095, 0,     -1416, 888,   1439,  763,
    0,     0,     0,     1552,  0,     0,     1188,  0,     1439,  1585,  -966,
    1570,  0,     743,   -874,  0,     1583,  -1135, 0,     0,     0,     0,
    1193,  1508,  0,     1935,  0,     0,     -1043, -879,  0,     2505,  0,
    -1236, 0,     2196,  0,     0,     0,     -909,  1984,  2023,  0,     -849,
    -1321, 0,     -789,  -1062, 1680,  1265,  1127,  0,     1310,  -1310, 0,
    2402,  656,   2156,  -744,  -1031, 2245,  0,     1466,  0,     -832,  0,
    2306,  1237,  742,   -1101, 2009,  0,     -756,  -683,  1169,  784,   760,
    0,     2029,  -718,  1694,  2736,  1790,  1281,  0,     1262,  2182,  0,
    796,   862,   1016,  0,     1093,  -891,  868,   1715,  1487,  -702,  1927,
    0,     0,     1378,  0,     0,     -1688, 0,     0,     797,   1077,  0,
    1735,  807,   895,   1081,  1509,  0,     0,     -1145, 0,     0,     0,
    0,     881,   0,     -1683, 1966,  0,     1689,  933,   1751,  1438,  2597,
    2371,  926,   2116,  0,     2068,  2464,  2012,  0,     2660,  0,     0,
    0,     -863,  1082,  0,     0,     1328,  0,     0,     690,   1441,  -1755,
    1128,  0,     995,   1205,  -770,  -1551, 923,   -1366, 1407,  -1632, 0,
    -867,  -1109, -1205, 814,   0,     -1514, 680,   663,   1000,  -1601, 998,
    0,     -1531, 0,     0,     1246,  -1560, 858,   766,   869,   -1011, 0,
    -736,  -1067, 0,     -1458, 0,     -880,  1083,  1125,  0,     1255,  806,
    814,   0,     0,     -1403, -1083, 0,     0,     0,     0,     939,   1373,
    -1557, -1030, 846,   1221,  0,     1366,  1261,  1228,  0,     -1397, -1231,
    1335,  0,     0,     838,   0,     -1592, 0,     -832,  0,     0,     -1815,
    -1720, 998,   -1273, 0,     0,     -1226, 1291,  0,     -932,  -1803, 1232,
    -915,  901,   0,     -1811, -780,  0,     1361,  927,   0,     1130,  -1681,
    0,     1255,  -806,  0,     -1832, -1169, 0,     0,     0,     0,     0,
    0,     1370,  1132,  0,     1528,  -786,  -1645, 0,     -1366, -1242, 0,
    1402,  0,     0,     0,     -833,  0,     -1268, -1146, 0,     1334,  0,
    0,     1016,  -1662, 1503,  0,     0,     0,     666,   1200,  0,     1483,
    1106,  1204,  0,     0,     1325,  0,     0,     768,   1113,  0,     0,
    860,   0,     1625,  0,     -879,  1568,  885,   -1573, 0,     0,     1108,
    0,     0,     -960,  0,     948,   0,     -1127, 0,     -1351, 0,     -1154,
    0,     1103,  -1261, 1296,  0,     1267,  1200,  -703,  0,     0,     -1086,
    -980,  0,     -1501, 0,     881,   -1431, 1176,  -1364, -1383, 1485,  0,
    -750,  -1377, -1095, 1594,  1390,  0,     950,   -967,  1104,  0,     0,
    857,   1153,  -1056, -1422, -1157, 0,     0,     0,     0,     -965,  -731,
    1556,  0,     0,     1185,  -1466, 1521,  -1372, 0,     0,     -980,  1054,
    0,     0,     -1247, 0,     0,     0,     0,     0,     -1473, 0,     0,
    1340,  0,     0,     -970,  -1151, 0,     0,     0,     -1332, 1005,  1564,
    1135,  0,     0,     0,     822,   -1455, 0,     0,     0,     0,     -1383,
    0,     0,     744,   0,     0,     -823,  1275,  -860,  0,     0,     -1467,
    1415,  774,   0,     0,     0,     -753,  0,     0,     -707,  -1808, 0,
    -1655, -1623, 0,     0,     0,     -1588, 0,     0,     1541,  1498,  -1146,
    -1047, -1535, -867,  -1106, -866,  -1459, 0,     -703,  1359,  -867,  -1775,
    -1698, -1582, 1321,  0,     0,     -1826, -1391, 656,   0,     0,     1434,
    -1343, 1309,  -883,  0,     0,     -1345, 0,     -1766, 0,     974,   980,
    0,     0,     0,     1786,  -1463, -962,  0,     0,     -1067, 0,     0,
    -1701, 0,     974,   -1200, 0,     0,     0,     0,     1152,  1147,  926,
    778,   0,     975,   0,     0,     0,     991,   0,     0,     -1630, -919,
    914,   -1104, -1468, 0,     1396,  0,     -1213, 0,     -830,  0,     1318,
    814,   1212,  -1354, 0,     1207,  0,     0,     0,     0,     1382,  1429,
    -1592, 0,     -1620, -1144, 0,     1372,  989,   1246,  1301,  1341,  0,
    -1526, 1335,  0,     0,     1995,  1231,  1462,  0,     0,     0,     0,
    0,     1141,  0,     1935,  -872,  982,   2052,  0,     1791,  1576,  0,
    0,     0,     1789,  -790,  1818,  921,   0,     0,     1585,  757,   1003,
    0,     2534,  -866,  1644,  0,     1707,  0,     798,   2213,  0,     2046,
    661,   0,     1231,  1292,  0,     691,   1642,  2453,  2017,  0,     1099,
    0,     0,     0,     2627,  0,     0,     2059,  2475,  0,     0,     1297,
    0,     0,     0,     0,     -1132, 0,     1675,  0,     955,   909,   1727,
    0,     1659,  0,     0,     1465,  1163,  1465,  -801,  832,   -808,  1600,
    -955,  1873,  0,     0,     -924,  0,     -1346, 912,   0,     1241,  960,
    852,   1273,  1935,  0,     0,     0,     0,     1753,  1099,  1991,  863,
    1416,  -1310, 798,   1835,  0,     -1172, 0,     1337,  0,     0,     0,
    1686,  1643,  -1099, 1069,  1280,  695,   1919,  2888,  0,     0,     0,
    849,   1077,  0,     0,     1649,  1479,  2704,  0,     1576,  0,     746,
    1462,  0,     -1076, 2296,  2327,  0,     1770,  0,     1056,  0,     1703,
    0,     0,     0,     1864,  1243,  2897,  998,   1023,  884,   0,     0,
    780,   0,     1046,  1252,  2276,  0,     748,   716,   0,     1802,  0,
    0,     0,     821,   -783,  1299,  0,     0,     1077,  2095,  1655,  0,
    -676,  0,     991,   -1100, 0,     1121,  -694,  0,     0,     0,     0,
    -1287, 0,     0,     -826,  1939,  0,     1135,  1826,  0,     1856,  1699,
    0,     0,     2317,  1561,  1360,  2675,  908,   2541,  0,     1423,  677,
    1555,  1309,  1501,  0,     2844,  695,   1031,  757,   1684,  0,     0,
    -1147, 0,     -991,  -1109, 0,     0,     1421,  0,     1369,  -689,  -1275,
    -1078, 0,     0,     -1283, 724,   1859,  910,   0,     1531,  0,     -1476,
    0,     -1068, -1126, 865,   665,   1052,  0,     1149,  0,     -1287, -887,
    0,     -1344, -1222, 0,     1619,  0,     0,     870,   -980,  -1170, 1220,
    1710,  -1101, 0,     2259,  0,     -766,  2005,  0,     2023,  0,     0,
    1321,  0,     1410,  1355,  0,     0,     896,   1493,  0,     0,     1502,
    1658,  0,     1516,  834,   0,     0,     -660,  0,     851,   1601,  2061,
    1412,  1093,  1442,  1880,  0,     2147,  1943,  -913,  1658,  1685,  0,
    1416,  0,     0,     0,     -1041, 812,   0,     1936,  0,     0,     2489,
    1017,  0,     2420,  2024,  1927,  0,     -915,  0,     0,     0,     -730,
    1644,  2089,  0,     1216,  0,     0,     1828,  1439,  0,     1412,  761,
    1465,  783,   0,     1684,  1548,  0,     1041,  2150,  1299,  0,     1465,
    878,   1451,  -1537, 1595,  890,   1477,  1648,  0,     0,     0,     0,
    0,     -1221, 0,     -913,  0,     0,     1034,  0,     2512,  2480,  0,
    2206,  2375,  986,   1301,  1035,  -948,  750,   1531,  2308,  0,     1806,
    0,     0,     2622,  1831,  0,     1225,  912,   -1398, 1537,  -1255, -876,
    1935,  1257,  0,     0,     0,     -813,  1801,  0,     1722,  1349,  2146,
    2128,  -1290, 0,     -1076, 2084,  0,     1709,  743,   0,     670,   1212,
    0,     1983,  951,   2125,  0,     1600,  -1021, 1983,  1717,  0,     0,
    806,   -721,  0,     2104,  1820,  1769,  0,     1355,  -1178, 1524,  1267,
    1041,  0,     0,     1169,  0,     1348,  0,     0,     0,     1398,  2027,
    0,     0,     1735,  0,     2148,  0,     1471,  1441,  1167,  0,     1780,
    1726,  1838,  -1640, -789,  0,     0,     -1595, 0,     0,     1632,  0,
    -836,  0,     -1135, 768,   0,     -1159, 1246,  1771,  1806,  -864,  -663,
    0,     770,   0,     -856,  0,     0,     930,   -1117, -798,  0,     0,
    -1189, 0,     0,     1132,  0,     -1278, 916,   1692,  0,     1573,  -790,
    0,     0,     -876,  1372,  819,   0,     1751,  0,     0,     815,   0,
    1635,  0,     0,     2005,  1228,  1924,  1891,  2062,  0,     0,     1801,
    0,     1867,  2491,  0,     1874,  0,     2142,  2458,  0,     1563,  0,
    -1220, 0,     2055,  2165,  -1156, 0,     1694,  1774,  1620,  1281,  1808,
    2036,  897,   2364,  1926,  711,   0,     1153,  2358,  0,     0,     0,
    0,     1429,  1242,  805,   1161,  -1102, 692,   0,     -869,  1217,  -990,
    -1233, 1274,  0,     0,     864,   1368,  0,     -1349, 1220,  1469,  0,
    -1205, -818,  0,     1369,  -1489, -1335, -1374, 669,   0,     1274,  1031,
    0,     2250,  1973,  1018,  0,     -978,  2558,  816,   0,     -731,  2249,
    1410,  1844,  2185,  1266,  0,     0,     2074,  0,     0,     -1481, 0,
    0,     0,     -966,  1585,  1357,  -1471, 0,     0,     -961,  1821,  0,
    1799,  1026,  891,   -1008, 0,     1068,  0,     0,     0,     0,     -968,
    0,     -963,  949,   0,     878,   1741,  0,     -1033, 1447,  0,     1549,
    0,     -1254, -1498, 0,     -1300, -1079, 0,     1489,  -1286, -1167, 0,
    0,     0,     -1111, 1019,  1255,  1392,  0,     932,   -969,  1641,  1718,
    0,     835,   0,     0,     778,   1415,  1094,  -1164, 1687,  -796,  0,
    -1133, -889,  0,     687,   1660,  0,     1695,  0,     0,     0,     1271,
    -1133, 0,     -1377, 0,     -1405, 0,     0,     0,     1069,  1871,  -906,
    -861,  0,     0,     0,     -1504, 939,   1776,  1325,  1359,  1369,  1490,
    0,     -1229, 0,     -707,  0,     0,     0,     -761,  -1292, 0,     1667,
    1465,  0,     1531,  0,     0,     1174,  -1143, 1194,  1170,  742,   0,
    0,     1656,  0,     0,     1597,  1024,  -1093, 0,     1487,  953,   -1350,
    -1656, -1322, 0,     1411,  -672,  0,     -1191, 0,     1051,  0,     0,
    743,   -1157, 0,     0,     0,     1235,  993,   0,     0,     -1299, 686,
    0,     856,   0,     0,     1110,  1090,  0,     1106,  982,   0,     2152,
    1904,  -874,  1966,  -976,  0,     0,     0,     1034,  -1671, 689,   -1097,
    0,     1352,  -922,  0,     -1179, 1208,  -1788, 1116,  -1196, 0,     0,
    -1248, 0,     0,     0,     0,     -1654, 0,     -1796, 0,     -1480, 0,
    -701,  0,     0,     0,     0,     -1097, 0,     -828,  0,     1394,  0,
    0,     0,     0,     1014,  1281,  0,     0,     0,     887,   1463,  1201,
    0,     782,   0,     -1101, 0,     -1412, -1824, -1300, -1385, 0,     -1437,
    1297,  0,     -1459, 1376,  -1485, -1410, -1005, 0,     -1170, 0,     1226,
    -1819, -928,  0,     -1157, -1709, 886,   1084,  775,   0,     0,     -1181,
    -1458, 0,     749,   0,     -1080, -1559, 0,     682,   0,     -1357, -1436,
    -704,  -1604, 1388,  -1311, 0,     1197,  0,     0,     -1776, 717,   0,
    -1736, 0,     -799,  1006,  977,   -1180, 1041,  0,     -731,  955,   709,
    -930,  0,     0,     0,     1339,  1005,  -971,  0,     0,     0,     -830,
    742,   0,     -742,  0,     0,     0,     -1220, -739,  1138,  -1736, 803,
    0,     -1583, -1222, 0,     -1630, -788,  0,     -1287, -1176, 0,     0,
    0,     0,     0,     0,     -1728, 0,     -1032, 713,   0,     0,     1823,
    668,   1149,  0,     0,     -807,  1357,  -1169, -660,  1118,  1410,  0,
    -967,  0,     0,     0,     0,     0,     0,     -1652, -1739, -1095, -1390,
    0,     -1270, 0,     864,   945,   -1633, 0,     -1435, 0,     0,     725,
    964,   -1233, 945,   1019,  774,   0,     0,     0,     1190,  -1048, 0,
    0,     0,     -1634, 1768,  1019,  1189,  0,     0,     1172,  1633,  -1219,
    -1041, -1292, -1409, 1274,  -1031, 0,     1400,  -1288, 1371,  0,     -800,
    -1196, 0,     917,   1405,  -1398, 0,     -989,  0,     867,   1187,  0,
    0,     -771,  1443,  0,     1427,  -861,  -1125, 0,     0,     -1167, 862,
    737,   -736,  -1120, -1657, 0,     1033,  -1619, 1131,  981,   0,     660,
    0,     0,     0,     0,     0,     0,     1633,  -959,  871,   1315,  -782,
    -810,  0,     0,     -901,  0,     -1393, 1356,  -1429, 1039,  -1524, 0,
    0,     0,     -1723, 830,   0,     0,     -1705, 1038,  -1666, 0,     -1480,
    0,     -1668, 1027,  0,     -1189, -829,  0,     0,     0,     0,     0,
    0,     0,     858,   1243,  0,     1387,  0,     0,     -1582, 0,     788,
    0,     0,     991,   0,     0,     0,     -1607, 673,   874,   0,     1194,
    1147,  0,     0,     0,     0,     0,     0,     0,     -1411, 0,     0,
    0,     0,     1168,  0,     0,     0,     -1452, 0,     -706,  -1093, -1411,
    -1420, 0,     -1786, 0,     0,     -1206, 0,     0,     0,     0,     792,
    0,     0,     -750,  0,     0,     1223,  0,     -739,  0,     920,   0,
    0,     -1562, -1063, 0,     -1255, 1153,  -1020, -698,  -681,  0,     0,
    0,     0,     0,     0,     1126,  1232,  -1029, 1429,  1390,  0,     0,
    -1688, 0,     -1375, 0,     0,     -909,  0,     851,   -793,  1216,  -709,
    806,   -1467, 0,     871,   -1384, 1280,  0,     0,     1435,  853,   1404,
    1441,  0,     927,   -733,  0,     0,     -922,  0,     -833,  932,   -1055,
    0,     1555,  -896,  1552,  0,     0,     -1223, 0,     -1033, 0,     1184,
    0,     783,   0,     1529,  0,     1109,  1264,  -893,  0,     0,     1551,
    0,     1076,  -864,  1761,  0,     0,     1384,  0,     0,     1505,  0,
    0,     1748,  0,     -1096, 0,     0,     -751,  0,     -777,  1581,  1779,
    1627,  1409,  0,     1049,  1119,  -1174, 0,     1997,  0,     0,     822,
    -1500, -1668, 1473,  0,     -1554, 0,     1175,  -1180, 1569,  1479,  0,
    1247,  0,     -1332, 0,     0,     0,     0,     0,     0,     0,     939,
    1099,  -1587, -783,  0,     -1527, 0,     0,     1207,  0,     -1186, 1637,
    0,     -1406, 1550,  1457,  1499,  866,   834,   0,     0,     -778,  -1643,
    0,     0,     1796,  0,     944,   0,     2145,  1912,  1126,  0,     0,
    -776,  1049,  0,     0,     1853,  0,     1217,  0,     -1243, 1579,  0,
    746,   0,     860,   -775,  1108,  1775,  0,     0,     0,     818,   -1442,
    900,   1646,  656,   906,   0,     2037,  913,   0,     0,     1351,  2265,
    -1103, -828,  1510,  2228,  1455,  1575,  1171,  750,   2441,  2198,  0,
    0,     0,     0,     1640,  -1596, 1499,  0,     938,   1017,  1405,  0,
    -1459, 0,     -1017, -1022, 0,     1703,  -952,  0,     0,     0,     1473,
    0,     1179,  -1009, 1348,  0,     0,     1001,  0,     1111,  0,     1512,
    1419,  2085,  704,   0,     0,     0,     0,     0,     681,   2029,  2019,
    0,     -933,  0,     0,     0,     0,     1527,  0,     0,     0,     760,
    -1832, -1858, -1655, 1794,  -1763, 878,   0,     0,     0,     0,     981,
    -886,  0,     0,     0,     0,     0,     -973,  0,     -1176, 0,     748,
    0,     -1409, -1377, 0,     1153,  0,     1543,  1476,  0,     0,     -1102,
    0,     1262,  845,   0,     661,   1620,  0,     0,     -1066, -1177, 0,
    0,     722,   0,     1614,  1428,  1173,  1378,  1604,  -691,  0,     -1501,
    0,     0,     0,     0,     0,     1683,  872,   0,     -1384, -1389, 0,
    1049,  0,     0,     -1170, 0,     -1655, 0,     661,   0,     -1384, 0,
    -1345, 718,   -1589, 0,     0,     0,     0,     0,     768,   1484,  0,
    1745,  -1101, 0,     -792,  1798,  0,     0,     0,     1721,  0,     1830,
    -1145, 0,     0,     0,     1223,  1010,  -832,  0,     1380,  1610,  0,
    0,     0,     0,     0,     1370,  1666,  0,     0,     1898,  808,   863,
    0,     0,     0,     -1545, -1344, -1135, -1556, -1260, 1178,  -844,  0,
    0,     -1313, 1510,  764,   0,     0,     663,   0,     0,     0,     0,
    1124,  1520,  -1965, 0,     -1666, 0,     1174,  -1258, 0,     1207,  0,
    1769,  -1081, 1579,  0,     1824,  1404,  0,     0,     1747,  0,     1906,
    1070,  1104,  0,     677,   0,     -1671, 0,     1066,  1293,  -922,  0,
    821,   1253,  0,     0,     0,     1823,  1014,  0,     0,     941,   -677,
    827,   1213,  1014,  0,     1178,  0,     0,     1217,  0,     1606,  0,
    0,     1458,  1388,  0,     0,     1899,  0,     -849,  942,   0,     0,
    0,     0,     -1025, 1810,  1901,  -725,  673,   -1042, 2378,  2189,  0,
    0,     0,     2151,  1652,  1935,  998,   1316,  2442,  1933,  1642,  -938,
    876,   2015,  1971,  0,     0,     941,   1542,  2545,  1047,  0,     0,
    977,   2098,  1185,  -934,  0,     1527,  0,     -1361, 0,     -1507, 1079,
    0,     -1071, 1100,  -1368, 1773,  1787,  0,     -1564, 0,     1262,  1158,
    -951,  -1245, -852,  1393,  0,     1722,  0,     -760,  1753,  1355,  1208,
    0,     -798,  0,     0,     1407,  -656,  0,     963,   767,   0,     0,
    0,     1312,  0,     0,     0,     0,     914,   0,     0,     2438,  1666,
    0,     2366,  1361,  1521,  1818,  673,   785,   1474,  -879,  0,     0,
    0,     1269,  1237,  1353,  2417,  2711,  0,     1382,  835,   1470,  1251,
    1026,  0,     0,     0,     0,     0,     -1858, 0,     1557,  657,   708,
    -1572, 1571,  0,     0,     775,   0,     -701,  2632,  0,     2317,  0,
    1693,  1635,  1600,  1215,  0,     0,     -1132, 1443,  1753,  1293,  1598,
    0,     -1126, 1487,  0,     1700,  1784,  1160,  0,     0,     0,     1140,
    1577,  683,   -1171, 0,     0,     1220,  1470,  -1637, -728,  1179,  0,
    1415,  -2117, -1206, 1135,  0,     0,     -1703, 1228,  0,     1426,  0,
    0,     0,     1455,  0,     0,     1219,  0,     811,   1390,  1730,  827,
    1288,  -858,  -665,  992,   0,     0,     -769,  0,     0,     928,   1023,
    1299,  809,   -728,  0,     -1137, -690,  0,     1129,  679,   0,     1284,
    1643,  -1567, 0,     0,     0,     0,     1081,  -1043, 0,     0,     0,
    -996,  1291,  -1358, 0,     0,     0,     -1360, 1746,  0,     0,     -1390,
    1189,  933,   -946,  699,   0,     -1761, 1032,  -1003, 1435,  1546,  0,
    0,     1537,  -898,  0,     -817,  1741,  2133,  1525,  1730,  0,     0,
    1653,  814,   0,     1502,  0,     0,     0,     -908,  0,     0,     -1283,
    0,     0,     1401,  0,     0,     0,     0,     -1493, 0,     916,   -709,
    1436,  0,     0,     -1127, -745,  0,     -792,  861,   0,     1763,  1808,
    0,     1769,  -965,  1911,  1071,  -957,  1588,  1686,  2018,  1269,  1600,
    -778,  0,     -803,  -694,  0,     1700,  0,     829,   2219,  1223,  -961,
    0,     0,     953,   -972,  0,     -1715, 0,     0,     0,     0,     -1275,
    -1115, 0,     -855,  0,     702,   0,     1534,  0,     -1102, 0,     858,
    1840,  0,     0,     1883,  0,     1117,  0,     0,     0,     739,   2044,
    -1022, 889,   911,   0,     1962,  -1618, 1836,  905,   0,     1547,  0,
    0,     -683,  0,     2549,  908,   -799,  674,   2651,  0,     0,     1627,
    1229,  0,     2049,  1291,  1432,  0,     2113,  0,     0,     0,     2307,
    1859,  2262,  -970,  -825,  0,     -778,  1158,  0,     -947,  0,     0,
    896,   0,     0,     1423,  968,   1068,  887,   1947,  0,     0,     -916,
    -1099, 1744,  971,   -706,  1254,  0,     -684,  1061,  0,     1613,  1094,
    0,     -922,  1357,  0,     0,     0,     0,     1410,  657,   -701,  1348,
    1194,  -668,  1983,  -1248, 2019,  -815,  920,   0,     932,   -1055, 0,
    -1268, 1083,  1293,  0,     -852,  -1331, 708,   0,     1067,  0,     854,
    2265,  0,     0,     1528,  1786,  1226,  0,     0,     1473,  1393,  1811,
    0,     -781,  -943,  1104,  951,   -1219, 0,     1568,  1660,  1136,  0,
    1623,  1764,  1911,  0,     0,     2035,  1773,  1989,  -828,  1864,  0,
    1909,  -1072, 0,     0,     1616,  -1107, 1054,  -1265, -1033, 0,     -1044,
    0,     -1621, -793,  791,   0,     0,     0,     0,     0,     980,   0,
    0,     0,     0,     0,     1304,  1362,  1036,  -992,  0,     -666,  0,
    0,     0,     -1164, -746,  -1195, 1989,  771,   918,   0,     1464,  2171,
    0,     0,     0,     0,     1594,  1141,  841,   2485,  0,     711,   1100,
    0,     847,   1670,  1391,  -1032, 1892,  1855,  0,     -851,  1217,  2291,
    998,   1925,  -720,  1847,  2115,  0,     1570,  -712,  0,     1636,  1275,
    1092,  1872,  0,     -794,  -705,  0,     0,     0,     0,     1172,  0,
    1764,  778,   0,     -715,  -700,  0,     994,   1616,  0,     0,     0,
    1840,  1669,  808,   0,     1522,  1563,  0,     1253,  0,     -1432, 0,
    1202,  1758,  -1441, 0,     754,   821,   0,     1207,  0,     0,     1338,
    1568,  -1188, 1400,  0,     0,     1194,  698,   0,     0,     838,   0,
    0,     1380,  -964,  839,   -1780, 0,     0,     1433,  -1196, 0,     0,
    1332,  -921,  0,     -1188, 1671,  -1243, -841,  0,     0,     769,   -687,
    0,     0,     0,     0,     1150,  0,     0,     -1028, 0,     2056,  2021,
    2533,  0,     825,   2365,  -747,  0,     912,   1970,  0,     693,   1060,
    -989,  1938,  0,     0,     -1004, -1340, 0,     766,   1501,  -683,  -1232,
    -1040, 0,     1308,  -779,  0,     0,     865,   1211,  -806,  0,     802,
    1546,  1182,  0,     0,     -759,  0,     1958,  723,   1090,  0,     -1244,
    -1094, 0,     -1036, 0,     0,     918,   890,   0,     0,     1191,  1776,
    1037,  1119,  2174,  1707,  0,     0,     0,     0,     0,     1044,  1257,
    -1205, -1359, 0,     0,     -1002, 0,     -1648, 0,     0,     1666,  863,
    2172,  2233,  0,     1240,  1240,  1023,  1679,  0,     1880,  0,     -894,
    0,     2059,  0,     0,     0,     -1032, 1731,  0,     733,   -1074, 1926,
    0,     0,     0,     857,   0,     -830,  1862,  0,     1338,  0,     0,
    0,     0,     1922,  0,     0,     2300,  735,   0,     0,     1518,  0,
    871,   932,   -2179, 0,     1549,  0,     0,     -1751, -1418, 0,     0,
    1269,  928,   -1290, 1413,  0,     1394,  0,     0,     0,     0,     1509,
    0,     -675,  -1654, -1286, 0,     0,     1489,  0,     0,     1096,  -1465,
    0,     -725,  662,   0,     0,     -1055, -1046, 1139,  1195,  1054,  -1213,
    -1737, 0,     0,     0,     0,     -1604, 0,     1011,  0,     1096,  -1204,
    1741,  -1046, 0,     0,     0,     -667,  0,     -2069, 0,     1087,  0,
    1558,  0,     -2013, 0,     1101,  -1482, 0,     -1482, -853,  0,     -857,
    -1544, 0,     864,   0,     0,     -1469, 1379,  0,     791,   -1090, -953,
    671,   0,     1536,  1423,  1278,  -1672, -1581, 846,   -1193, 1239,  -1267,
    -805,  0,     0,     0,     1138,  -955,  0,     0,     0,     -1274, 0,
    0,     1511,  -1022, 665,   0,     0,     0,     -1395, -1607, -1799, -856,
    1205,  991,   -1995, 0,     -1367, 0,     1516,  -930,  0,     -678,  0,
    -1396, 1580,  0,     0,     1973,  0,     0,     1210,  -669,  1510,  -969,
    -1841, 0,     0,     0,     -2210, 0,     0,     0,     0,     0,     -1071,
    -1422, 670,   -1120, 0,     0,     1612,  0,     0,     0,     -1263, 816,
    0,     2344,  0,     0,     0,     1521,  2209,  1183,  1611,  0,     0,
    0,     1052,  1518,  0,     0,     0,     -1756, 0,     0,     1761,  0,
    -977,  822,   0,     0,     0,     -1633, -1258, 0,     0,     -818,  1274,
    0,     -877,  0,     0,     -887,  0,     0,     1193,  0,     0,     903,
    0,     1649,  854,   1017,  -1094, 0,     683,   945,   -1548, 1354,  0,
    1577,  1023,  -1141, -1553, 849,   0,     -1011, -1206, 1265,  -1383, -1175,
    0,     780,   0,     0,     1330,  0,     -1112, -1010, 0,     -1313, -1656,
    0,     946,   1518,  0,     0,     0,     885,   0,     -1258, 0,     -872,
    0,     0,     0,     -1583, -1123, 0,     -1071, 1198,  0,     743,   704,
    -826,  0,     -1344, 0,     0,     -758,  1213,  1494,  -723,  -1576, 950,
    1269,  1261,  0,     -760,  1576,  0,     -1320, 0,     1433,  2003,  1465,
    0,     -1640, -1578, 0,     1905,  1136,  975,   0,     1335,  -1288, 986,
    0,     -1264, -733,  1146,  1339,  0,     0,     0,     0,     -1307, 1209,
    0,     0,     1136,  1848,  -1283, 1598,  0,     1654,  0,     0,     -1545,
    -1739, 0,     883,   -1006, 0,     -1459, 1260,  -1804, 930,   0,     993,
    2131,  1450,  1003,  -1046, 1392,  0,     1409,  0,     0,     1287,  0,
    0,     -1406, -1997, -1267, -1446, 0,     1187,  0,     -1916, 0,     0,
    0,     1379,  0,     1582,  0,     -1659, 0,     1922,  0,     -786,  -1191,
    1279,  0,     -1081, 1838,  -1578, -1595, 1314,  1227,  -676,  0,     0,
    0,     900,   0,     0,     0,     1455,  0,     834,   0,     961,   -1005,
    -1033, 769,   1234,  0,     1286,  0,     1051,  -1335, -1469, 0,     1837,
    0,     0,     -1160, 1217,  -1022, 0,     0,     1609,  0,     1306,  706,
    1832,  2070,  0,     0,     0,     0,     1560,  1078,  2229,  1739,  0,
    1782,  0,     0,     0,     692,   1545,  1646,  2114,  0,     0,     1298,
    1433,  1782,  0,     1812,  1669,  2604,  1650,  0,     0,     0,     2470,
    809,   0,     1820,  2409,  0,     0,     1488,  0,     0,     0,     791,
    0,     -949,  1919,  0,     0,     1863,  1924,  0,     0,     1722,  2529,
    0,     2613,  2549,  1433,  0,     2339,  1067,  0,     1847,  2271,  1016,
    0,     785,   0,     0,     0,     0,     0,     -1032, 1512,  0,     0,
    0,     -1206, 1049,  0,     728,   1280,  1670,  1030,  -1061, 1733,  0,
    -1332, 0,     -1301, 1706,  -663,  700,   -1002, -1256, 0,     0,     0,
    0,     1071,  1199,  1840,  0,     -678,  0,     0,     0,     1117,  -1025,
    -1370, 0,     0,     0,     0,     -857,  -788,  1637,  1801,  1599,  1761,
    2519,  2386,  2152,  0,     0,     1204,  0,     0,     2014,  1890,  0,
    790,   0,     -775,  1718,  2599,  1929,  0,     0,     0,     0,     1594,
    0,     1061,  0,     0,     2310,  2242,  0,     1494,  1955,  866,   2602,
    1499,  0,     0,     2692,  2944,  917,   0,     0,     2895,  1713,  2693,
    0,     0,     0,     2247,  0,     0,     1081,  1060,  0,     -749,  0,
    0,     1496,  1262,  1041,  1874,  813,   1214,  854,   0,     671,   0,
    1166,  1933,  -1140, 0,     0,     0,     0,     1198,  -727,  0,     1688,
    0,     1598,  0,     0,     2352,  1561,  1155,  1499,  1432,  1975,  0,
    656,   1616,  2694,  0,     2589,  0,     1802,  1115,  1658,  1568,  0,
    -1321, 0,     0,     -1221, 1650,  1669,  -1353, 1104,  0,     -1374, 0,
    -939,  0,     1364,  -1028, 0,     0,     0,     -1290, 862,   1048,  -764,
    0,     0,     0,     1093,  0,     660,   903,   1162,  789,   0,     -1236,
    0,     908,   -1149, -1409, 0,     0,     1228,  -1246, 0,     -1633, -993,
    -1556, 0,     -947,  670,   -856,  0,     -686,  1980,  870,   922,   0,
    0,     1242,  1009,  1864,  0,     2089,  0,     0,     0,     1806,  -949,
    976,   1386,  1778,  0,     1860,  0,     855,   1400,  0,     830,   0,
    0,     0,     0,     0,     -690,  1997,  0,     1248,  0,     879,   1594,
    -662,  -795,  -1277, 1493,  868,   0,     823,   -846,  -1112, 1278,  1414,
    0,     0,     0,     0,     1819,  0,     1856,  2471,  2070,  940,   0,
    1250,  1569,  0,     0,     -781,  1386,  2199,  0,     0,     1799,  0,
    0,     1285,  0,     1911,  -981,  0,     0,     1951,  0,     -1197, 1358,
    0,     1274,  0,     1333,  1888,  0,     1658,  1481,  0,     -1011, 1890,
    0,     0,     -942,  0,     1856,  1446,  898,   -1212, 0,     0,     -670,
    2341,  0,     983,   1017,  2540,  0,     1005,  2454,  0,     2180,  2647,
    2051,  0,     676,   0,     1171,  0,     0,     2058,  1322,  0,     0,
    0,     0,     0,     0,     -1130, -1539, -1214, 0,     0,     -1509, 0,
    0,     1061,  -1290, 1357,  -1029, 1187,  0,     -1499, -1683, 0,     0,
    661,   0,     1063,  0,     1012,  -1643, -691,  0,     -1262, -1260, 674,
    0,     0,     -1514, 1078,  1280,  1438,  0,     -1552, 0,     -1278, 0,
    1233,  909,   0,     0,     0,     0,     -708,  980,   725,   -719,  890,
    -1004, 0,     759,   907,   969,   1046,  1124,  0,     1137,  -879,  0,
    0,     1434,  0,     1105,  1367,  -1352, 0,     0,     0,     -1207, 0,
    -1153, 0,     -1439, -885,  -949,  0,     0,     -1477, 1019,  -1813, 890,
    0,     0,     0,     1195,  0,     0,     -911,  -1609, 0,     -1158, 0,
    0,     -1571, -809,  -861,  0,     0,     -1679, 0,     0,     1376,  0,
    0,     0,     0,     0,     0,     714,   0,     1005,  -948,  0,     -891,
    -1379, -940,  0,     0,     -937,  1100,  0,     -725,  868,   0,     -733,
    -682,  0,     0,     0,     -1418, 0,     -965,  0,     1128,  -989,  0,
    0,     -759,  -1128, -1567, 0,     797,   0,     -1257, 0,     -697,  857,
    922,   0,     0,     -1245, -1083, 1380,  1257,  0,     0,     -760,  -1557,
    0,     1240,  -1657, 987,   0,     -713,  -1421, -1037, -702,  0,     -1585,
    -1345, 0,     763,   0,     -1560, 0,     0,     -1177, 0,     -1562, -720,
    -1378, 0,     0,     1260,  934,   0,     0,     711,   0,     0,     915,
    0,     0,     1070,  0,     -1105, -879,  1100,  0,     1555,  1528,  -792,
    0,     0,     -1058, 0,     -1152, 0,     -1222, 1211,  -1071, 722,   0,
    -1719, -1144, 0,     0,     783,   0,     0,     989,   0,     -1357, 672,
    -1518, 0,     0,     -1235, 0,     721,   0,     0,     0,     0,     1143,
    -1302, 0,     0,     1031,  1215,  -1775, 0,     -1381, -1108, 0,     -1385,
    1211,  -1049, -1196, -1284, 1575,  -802,  0,     0,     1028,  0,     1315,
    0,     886,   1586,  -707,  0,     0,     -1561, 1168,  1632,  0,     981,
    0,     -1628, -1331, 0,     -1002, -1233, 0,     -1360, 1330,  0,     768,
    0,     0,     0,     -1771, 1405,  -1328, 0,     839,   -1339, -941,  726,
    0,     704,   0,     -1594, 733,   0,     -1762, -984,  0,     0,     0,
    730,   0,     0,     0,     -990,  0,     -1087, -1342, -688,  -1550, -1767,
    742,   -1090, 715,   0,     0,     0,     0,     729,   0,     0,     -971,
    -1617, -932,  1098,  0,     0,     0,     -1761, 0,     0,     1234,  0,
    -1372, 0,     -859,  -736,  0,     778,   1146,  -1150, 853,   0,     -1716,
    -1668, 1441,  0,     0,     0,     0,     -1126, -1518, 0,     0,     0,
    0,     0,     0,     818,   1447,  726,   0,     0,     0,     -1739, 0,
    -690,  1118,  0,     0,     1230,  0,     747,   -1481, 0,     -1665, -942,
    988,   -1195, 0,     -992,  0,     0,     -1581, -1685, 933,   773,   -1053,
    1378,  -982,  -822,  1400,  0,     -1144, -905,  -1164, 0,     -1026, -922,
    1124,  1143,  701,   670,   -742,  1191,  0,     1244,  0,     1555,  1480,
    1037,  1081,  0,     -879,  992,   751,   0,     0,     0,     0,     -1623,
    0,     1693,  -1236, -1439, -833,  1129,  -770,  0,     1459,  0,     -1675,
    -1425, 0,     0,     1461,  1501,  -858,  1733,  1421,  0,     1157,  -1254,
    -1100, 1291,  678,   1849,  1359,  1858,  0,     0,     -1439, -1317, 1906,
    0,     0,     0,     -1062, 0,     1909,  815,   824,   0,     0,     0,
    1677,  1202,  -1596, -758,  870,   0,     979,   0,     1486,  0,     0,
    884,   1240,  0,     1436,  0,     -1472, -947,  0,     656,   1044,  -973,
    763,   0,     -694,  1304,  0,     0,     0,     0,     0,     0,     -1171,
    0,     0,     0,     -1473, -1479, 0,     1101,  1015,  -1203, 0,     1375,
    1356,  0,     -1590, -1295, 1533,  0,     0,     0,     0,     1164,  0,
    0,     1609,  1267,  -858,  0,     1203,  0,     0,     0,     2148,  0,
    1158,  0,     1859,  2029,  0,     1189,  0,     1668,  1373,  933,   1761,
    0,     0,     0,     -1303, 1210,  1159,  1239,  0,     1191,  1612,  1806,
    1015,  0,     0,     1460,  976,   -716,  1944,  1479,  0,     1273,  -749,
    2010,  1242,  0,     0,     -775,  0,     0,     1046,  0,     0,     0,
    0,     -1202, 1002,  -1193, 0,     0,     1249,  0,     0,     1155,  0,
    -1569, 0,     0,     0,     1270,  -1355, -1036, -1313, 1267,  1269,  -824,
    -1254, -804,  0,     0,     1128,  0,     1508,  -734,  2057,  0,     0,
    0,     2239,  0,     1713,  0,     1342,  1779,  0,     0,     -849,  1383,
    -912,  -1415, -1179, 0,     1612,  -1047, 0,     0,     1564,  -1408, 996,
    0,     0,     -1441, 0,     -1309, 0,     0,     -1079, -1718, 679,   0,
    1490,  -1476, -778,  -1143, 0,     -1239, 1065,  1272,  0,     671,   983,
    -1336, 0,     0,     -1576, -663,  0,     -1145, 0,     0,     0,     0,
    -1404, 1719,  0,     789,   0,     991,   0,     0,     1654,  0,     1650,
    0,     0,     0,     0,     -1181, -1165, 0,     -1426, 0,     0,     1198,
    0,     -724,  0,     -863,  784,   1249,  1036,  0,     -1164, 0,     0,
    -1381, -846,  0,     874,   0,     1131,  -1439, 0,     1391,  0,     0,
    1437,  0,     1542,  926,   0,     -684,  1008,  1287,  0,     995,   0,
    1608,  -1630, 1370,  1610,  713,   1208,  0,     0,     -1184, 1203,  1224,
    0,     -1017, 0,     0,     0,     1074,  871,   0,     1538,  1181,  1670,
    0,     0,     -784,  -1536, -1795, -1863, 877,   0,     -1176, -900,  -1596,
    -676,  -1461, -1422, -1428, -1460, 835,   1105,  0,     1416,  1247,  -1511,
    0,     -970,  0,     0,     -835,  -694,  0,     0,     0,     -1006, 0,
    0,     -757,  972,   0,     0,     721,   1831,  0,     0,     0,     0,
    -900,  0,     0,     1266,  1089,  0,     0,     976,   -1547, 709,   -972,
    -1498, -1075, 1178,  0,     0,     0,     0,     0,     -795,  -1640, -1012,
    1438,  0,     -1255, -1711, 0,     -1318, 1141,  0,     958,   718,   -1502,
    945,   880,   -1400, -958,  820,   -1175, -1594, 683,   0,     0,     1427,
    0,     937,   1395,  -936,  0,     -1409, 1364,  1119,  1086,  -1802, 0,
    1283,  0,     0,     0,     1326,  -1331, -1668, 998,   0,     0,     1431,
    -1086, -1213, -775,  785,   -940,  0,     -895,  0,     0,     -879,  -1656,
    0,     1339,  -1684, -1251, -1601, -1262, -1513, -1175, 1268,  0,     0,
    0,     -906,  -685,  0,     -1278, 0,     -732,  1161,  -1338, 0,     -1330,
    0,     -1316, 892,   911,   -1131, -1271, -735,  0,     0,     -1570, 0,
    0,     1164,  996,   -1136, 1400,  0,     0,     811,   0,     0,     0,
    0,     -664,  0,     0,     0,     -1204, 0,     0,     -1435, -1408, -1535,
    1203,  -1013, 1306,  0,     0,     0,     858,   0,     -919,  -1480, -1473,
    -1698, -1298, 1029,  991,   0,     -856,  -728,  0,     0,     -1277, 1153,
    0,     667,   -1351, -1135, 0,     -1303, -1496, 1151,  0,     -1734, 0,
    0,     -840,  0,     -1200, -1030, 0,     746,   0,     -1828, -1428, 817,
    -1148, -1828, 0,     1304,  -1737, 871,   -1360, -1727, 0,     712,   0,
    779,   0,     1146,  1304,  1380,  964,   982,   -1183, 0,     0,     -1343,
    0,     -1509, 0,     -1359, 1108,  -1180, 815,   0,     0,     -1083, 0,
    0,     0,     0,     882,   816,   -845,  0,     0,     0,     0,     -772,
    -912,  0,     0,     929,   1412,  1043,  1385,  -1010, 0,     -1484, 0,
    1042,  -1586, 0,     0,     0,     1326,  -1071, 0,     -1239, 1655,  0,
    0,     0,     1599,  1759,  -1284, 0,     -1483, 0,     -1314, 773,   0,
    1144,  850,   1215,  -1405, -889,  869,   0,     -1475, 1602,  0,     1429,
    0,     -1087, 1034,  1207,  -1350, 0,     0,     0,     -1167, 0,     -889,
    885,   0,     -1324, 0,     0,     0,     1574,  -1034, 0,     1304,  0,
    -1117, -1450, 0,     0,     0,     0,     -964,  -972,  0,     0,     -1397,
    951,   918,   1363,  1303,  -897,  674,   0,     -908,  -1244, -1206, 0,
    0,     0,     0,     -789,  -1525, 0,     0,     0,     0,     0,     -1627,
    0,     0,     -1055, 0,     0,     -954,  0,     0,     0,     -683,  752,
    1320,  -1825, 912,   0,     907,   0,     -1434, 0,     1007,  -703,  1055,
    -1431, 0,     -1659, 0,     -1770, -1353, -1494, -812,  -1259, 0,     1015,
    0,     695,   1081,  -1453, 1025,  -1520, 0,     0,     832,   0,     0,
    0,     1190,  699,   0,     -1283, -1481, 1153,  -1756, 683,   -1536, -880,
    -924,  0,     0,     0,     0,     0,     1331,  -1293, -1500, 0,     0,
    -1663, 0,     0,     934,   -791,  -1737, 660,   -884,  879,   0,     0,
    1340,  0,     1150,  0,     -1574, -1500, 0,     0,     0,     988,   0,
    -2072, -962,  -1188, -685,  1545,  756,   1384,  -1309, 0,     823,   -941,
    -1368, 723,   1910,  968,   0,     -784,  1480,  2276,  0,     -1028, 0,
    0,     0,     1586,  0,     0,     -802,  0,     -1186, 0,     1279,  0,
    -1031, 0,     0,     0,     0,     -981,  2286,  0,     -1315, 0,     1201,
    2237,  1330,  968,   756,   903,   0,     -1732, -1222, -861,  -851,  -1361,
    1424,  769,   0,     0,     1443,  0,     0,     1107,  1136,  1197,  -1111,
    -1098, 0,     -863,  0,     -1625, 0,     -712,  1578,  1098,  0,     0,
    1116,  1344,  -1022, 0,     1299,  1335,  0,     0,     0,     -1573, 0,
    0,     0,     0,     0,     0,     996,   1797,  -1487, -1174, 0,     953,
    817,   0,     0,     0,     0,     0,     0,     0,     -1025, 1560,  902,
    -721,  1367,  937,   0,     762,   0,     -1559, 0,     0,     1506,  0,
    -1539, 0,     0,     1339,  -1258, 0,     1509,  -838,  1997,  845,   717,
    2280,  778,   -768,  -1398, 0,     723,   1684,  696,   -1508, -1081, 1472,
    1113,  -670,  0,     0,     -1116, 1065,  2113,  0,     -1830, 0,     1582,
    0,     0,     0,     0,     1998,  1719,  -1802, 0,     -954,  0,     1925,
    0,     0,     739,   0,     0,     0,     684,   1459,  1711,  0,     -1365,
    0,     0,     0,     -1168, -1683, -699,  -837,  -1289, -888,  0,     0,
    -709,  802,   -805,  0,     1263,  1399,  -681,  1208,  0,     -1036, -853,
    -1161, 1636,  -2095, 0,     -841,  1150,  935,   0,     0,     1059,  1382,
    1883,  0,     -1547, 754,   0,     -1101, -1072, -1725, -784,  714,   2051,
    0,     -717,  0,     -1015, 1001,  0,     0,     -1122, -688,  -1086, 1514,
    0,     -970,  -1322, 1399,  0,     828,   0,     857,   -686,  1232,  690,
    -1254, 0,     1586,  -1405, 1226,  673,   1461,  0,     1064,  0,     1324,
    823,   0,     0,     0,     0,     0,     0,     1261,  1633,  1397,  0,
    -1238, 0,     0,     -1138, -763,  1162,  0,     0,     763,   1527,  -1216,
    0,     0,     0,     -669,  0,     0,     1218,  0,     1793,  838,   0,
    0,     0,     663,   0,     0,     1689,  714,   0,     -879,  0,     0,
    0,     789,   0,     -2025, -796,  1306,  773,   0,     -998,  -1583, 0,
    0,     0,     0,     0,     0,     0,     1139,  -681,  0,     0,     0,
    1918,  -1560, 0,     1547,  714,   1368,  0,     0,     1561,  0,     0,
    0,     0,     1723,  0,     1618,  -1280, 0,     0,     1598,  1249,  0,
    1460,  0,     0,     1984,  0,     949,   0,     -964,  1023,  0,     -1942,
    -1602, 1172,  -1295, -765,  696,   1005,  -1447, -1167, 0,     0,     1464,
    0,     0,     0,     0,     0,     -925,  0,     -1227, 1554,  0,     0,
    735,   706,   0,     -1803, 0,     1381,  -1471, 968,   -1349, 0,     -1023,
    -1620, -1285, 933,   0,     1652,  -2034, 1242,  882,   1692,  -756,  -1861,
    -1013, 0,     1937,  881,   1472,  -1054, -1239, 0,     759,   -744,  1881,
    0,     0,     0,     1522,  1513,  1079,  1508,  -1000, -741,  0,     1770,
    0,     -1107, -706,  -718,  0,     1700,  736,   0,     1557,  -1326, -1516,
    0,     0,     0,     0,     0,     0,     -1282, -793,  0,     0,     -986,
    0,     1960,  983,   -771,  0,     0,     0,     0,     0,     -1635, -989,
    -1192, 1065,  1514,  0,     0,     0,     -1040, -1252, 0,     2109,  810,
    -1157, 0,     1522,  -910,  0,     0,     1928,  0,     1461,  2022,  1819,
    -679,  -835,  0,     -1175, -1338, 0,     0,     1486,  0,     0,     0,
    0,     1434,  1427,  0,     -877,  0,     752,   0,     0,     0,     0,
    -862,  706,   677,   0,     -1724, 0,     785,   1582,  -724,  -1708, 0,
    1011,  -661,  -799,  -1364, -1246, 1028,  728,   0,     0,     1018,  0,
    1039,  816,   0,     971,   975,   1869,  0,     -1476, 1968,  0,     0,
    -1317, 1110,  -797,  2233,  923,   -1327, -813,  2422,  0,     0,     1926,
    -1543, 0,     0,     2284,  0,     1481,  1852,  1275,  0,     2067,  0,
    -1712, 1513,  1671,  1122,  0,     1068,  0,     0,     1891,  1269,  0,
    0,     1695,  0,     806,   1617,  1126,  1256,  -882,  -723,  2361,  713,
    0,     0,     1387,  0,     1448,  0,     -1565, -1089, -710,  0,     1184,
    0,     0,     -1047, 0,     0,     -1637, 820,   0,     0,     0,     0,
    -1680, -1296, 1704,  0,     0,     -919,  674,   0,     901,   1798,  -1323,
    1068,  0,     1862,  0,     0,     -659,  1355,  0,     1111,  0,     1050,
    1212,  701,   2110,  0,     0,     2354,  2202,  1862,  -777,  0,     0,
    0,     0,     0,     1800,  0,     737,   -1732, 0,     0,     0,     0,
    0,     1333,  1294,  -1621, 0,     784,   -849,  0,     -1429, 0,     1421,
    -800,  -1534, 1179,  1414,  1524,  0,     1064,  -975,  -1647, 1301,  1586,
    0,     -691,  1549,  0,     0,     0,     0,     -1285, 0,     -1215, 749,
    1587,  -1594, 0,     -1213, 0,     0,     1419,  0,     -682,  1508,  1478,
    920,   -1048, 0,     845,   1736,  1570,  -1060, 0,     1555,  0,     1327,
    926,   1452,  1006,  0,     0,     -1238, 0,     781,   0,     0,     1115,
    -1450, -1228, 1617,  0,     0,     1371,  1191,  719,   1276,  0,     1289,
    1610,  1063,  0,     0,     0,     0,     1567,  1574,  -1024, -1698, 1660,
    860,   -1103, 0,     -913,  0,     0,     990,   1312,  1058,  859,   2054,
    1603,  0,     -1475, 1662,  0,     0,     1791,  -904,  -657,  1196,  2085,
    1901,  1312,  -1554, 0,     0,     838,   0,     1454,  -1223, 1456,  0,
    -1279, -1371, 0,     -978,  1028,  1137,  -1078, 0,     0,     0,     799,
    0,     1084,  0,     -1246, 778,   0,     0,     0,     0,     0,     0,
    0,     1913,  0,     1269,  -1028, 0,     0,     0,     -745,  0,     1358,
    0,     0,     1481,  -750,  0,     704,   0,     -768,  0,     1233,  0,
    0,     684,   -807,  950,   0,     1622,  0,     0,     0,     1825,  0,
    1060,  796,   0,     0,     0,     0,     0,     1459,  1601,  1332,  0,
    1782,  0,     0,     2213,  0,     1167,  0,     0,     899,   1119,  1365,
    2169,  1051,  777,   1084,  883,   1116,  0,     973,   0,     0,     1876,
    2242,  0,     0,     1942,  2422,  0,     0,     0,     1132,  1256,  0,
    2572,  2089,  1298,  0,     954,   0,     1047,  0,     0,     1673,  2077,
    0,     1261,  840,   0,     0,     1586,  814,   0,     1569,  764,   0,
    -999,  866,   1800,  0,     0,     -992,  -744,  0,     -790,  0,     -798,
    0,     1335,  1205,  1414,  1177,  0,     0,     0,     -1256, 0,     1655,
    2039,  954,   -671,  1246,  1681,  2061,  0,     -1238, 1270,  1739,  1404,
    -1161, 0,     1959,  0,     1059,  974,   0,     1792,  936,   1226,  -975,
    0,     2367,  0,     1745,  849,   0,     1771,  2569,  2434,  0,     -1075,
    0,     0,     1685,  2058,  724,   0,     2377,  1148,  1114,  0,     2377,
    0,     2685,  0,     1006,  0,     0,     2051,  0,     1732,  0,     0,
    1237,  731,   1748,  0,     2219,  0,     999,   1332,  0,     1864,  2470,
    2680,  1664,  0,     2643,  0,     2782,  0,     0,     1019,  -1119, 0,
    -1041, 0,     1595,  1427,  0,     -1090, 888,   0,     -1070, 1007,  0,
    1882,  -926,  -693,  0,     -1342, 1578,  0,     0,     0,     -1576, -1440,
    897,   -926,  0,     0,     0,     2211,  2077,  1787,  0,     0,     0,
    1307,  2034,  -853,  1155,  1203,  0,     713,   2124,  2391,  2579,  1536,
    0,     0,     -882,  1640,  0,     -940,  738,   -1189, 0,     0,     -893,
    -1233, 0,     880,   -949,  1390,  1655,  0,     0,     0,     -980,  676,
    0,     -912,  0,     1672,  1103,  -977,  0,     -894,  845,   -690,  0,
    0,     1242,  0,     1649,  -657,  -797,  839,   0,     758,   1665,  -812,
    1330,  -807,  1290,  -1028, 763,   0,     -688,  -913,  0,     1480,  1348,
    1822,  -1107, 1575,  730,   908,   -1035, -1276, 0,     0,     1067,  1038,
    -1121, 1083,  0,     1851,  977,   1473,  912,   1485,  2127,  -972,  0,
    1434,  -1103, 0,     994,   -1618, 0,     1581,  0,     1087,  1154,  -1266,
    0,     973,   1140,  0,     1001,  960,   0,     0,     1868,  0,     1865,
    0,     0,     1238,  1344,  0,     -780,  1367,  656,   0,     0,     1475,
    710,   1873,  0,     0,     2132,  0,     1521,  893,   0,     1187,  1962,
    1175,  689,   0,     1119,  0,     843,   -2060, -1564, -870,  -1249, -1297,
    974,   0,     0,     848,   -1003, 0,     0,     1135,  0,     0,     1209,
    0,     0,     0,     1738,  -856,  0,     1766,  0,     -936,  -1429, 796,
    0,     -687,  1591,  1146,  1813,  0,     0,     0,     0,     0,     1855,
    0,     1925,  2119,  2315,  754,   0,     0,     1311,  1198,  2562,  1046,
    0,     -1047, 662,   -965,  1431,  1314,  -1085, 0,     0,     702,   0,
    1171,  766,   0,     922,   789,   0,     0,     1466,  0,     0,     708,
    1335,  965,   0,     -922,  0,     776,   1262,  0,     1659,  0,     2557,
    1482,  2106,  1009,  1310,  2379,  1385,  0,     1752,  0,     1928,  0,
    -742,  0,     1274,  1642,  2033,  0,     755,   0,     2696,  1216,  0,
    0,     0,     1965,  2507,  0,     0,     0,     0,     1289,  967,   1005,
    1639,  0,     2460,  0,     0,     2166,  0,     0,     1018,  1042,  959,
    1237,  1725,  0,     0,     739,   0,     1740,  0,     1530,  0,     1387,
    0,     -1061, -1044, 1794,  0,     798,   739,   907,   0,     1019,  748,
    1547,  0,     -865,  1836,  -889,  -1113, 0,     0,     1545,  1710,  783,
    0,     0,     0,     1002,  1320,  0,     874,   1427,  1213,  1290,  0,
    1015,  1364,  0,     0,     -1140, 1907,  2174,  1918,  0,     1507,  2866,
    0,     1044,  2026,  1928,  1962,  0,     2027,  2125,  -704,  1195,  1639,
    0,     1124,  678,   2615,  0,     1200,  0,     1814,  -890,  0,     1511,
    0,     1042,  0,     0,     2242,  0,     0,     2760,  2386,  1338,  760,
    1654,  2018,  1365,  1858,  2136,  0,     0,     2250,  750,   890,   1817,
    1475,  705,   0,     0,     0,     1579,  1760,  0,     1607,  1357,  1104,
    -1100, 731,   0,     -1431, -1082, 2040,  0,     -1144, 0,     662,   -868,
    0,     1506,  -825,  -1116, 786,   702,   0,     1730,  0,     2054,  0,
    0,     1489,  1180,  891,   2847,  0,     1794,  1306,  898,   2652,  1844,
    0,     790,   0,     2619,  0,     708,   0,     0,     1118,  -660,  0,
    1027,  1087,  0,     1343,  0,     0,     0,     0,     0,     -856,  1419,
    -704,  -1157, 801,   0,     0,     0,     0,     -1151, -1047, 0,     -1593,
    1749,  0,     -737,  -1019, 0,     1304,  -973,  -795,  0,     0,     -1548,
    0,     0,     971,   1639,  -1083, -937,  872,   0,     1207,  718,   -1007,
    -1223, 1621,  0,     1341,  1968,  0,     1043,  0,     1707,  1389,  0,
    0,     1856,  -662,  0,     0,     1402,  1782,  0,     -1117, -1053, 768,
    794,   -715,  0,     996,   0,     1440,  -1132, 1394,  1680,  0,     1657,
    932,   0,     -912,  1738,  977,   675,   0,     1648,  1288,  1569,  1031,
    0,     1207,  2026,  0,     790,   0,     1611,  0,     2464,  0,     0,
    0,     0,     0,     1554,  0,     0,     0,     0,     1938,  1077,  -1261,
    0,     1362,  1386,  0,     0,     0,     1941,  0,     1912,  1941,  -913,
    0,     -938,  -1192, 0,     1219,  1352,  1477,  872,   -681,  -1112, 0,
    0,     1036,  -958,  1155,  0,     -858,  982,   -1395, -666,  755,   0,
    0,     0,     0,     1059,  0,     2504,  1571,  -850,  1697,  2514,  1624,
    -709,  0,     1511,  2665,  1195,  0,     1276,  0,     1112,  1311,  1458,
    1334,  1092,  2306,  1957,  1894,  0,     0,     -1411, -1481, -764,  0,
    0,     1296,  1599,  0,     0,     0,     706,   -866,  0,     695,   1207,
    -1194, 0,     1131,  -825,  0,     -1076, 1859,  0,     -1543, 0,     0,
    1951,  2514,  -1850, 945,   859,   2163,  719,   -1396, 855,   1066,  0,
    0,     0,     -1033, 1424,  2094,  0,     -673,  0,     1977,  1422,  0,
    -1494, 1294,  1173,  785,   1752,  -1738, 0,     2135,  2616,  1913,  0,
    0,     776,   1963,  0,     0,     1902,  0,     0,     0,     0,     1154,
    0,     0,     788,   -1177, -696,  1452,  1657,  -722,  -1296, -1282, 0,
    0,     0,     0,     814,   0,     1234,  1024,  0,     -689,  -1267, 1877,
    2223,  828,   0,     1686,  0,     0,     0,     -1565, 0,     815,   1912,
    0,     -675,  -1110, 1769,  0,     -971,  948,   1557,  1245,  0,     1307,
    -938,  0,     0,     1809,  -1190, 0,     1433,  1782,  -702,  0,     -745,
    2206,  2037,  1260,  912,   0,     1359,  0,     1523,  0,     0,     1125,
    0,     2550,  0,     0,     1543,  0,     1022,  -1585, 0,     1340,  1037,
    1502,  0,     0,     -1725, -812,  0,     0,     -2221, -1316, 1932,  791,
    -1980, 0,     0,     1285,  1571,  0,     -1098, 0,     1880,  1806,  0,
    -896,  1469,  0,     789,   -1036, -708,  0,     1894,  0,     0,     0,
    798,   -987,  1337,  0,     0,     1377,  0,     1242,  -931,  0,     1656,
    1059,  1694,  1172,  0,     1101,  -1045, 975,   0,     -1015, 723,   0,
    2054,  -2066, -2039, -1501, 0,     0,     0,     -1188, 0,     2095,  0,
    0,     -1426, 0,     0,     2888,  -1645, 1600,  0,     2772,  2999,  0,
    0,     1421,  1501,  1372,  0,     -1447, 0,     0,     -1303, 0,     1407,
    -1286, 1262,  1033,  1302,  1107,  0,     1005,  -808,  1837,  1309,  0,
    -1718, 0,     784,   -1169, 920,   0,     0,     -1703, -1095, -759,  1473,
    1393,  0,     0,     0,     0,     -1326, -908,  1101,  0,     0,     0,
    -1291, 0,     1420,  0,     -1693, 0,     0,     0,     1199,  1236,  0,
    1274,  0,     699,   2230,  971,   0,     0,     1838,  2498,  -1204, 1056,
    905,   2102,  2442,  1078,  -1385, 1241,  0,     2425,  -1774, -676,  0,
    1731,  0,     0,     697,   1647,  1766,  0,     -667,  0,     0,     2111,
    2151,  0,     0,     0,     0,     0,     -1314, 0,     -1117, 1186,  1395,
    -1685, -895,  0,     2090,  0,     0,     -844,  1515,  678,   2320,  -843,
    0,     1468,  2527,  2580,  0,     0,     725,   0,     2284,  0,     0,
    850,   2452,  761,   0,     0,     -781,  0,     0,     -726,  0,     1588,
    -767,  1458,  -769,  -742,  0,     0,     0,     0,     -1378, 1449,  2114,
    1578,  -1039, 0,     -968,  -1169, 1601,  -2502, 0,     0,     0,     1011,
    -2615, -1210, 1378,  1752,  0,     -1105, 0,     0,     0,     3029,  -1948,
    0,     0,     0,     0,     0,     1416,  0,     0,     1576,  0,     -865,
    0,     976,   0,     0,     1126,  713,   0,     -1081, -1004, 0,     1293,
    0,     1755,  835,   -731,  1487,  0,     0,     -656,  734,   1149,  0,
    1171,  826,   -1647, 0,     -933,  702,   944,   1059,  1163,  1192,  1976,
    676,   0,     0,     -1348, 897,   0,     0,     0,     1004,  970,   -827,
    -1456, 1509,  -828,  -1766, 1015,  -1437, -1434, 686,   1679,  0,     0,
    0,     0,     1131,  0,     1090,  1927,  0,     -741,  877,   1056,  -719,
    1123,  -1736, 1180,  0,     0,     954,   0,     0,     0,     -1433, 1277,
    -1124, -1401, 1162,  881,   0,     0,     -1424, 0,     1688,  -1293, 0,
    -1339, 0,     -1076, -1185, 0,     686,   0,     958,   -825,  0,     0,
    888,   -837,  0,     0,     1450,  700,   1564,  1676,  0,     0,     1466,
    0,     1782,  1070,  0,     0,     -668,  0,     -1427, 0,     899,   -1496,
    0,     -1691, 1484,  -1100, 1965,  -703,  -714,  0,     0,     0,     811,
    1681,  -823,  1666,  0,     0,     1668,  -1557, 0,     0,     -1595, 0,
    0,     0,     -1054, 0,     0,     1552,  1340,  -982,  0,     -1034, 0,
    0,     696,   750,   1463,  0,     -972,  0,     0,     1264,  -1449, 0,
    0,     2006,  1350,  -1453, 909,   -776,  0,     740,   -964,  0,     0,
    1618,  0,     0,     -1098, 1828,  -979,  1412,  -818,  0,     0,     0,
    -721,  0,     1432,  1149,  -1070, 1035,  0,     -1520, 0,     -1161, 0,
    0,     1190,  -1214, 0,     1786,  1111,  0,     1405,  0,     -992,  -787,
    0,     0,     1225,  902,   1510,  0,     -696,  1437,  2076,  -1321, -717,
    1574,  0,     0,     -823,  -976,  1149,  0,     0,     0,     -779,  -1412,
    1226,  0,     -918,  0,     726,   0,     0,     -973,  0,     943,   734,
    1825,  0,     0,     -1445, 0,     -1566, 1137,  0,     -1285, -1185, 1088,
    -1399, 1606,  -1072, -917,  1077,  -1048, 788,   1247,  0,     1187,  -706,
    933,   1176,  0,     1026,  1113,  0,     893,   0,     -1602, -1463, 0,
    0,     0,     -1215, 0,     -838,  1018,  860,   1721,  0,     1285,  0,
    0,     -1138, 1527,  -1390, 1485,  -1418, 0,     0,     0,     921,   -876,
    -662,  0,     827,   962,   0,     -1505, 0,     0,     -1296, 1545,  1576,
    0,     -1496, 0,     851,   0,     0,     0,     -1455, 1413,  1364,  1057,
    0,     -864,  -790,  -1019, -1575, 0,     -1120, 1555,  1302,  0,     0,
    1625,  2099,  0,     -1531, 0,     1344,  1022,  0,     0,     0,     0,
    733,   1159,  1090,  752,   -1353, -1632, -1484, 0,     -787,  0,     937,
    0,     830,   1523,  1681,  0,     -1415, 0,     0,     1269,  960,   0,
    -1636, 1363,  826,   0,     0,     -1382, -874,  818,   0,     -1735, -1205,
    -1793, -1323, 0,     0,     0,     -1318, 0,     0,     -659,  -728,  0,
    -1443, 0,     0,     -720,  -1482, 1263,  0,     1454,  0,     -797,  0,
    803,   1139,  0,     1415,  1477,  2443,  1706,  -864,  0,     0,     1859,
    2546,  0,     1586,  1370,  2228,  2066,  1199,  0,     1950,  1866,  2513,
    -858,  1754,  0,     0,     -775,  1258,  2337,  3049,  2922,  0,     0,
    1031,  0,     917,   2882,  2661,  1032,  0,     875,   2395,  0,     1385,
    0,     1527,  1748,  868,   0,     0,     -723,  1354,  1193,  0,     2890,
    1594,  1311,  1047,  2767,  2848,  2541,  0,     0,     2539,  2238,  0,
    2286,  0,     1563,  0,     2352,  1928,  -1132, 0,     0,     1851,  -1175,
    1418,  -724,  0,     709,   795,   1660,  924,   0,     1253,  1975,  919,
    0,     1195,  0,     1780,  0,     0,     860,   0,     -1251, 0,     1279,
    0,     -1189, 0,     993,   -874,  0,     1590,  1384,  908,   937,   0,
    739,   760,   -1148, 0,     0,     2163,  -813,  -1504, -750,  -1088, -1384,
    -886,  1369,  1337,  0,     -678,  -1331, 1948,  3104,  1823,  2935,  813,
    0,     0,     0,     0,     0,     1457,  2449,  2632,  2395,  2276,  1650,
    0,     0,     2316,  1652,  0,     0,     0,     896,   1993,  0,     -1012,
    954,   2828,  2262,  0,     0,     1786,  1517,  657,   0,     2836,  0,
    3180,  2645,  0,     1494,  0,     1424,  0,     921,   0,     2347,  2734,
    1497,  0,     -911,  2441,  2487,  2293,  0,     830,   0,     1743,  0,
    0,     0,     1926,  2013,  1899,  0,     0,     -1074, -1104, 1004,  1384,
    0,     -1155, -1556, 859,   1361,  1538,  2551,  2087,  1971,  0,     1922,
    837,   1466,  2747,  1997,  0,     1085,  2459,  0,     0,     2721,  2663,
    1011,  696,   1322,  1849,  1385,  2386,  0,     1504,  -1043, -1137, -1004,
    1012,  0,     0,     1288,  0,     0,     0,     0,     0,     0,     1429,
    0,     0,     -810,  1348,  1804,  0,     0,     1213,  910,   954,   -847,
    0,     0,     698,   0,     0,     -1334, -1378, 1059,  1671,  0,     1589,
    0,     -972,  1114,  -1217, 0,     1430,  1077,  0,     0,     0,     0,
    0,     849,   -799,  1910,  2409,  1313,  0,     1216,  0,     0,     0,
    2527,  0,     0,     0,     2516,  1313,  0,     0,     1408,  1306,  0,
    0,     873,   -798,  1016,  1554,  0,     0,     0,     0,     2343,  0,
    0,     1325,  2474,  2278,  962,   2394,  1867,  0,     0,     0,     1585,
    730,   -940,  0,     1503,  0,     0,     0,     1411,  899,   967,   0,
    2383,  975,   0,     0,     851,   2041,  0,     0,     1830,  1566,  786,
    0,     -723,  -1246, 0,     0,     801,   -786,  -1147, 1301,  0,     0,
    -922,  0,     1003,  1905,  1634,  -1155, -891,  1063,  1194,  937,   785,
    0,     975,   0,     0,     0,     1820,  1943,  -1157, 0,     -1562, 0,
    1250,  0,     -1188, 0,     1419,  767,   736,   0,     -671,  1164,  2194,
    860,   0,     2391,  2804,  2550,  1586,  1970,  0,     0,     2084,  912,
    2223,  0,     2573,  738,   0,     2209,  0,     0,     0,     0,     1542,
    -1512, 985,   0,     914,   2003,  -1060, 971,   1819,  976,   2077,  0,
    968,   0,     661,   0,     865,   2049,  1440,  -702,  0,     0,     0,
    0,     0,     2151,  0,     2309,  1633,  0,     1339,  2060,  0,     -691,
    0,     -811,  -718,  -684,  1502,  1913,  -959,  968,   0,     1707,  992,
    0,     1048,  0,     0,     2071,  1809,  0,     1652,  0,     2368,  0,
    1317,  0,     722,   773,   0,     0,     1391,  -659,  1461,  1371,  1660,
    1215,  2296,  0,     -868,  1138,  0,     0,     -1078, 1249,  -1649, -1406,
    0,     0,     -1134, 0,     -946,  0,     1379,  1411,  1344,  -900,  1583,
    1250,  0,     0,     828,   0,     -881,  -671,  0,     671,   0,     1585,
    0,     0,     0,     0,     1339,  0,     0,     0,     697,   0,     -882,
    938,   0,     1476,  -1482, 0,     810,   1811,  0,     1514,  -1768, 0,
    1751,  2590,  1817,  0,     946,   1281,  670,   1684,  0,     1868,  0,
    0,     0,     0,     0,     -683,  0,     1900,  -720,  0,     0,     0,
    1594,  0,     -2177, 0,     0,     2425,  0,     1635,  1769,  2393,  1135,
    0,     1892,  1334,  1248,  0,     0,     1916,  2828,  2516,  948,   2200,
    1809,  1053,  0,     0,     1003,  1299,  1674,  1677,  -1015, 1116,  0,
    1858,  992,   1030,  1661,  -719,  -1147, 0,     738,   0,     0,     1446,
    1354,  1583,  -1348, 1083,  1164,  -1388, 1370,  0,     767,   0,     1727,
    879,   -811,  -843,  770,   0,     0,     0,     750,   0,     1437,  1842,
    2170,  0,     0,     0,     0,     1999,  1195,  0,     1325,  0,     0,
    0,     0,     1252,  -1265, -1226, 1191,  1025,  -987,  -758,  0,     -1394,
    1003,  -751,  0,     -1520, 0,     0,     1392,  -1309, 0,     1343,  1390,
    0,     -1291, -1252, -1651, 0,     0,     0,     0,     0,     -1420, 1110,
    0,     -743,  0,     783,   0,     -1274, 0,     0,     -1424, -1133, 0,
    0,     0,     0,     0,     963,   -1370, 0,     -996,  0,     0,     0,
    0,     858,   -950,  663,   0,     671,   -837,  1224,  0,     1275,  0,
    0,     771,   0,     -721,  0,     1740,  1167,  811,   950,   -1493, -1142,
    0,     -855,  -669,  0,     1140,  0,     0,     0,     0,     1072,  1366,
    1551,  -832,  0,     799,   1831,  0,     0,     -692,  0,     0,     0,
    -734,  -938,  897,   969,   1207,  672,   800,   -751,  1405,  2102,  1652,
    -818,  0,     0,     1003,  1717,  974,   -950,  1069,  815,   0,     2023,
    1718,  1126,  0,     0,     0,     0,     -995,  0,     -795,  -773,  0,
    0,     0,     -1254, 1503,  1575,  0,     0,     0,     1156,  0,     0,
    1370,  0,     0,     1244,  0,     -1098, -1367, 0,     0,     1509,  2134,
    1756,  0,     -689,  1420,  0,     1156,  -702,  1302,  0,     1035,  728,
    -666,  2394,  877,   -742,  0,     0,     1418,  2440,  1762,  1955,  0,
    0,     1440,  1967,  -1208, 0,     1373,  0,     -1027, 0,     0,     1418,
    0,     1500,  -1680, 0,     -854,  -1335, 0,     -1811, -668,  997,   0,
    0,     0,     2325,  0,     0,     -948,  887,   0,     0,     1120,  863,
    -1801, 926,   0,     -953,  912,   -1267, 1964,  0,     1528,  -1734, -1978,
    0,     -1327, 1497,  0,     0,     2285,  2114,  0,     669,   0,     2049,
    1462,  1065,  -1366, 0,     2053,  1345,  -1237, -1229, -1496, 743,   0,
    0,     -677,  0,     1857,  -958,  -1647, -1314, 1087,  1102,  0,     0,
    -1128, 1479,  1032,  1412,  1209,  1424,  0,     811,   1574,  -879,  0,
    -1595, 876,   -1337, 0,     -962,  -1729, 829,   0,     -1281, 0,     0,
    1095,  1635,  0,     0,     -867,  705,   868,   0,     689,   1234,  0,
    -1022, 0,     0,     963,   2044,  1505,  0,     -1233, 0,     0,     746,
    0,     0,     872,   0,     0,     0,     -1968, -955,  0,     0,     -1948,
    0,     0,     -796,  -1051, -862,  1078,  -877,  968,   0,     1043,  -1417,
    0,     -1161, 0,     934,   -1818, 0,     775,   0,     837,   0,     0,
    0,     2323,  948,   0,     -1617, 0,     0,     -849,  816,   -1366, 1381,
    0,     -1081, 0,     -2345, 2259,  0,     1253,  1149,  0,     2007,  0,
    0,     0,     0,     0,     1454,  0,     0,     0,     902,   0,     855,
    674,   -1550, 0,     1164,  765,   1147,  0,     0,     1508,  879,   0,
    -1161, 0,     0,     2174,  0,     1676,  763,   0,     0,     0,     -1878,
    0,     2584,  1715,  0,     -1618, 2779,  2347,  1679,  -1793, 0,     1776,
    1568,  -676,  -1784, -768,  0,     0,     1503,  1227,  0,     -664,  0,
    1022,  1449,  -1234, 1723,  -657,  0,     0,     0,     0,     0,     1529,
    0,     1808,  997,   922,   1182,  0,     -1251, 1392,  924,   -1510, 0,
    0,     0,     1266,  -758,  1522,  0,     0,     -1320, 1370,  1300,  0,
    911,   1444,  0,     0,     -1687, 0,     -684,  827,   0,     0,     -658,
    0,     1793,  0,     0,     0,     0,     0,     0,     -984,  2186,  0,
    0,     -1679, 734,   0,     0,     948,   -1270, -1222, 0,     -1462, -1114,
    1165,  0,     2133,  984,   0,     0,     0,     1338,  1230,  973,   702,
    0,     1546,  0,     -874,  888,   -1575, 1816,  0,     0,     0,     0,
    0,     0,     -1383, 1425,  831,   1824,  1949,  1909,  -1484, 817,   680,
    1316,  0,     -1852, 0,     672,   -755,  -1011, -1789, -1661, 1414,  0,
    -1507, 0,     -706,  -1178, 1556,  -869,  0,     0,     1372,  0,     1711,
    0,     0,     967,   1916,  0,     0,     0,     930,   1367,  -770,  825,
    -1491, 0,     1177,  0,     896,   0,     939,   881,   0,     1059,  849,
    0,     0,     0,     1789,  1476,  1360,  0,     0,     0,     -1158, 2345,
    893,   0,     0,     -782,  2347,  1811,  -1244, -1263, 0,     -822,  1597,
    -1601, -1472, 679,   -888,  833,   0,     1392,  0,     -664,  0,     1063,
    0,     1111,  -1522, 1203,  1078,  0,     0,     -911,  1169,  1384,  0,
    0,     0,     -1559, -1239, 0,     0,     -1356, 1365,  -843,  -795,  1360,
    909,   0,     0,     1131,  -1658, -1518, -982,  0,     0,     -868,  0,
    0,     1216,  -1207, -1351, 980,   -867,  -1785, -1059, 0,     -695,  -715,
    0,     0,     -1516, 1191,  0,     868,   -1266, -1431, 0,     -1731, -1285,
    0,     0,     -702,  -968,  0,     0,     -979,  -1016, 0,     1127,  -1116,
    665,   -1586, 1351,  0,     -1501, 0,     1033,  -1525, 0,     0,     -910,
    1175,  -1241, -961,  0,     -1010, -956,  723,   0,     -1474, 849,   780,
    -1289, 0,     0,     -1097, 0,     -798,  -1704, -1134, -853,  -700,  0,
    0,     0,     795,   742,   671,   1008,  900,   -1816, 0,     -1739, -1473,
    1435,  -1736, 0,     -1558, 0,     -678,  -867,  -1706, -738,  -1540, 995,
    1257,  0,     1226,  -1322, -912,  0,     -1163, 1069,  0,     725,   698,
    1053,  -1786, -1102, 0,     0,     -1094, -1395, 0,     0,     0,     0,
    943,   1394,  0,     -702,  0,     0,     -1068, 1259,  0,     -1441, -843,
    0,     1378,  -751,  1182,  703,   -692,  1280,  -1381, 0,     -1794, 0,
    1004,  -758,  0,     -1010, -1009, -1424, 0,     -1227, -1620, 812,   -746,
    0,     0,     0,     0,     0,     1194,  0,     -1058, -1778, 0,     -985,
    0,     0,     -1047, 0,     842,   944,   971,   0,     850,   0,     0,
    1111,  0,     -953,  0,     1552,  0,     0,     0,     0,     0,     0,
    0,     0,     -862,  0,     0,     -763,  0,     806,   0,     0,     -829,
    1068,  0,     -1312, 1375,  670,   1776,  -1140, 0,     -805,  0,     0,
    0,     886,   1029,  -1712, 771,   0,     797,   0,     0,     0,     0,
    -1243, 0,     1490,  -934,  -1016, 1207,  1322,  1015,  0,     0,     0,
    0,     0,     0,     0,     -1199, 0,     -913,  1237,  -1221, 0,     0,
    969,   0,     1216,  0,     0,     0,     -1809, -1502, 0,     0,     1354,
    -1121, 0,     -1289, -1027, 0,     943,   0,     0,     818,   0,     -1569,
    -1248, 0,     890,   -1541, 0,     0,     -758,  -1686, 0,     -879,  -674,
    1303,  1091,  859,   0,     0,     0,     -1821, 0,     0,     0,     0,
    1210,  0,     910,   0,     1067,  -1203, 0,     -1632, -1798, 0,     -1104,
    1035,  -912,  1328,  0,     -1448, 0,     -772,  0,     0,     -688,  1253,
    -770,  -1347, 1425,  978,   -776,  -879,  1355,  0,     0,     958,   0,
    908,   0,     -1383, 1117,  805,   0,     -1475, -1598, 1028,  1069,  1083,
    -1172, 0,     0,     0,     -1006, 0,     0,     -1223, 1373,  1145,  781,
    0,     0,     -789,  -758,  0,     0,     0,     1332,  1075,  0,     0,
    0,     -1285, 0,     0,     -1830, -1053, -1801, 0,     -1376, -1747, 1092,
    1262,  -1620, 0,     1060,  -1041, -1019, 0};
#endif
