#ifndef CONV_1_WEIGHT
#define CONV_1_WEIGHT
#include "cam_mlkernels.h"
__ro_fram int16_t conv_1_weight[8][1][5][5] = {
    -998,  0,     -5397, 1851,  -1283, 6580,  -2092, 0,     2016,  -3581, -4104,
    -2656, -4208, 4848,  2338,  2476,  6469,  -684,  -5272, -5586, 4564,  -914,
    -5529, -4540, 4301,  -2138, 2445,  0,     -2680, -3492, 5520,  933,   2968,
    6070,  -5645, -2863, 1285,  0,     5680,  1365,  3734,  4783,  -1084, -3685,
    2001,  -5543, 1461,  -2566, -5557, 1233,  4636,  1882,  6051,  0,     -4765,
    -1948, 0,     6145,  5960,  3343,  -6610, 3293,  0,     -5584, 6174,  4430,
    -4094, -5096, 1983,  2144,  -2379, -710,  -1194, 5370,  -1945, -4268, -2356,
    6156,  2324,  -5342, 2167,  -5203, -5949, 4345,  0,     0,     7003,  1191,
    5289,  898,   -4198, -880,  -1568, -4229, -5477, 3539,  -5724, 5808,  2820,
    1867,  -4494, -695,  5280,  1833,  4992,  824,   -2023, 3312,  2333,  -5868,
    4492,  973,   -2922, -2764, -3375, -2007, -6218, -1908, -4647, 0,     0,
    0,     1105,  1826,  6169,  -6148, -1975, 2266,  2990,  -6217, 886,   6681,
    3293,  -3436, -6052, 0,     -1219, -973,  -3603, 6420,  -2864, 4384,  -1771,
    -3305, -3056, 2128,  5324,  -3131, 2171,  5201,  -6339, 1294,  2168,  -2325,
    6148,  1412,  -1974, 5750,  6938,  -3340, -1683, -898,  -4832, -5718, 2275,
    6259,  -1225, 1822,  0,     3817,  -5161, 2006,  0,     -4473, -2501, 1784,
    0,     3820,  5726,  2770,  6132,  1931,  2877,  956,   -5281, -2069, 0,
    4168,  3264,  5154,  0,     3349,  -6289, 0,     5959,  1246,  1064,  -7242,
    -5905, -6198};
#endif
