#ifndef CONV_4_WEIGHT
#define CONV_4_WEIGHT
#include "cam_mlkernels.h"
__ro_fram int16_t conv_4_weight[16][8][5][5] = {
    1054,  0,     -1575, 1902,  -966,  1008,  1415,  -2127, -873,  1916,  -2603,
    0,     673,   -1597, -2576, -2335, 0,     -2845, 0,     0,     -2872, -3911,
    -1321, -3885, 0,     -726,  1138,  -871,  1745,  3499,  0,     2168,  2984,
    3449,  2615,  1919,  0,     2187,  -1259, 0,     0,     1511,  1013,  3223,
    0,     1775,  2624,  1166,  3264,  0,     1079,  1049,  -971,  0,     977,
    -2640, -1380, 1454,  -2300, 0,     856,   -1916, -2122, 1680,  -979,  1356,
    0,     1654,  0,     1954,  -757,  723,   0,     0,     -1505, 0,     3010,
    3331,  0,     1712,  1745,  2104,  0,     2994,  2841,  -822,  1522,  2564,
    791,   0,     1787,  1499,  0,     -828,  1934,  3253,  2068,  658,   -773,
    0,     3362,  2421,  0,     0,     0,     0,     1660,  2923,  -1189, -990,
    0,     0,     0,     0,     0,     1705,  2671,  1276,  1229,  1720,  1686,
    3070,  1136,  0,     1426,  0,     2718,  2189,  2830,  2648,  920,   2043,
    1968,  -1230, -1352, -1033, 0,     1948,  2568,  847,   0,     3122,  0,
    -1868, 994,   0,     2023,  -1633, -947,  1336,  0,     0,     3426,  1578,
    0,     666,   2056,  1210,  2157,  0,     1688,  831,   2533,  0,     0,
    3719,  2720,  0,     0,     2460,  3380,  2165,  2113,  -1192, -684,  0,
    0,     0,     977,   1665,  0,     0,     1713,  0,     -2144, -1045, 0,
    0,     1939,  0,     1630,  -862,  1199,  0,     -1801, 0,     0,     0,
    -2219, -2312, -2627, 0,     1246,  -928,  -1598, -3277, -2484, -1692, -1803,
    2314,  904,   -2792, -1319, 1652,  -1080, 812,   0,     0,     -3467, -973,
    -1103, 1303,  0,     0,     0,     -714,  -954,  873,   -712,  1611,  0,
    658,   1581,  996,   -855,  2090,  -667,  0,     1270,  1294,  1984,  -973,
    0,     0,     0,     2393,  3052,  3005,  2061,  0,     -1341, -2502, -2176,
    1011,  0,     1986,  0,     1805,  -1378, 0,     0,     0,     -2409, -1892,
    0,     -1361, -1399, 0,     0,     721,   1256,  985,   -1195, 1110,  -675,
    1026,  1704,  2180,  2021,  3273,  2771,  0,     -711,  -1666, 848,   3263,
    -956,  1607,  1874,  0,     1736,  0,     0,     0,     -768,  1611,  0,
    0,     -1542, 1145,  2933,  0,     2842,  3571,  -1208, -756,  1046,  0,
    0,     2136,  0,     1357,  0,     1394,  1936,  0,     -863,  0,     1458,
    2259,  3314,  1147,  2546,  1520,  1796,  1883,  1961,  0,     1188,  1171,
    0,     0,     -1177, -1458, 1684,  0,     -1305, -748,  0,     -1083, 1724,
    0,     0,     -1086, 0,     0,     0,     2489,  -1094, 0,     0,     2212,
    2091,  1312,  1503,  2385,  672,   -968,  0,     -1001, 1453,  0,     2213,
    1102,  2196,  3252,  1082,  932,   0,     989,   1203,  1113,  -786,  0,
    0,     -1472, -2717, -2220, -1380, 2238,  0,     0,     -766,  -1432, 2273,
    1896,  2005,  -988,  -2060, 917,   -1824, 1863,  -1307, 2110,  1786,  2192,
    1118,  0,     0,     -754,  -1499, -945,  0,     0,     0,     -1872, 854,
    -677,  0,     -935,  -2399, -1609, -1032, -1851, -1391, 0,     1321,  -1871,
    0,     0,     0,     -1603, -903,  0,     0,     2299,  2567,  0,     -868,
    1214,  -1326, -1224, 0,     798,   -739,  1520,  -1112, 2921,  1857,  1774,
    2516,  2994,  0,     3346,  2148,  2637,  -717,  0,     -967,  0,     -660,
    1624,  0,     0,     1405,  0,     -1602, -708,  0,     -2511, 0,     -2403,
    1218,  0,     0,     1947,  1944,  0,     0,     0,     0,     1504,  -2290,
    -2515, 0,     -1433, 1807,  2112,  0,     826,   1570,  1923,  3051,  2175,
    1195,  2075,  -1223, 2624,  3065,  0,     0,     0,     1597,  2967,  -1291,
    -1000, 0,     694,   1024,  0,     -991,  1672,  2268,  0,     0,     2216,
    1268,  0,     2202,  2896,  0,     1784,  1390,  1485,  0,     2157,  -843,
    2145,  2438,  0,     2943,  0,     1954,  1649,  0,     1158,  -911,  0,
    -1081, 0,     -1236, 0,     2591,  0,     0,     0,     1050,  1152,  -976,
    0,     2752,  1243,  2045,  -1356, 995,   2939,  2082,  0,     1953,  0,
    1753,  3253,  -1341, 3105,  -962,  3267,  0,     2748,  812,   2958,  1791,
    1580,  957,   2471,  1074,  -938,  1946,  0,     0,     0,     0,     2767,
    3415,  2043,  2713,  -2552, 903,   -1473, 0,     -881,  0,     1188,  -1914,
    -1217, -2138, -2058, 0,     -1430, 0,     -685,  0,     1580,  1679,  2318,
    0,     0,     0,     0,     776,   887,   0,     1190,  0,     0,     0,
    0,     -2241, -3117, 0,     1859,  -1977, 0,     -2047, -1477, 795,   0,
    1127,  0,     0,     -1432, -2771, 0,     -1659, -1506, 0,     3025,  3050,
    2591,  2338,  1727,  0,     0,     1492,  0,     1098,  1498,  661,   0,
    1756,  2308,  1384,  835,   3470,  1954,  0,     0,     1972,  843,   3039,
    0,     1503,  1695,  0,     -957,  2532,  0,     1904,  -1896, 0,     0,
    0,     0,     1398,  0,     0,     1900,  0,     2106,  -2018, 2272,  1580,
    2171,  1405,  -2256, 2280,  2684,  3728,  3303,  2994,  0,     2439,  1148,
    1243,  0,     680,   754,   0,     0,     1533,  1880,  3730,  1313,  2246,
    2673,  0,     1089,  0,     0,     1256,  2382,  1560,  -695,  1179,  3684,
    1706,  0,     1719,  2944,  2431,  -1124, 1894,  0,     0,     -721,  0,
    0,     0,     0,     2000,  1361,  1800,  871,   3783,  3127,  1239,  1581,
    0,     0,     -942,  766,   885,   2641,  -889,  1790,  2582,  -919,  2028,
    0,     3210,  3209,  1626,  816,   691,   -919,  738,   0,     -1824, -1416,
    1020,  1899,  1098,  3650,  3317,  1976,  2371,  0,     3340,  3838,  0,
    1835,  3729,  0,     0,     2762,  0,     0,     0,     1042,  1641,  0,
    2910,  2919,  1075,  0,     2102,  -1573, 0,     -1812, 0,     0,     0,
    -1780, -1179, 1774,  0,     2384,  1216,  0,     781,   0,     -1757, 0,
    0,     2368,  -1236, 0,     1934,  2420,  1175,  0,     -2791, 0,     -1053,
    0,     0,     -1323, 1979,  954,   -1247, -1345, 891,   2671,  -675,  -1082,
    0,     -2217, -1396, 1640,  2142,  0,     -1680, 0,     -3251, 0,     732,
    -1163, 2189,  2762,  2610,  1371,  2521,  2467,  0,     2499,  2335,  0,
    2932,  3261,  0,     0,     0,     0,     1296,  1258,  1171,  1285,  2413,
    3172,  1535,  2340,  -1517, 0,     0,     2157,  -1158, 0,     0,     1697,
    -1616, 1651,  2084,  0,     0,     0,     -1416, 0,     2003,  1916,  -1027,
    0,     1470,  1130,  2316,  -1483, 794,   2856,  719,   2085,  1442,  0,
    0,     3393,  1246,  2138,  1774,  0,     3275,  -818,  2248,  2024,  0,
    3557,  3131,  -952,  0,     902,   0,     2660,  2561,  -993,  0,     0,
    3275,  1180,  0,     2939,  -1038, 0,     0,     -1062, 0,     2645,  2544,
    2621,  1161,  4010,  -818,  0,     696,   2755,  3187,  1586,  0,     1655,
    0,     1964,  3176,  0,     1820,  962,   675,   3356,  1412,  0,     1836,
    -1043, -771,  0,     1395,  0,     3445,  3141,  -1007, 0,     -772,  2017,
    0,     2487,  -855,  1433,  0,     0,     2487,  3034,  2523,  0,     3512,
    0,     878,   1801,  2471,  2642,  2270,  0,     0,     1117,  1670,  0,
    3516,  0,     0,     1655,  0,     0,     2671,  746,   0,     -2324, -1037,
    -1963, -1785, 0,     2330,  -892,  -937,  -1593, -1044, 2198,  0,     2315,
    -842,  -938,  0,     0,     0,     0,     0,     0,     1337,  0,     1313,
    -1850, -758,  0,     0,     -1565, 0,     -1771, 2578,  0,     -1615, -3110,
    -1315, -1731, -1276, -3270, -1051, -1448, 740,   0,     -3502, 1344,  0,
    -1977, 928,   0,     1935,  1465,  2391,  3011,  3313,  2212,  0,     1710,
    0,     3086,  1845,  1967,  -726,  957,   1402,  0,     3147,  1095,  0,
    1775,  2486,  2929,  -699,  1202,  1593,  -1561, 0,     0,     755,   0,
    0,     0,     0,     0,     -1090, 0,     0,     -2239, 1703,  0,     -753,
    1948,  0,     0,     -1093, -1530, 0,     1812,  824,   -1304, 2674,  0,
    0,     2297,  1950,  0,     0,     -662,  -939,  -737,  2277,  2962,  0,
    1182,  0,     0,     -790,  1144,  1946,  2203,  2287,  1465,  2261,  0,
    -1151, 1729,  1531,  1168,  0,     1077,  2944,  0,     1189,  1625,  2657,
    0,     1662,  0,     2610,  0,     1475,  3289,  0,     2725,  -1230, 1200,
    1986,  -907,  0,     2285,  827,   2587,  2511,  0,     1254,  0,     -684,
    2820,  0,     985,   -1298, 1982,  -857,  1600,  2335,  0,     3080,  0,
    0,     2822,  2091,  3092,  1575,  0,     3211,  894,   0,     745,   0,
    1155,  1731,  3446,  -685,  0,     970,   0,     0,     2592,  0,     2436,
    2530,  0,     0,     2632,  0,     663,   0,     1509,  2745,  947,   2106,
    -2438, -1772, -1054, 0,     0,     -1726, 714,   -834,  -1061, 0,     1232,
    2328,  -892,  -1879, 0,     -1188, 791,   0,     0,     1063,  -663,  1384,
    1991,  -2426, 820,   -1468, 0,     -1326, -2079, 1297,  0,     -1645, -1343,
    1636,  -2194, 0,     -1928, 1031,  0,     -2028, 2735,  0,     0,     -2555,
    698,   -3317, 0,     1298,  2375,  1063,  0,     0,     0,     -855,  2345,
    3492,  -967,  2041,  1166,  2644,  0,     2571,  1909,  3057,  2761,  1656,
    2963,  1829,  2968,  -883,  2467,  0,     0,     -2109, 1399,  1444,  770,
    0,     1051,  -772,  0,     0,     0,     -1719, 2271,  -1515, -2129, -1638,
    1746,  -1587, -2260, -1186, -897,  664,   -1949, 2078,  0,     0,     2743,
    1460,  0,     -691,  0,     1646,  0,     0,     1653,  2505,  0,     -999,
    1593,  0,     724,   1263,  -811,  0,     -886,  2365,  2993,  1279,  -1319,
    1035,  0,     0,     662,   1964,  2537,  2651,  2643,  3414,  -830,  0,
    0,     3546,  2952,  2322,  2971,  2322,  3540,  0,     2253,  0,     1870,
    2240,  2005,  1322,  0,     2223,  1562,  2759,  0,     1110,  2462,  0,
    0,     0,     -1071, 2750,  -1070, 2444,  0,     1581,  1076,  3230,  3099,
    0,     0,     0,     0,     1273,  881,   0,     2602,  2098,  0,     0,
    2967,  672,   2153,  2822,  0,     0,     2624,  0,     1349,  3257,  3432,
    3179,  3195,  0,     -948,  2757,  1010,  -852,  1144,  2415,  958,   2220,
    0,     1816,  981,   -736,  1305,  1240,  1196,  1975,  879,   0,     -1314,
    931,   0,     1292,  1282,  -1413, 1886,  0,     -1019, -1034, 827,   1196,
    -1733, 0,     -1858, -689,  998,   -1410, 1458,  1157,  0,     -2019, -2570,
    667,   0,     0,     -2261, 0,     0,     -2541, 1307,  -2235, -3084, -1362,
    0,     -3764, 1003,  0,     687,   0,     0,     745,   1534,  1314,  698,
    -671,  2974,  2532,  0,     0,     -760,  816,   713,   1973,  2504,  0,
    -1076, 0,     1435,  3998,  3484,  0,     0,     3390,  0,     1528,  -1723,
    -1012, -1860, -1611, 857,   1383,  -1252, -1337, -1354, -1454, 2066,  0,
    1829,  798,   -1995, -751,  -726,  -836,  -1707, 1733,  1353,  1159,  712,
    0,     0,     0,     2254,  810,   1058,  0,     2297,  -792,  1190,  1418,
    0,     3834,  0,     2991,  2277,  3347,  734,   1315,  0,     -974,  0,
    2643,  1174,  0,     898,   1963,  1541,  2109,  0,     2749,  2579,  3204,
    2838,  1716,  0,     3121,  1446,  2546,  0,     1770,  3430,  1963,  2496,
    2485,  3421,  1951,  3168,  0,     1401,  0,     782,   3530,  3493,  0,
    3666,  0,     1701,  2743,  2051,  0,     3307,  1470,  3065,  1188,  0,
    -736,  0,     3236,  0,     0,     983,   2149,  0,     1192,  1647,  0,
    -975,  3192,  0,     1044,  1263,  3961,  2184,  1348,  1475,  3586,  3780,
    2036,  0,     1898,  0,     0,     1507,  717,   3353,  0,     0,     0,
    0,     3559,  2055,  1711,  1457,  1531,  -1522, 0,     -1122, -1089, 2294,
    1236,  -967,  1753,  0,     1965,  2385,  0,     0,     -791,  2302,  1369,
    0,     1320,  2299,  2104,  2402,  -964,  -1487, 0,     -772,  1733,  -927,
    984,   -3378, 2118,  0,     -1770, -903,  0,     -1130, -2502, 0,     -3284,
    -2133, 1223,  -1433, -1833, 0,     -747,  -949,  0,     2035,  2981,  3709,
    772,   3173,  0,     -778,  1462,  0,     0,     0,     0,     0,     0,
    2353,  0,     804,   2952,  1171,  2242,  0,     3077,  2567,  0,     2232,
    0,     839,   1816,  -1467, 0,     2305,  1747,  -1202, -1818, 2235,  0,
    1509,  -1598, 1711,  -2079, 896,   -1644, -884,  0,     -1582, -1141, 0,
    0,     0,     0,     -783,  1132,  2391,  1761,  -1239, 890,   2072,  2897,
    0,     2751,  2903,  1612,  0,     0,     1462,  2177,  1726,  2900,  -1079,
    2963,  2091,  -689,  0,     2411,  1673,  790,   0,     3687,  2593,  -803,
    -706,  3178,  3249,  2781,  1902,  2101,  1254,  3141,  0,     0,     3079,
    1953,  2437,  3356,  2760,  3638,  1403,  2438,  3690,  -782,  2078,  -1150,
    1080,  0,     0,     880,   1458,  1759,  -1159, 0,     0,     -1382, -1460,
    0,     -1709, 2519,  1764,  2949,  1274,  882,   0,     -929,  700,   0,
    0,     824,   1693,  3076,  0,     0,     2181,  1918,  3227,  -714,  -806,
    2728,  0,     0,     768,   1545,  0,     0,     -829,  0,     3185,  839,
    3429,  0,     697,   1357,  1848,  2188,  0,     -1623, -2116, -1518, 0,
    1285,  873,   -1290, 0,     821,   1708,  -1967, 0,     762,   -1687, -959,
    -2046, 1714,  0,     1872,  -2193, 0,     0,     2006,  0,     0,     0,
    1548,  2122,  1049,  -868,  0,     0,     0,     -807,  0,     1835,  -1338,
    1288,  0,     1769,  -1690, 0,     1390,  0,     2342,  -759,  -1226, 0,
    0,     0,     1816,  -959,  0,     910,   -1410, 1188,  0,     -1897, 0,
    -1335, 1090,  -1664, 0,     1025,  1432,  1605,  0,     0,     1131,  1839,
    -1189, 1544,  1197,  -2512, 0,     962,   -1075, 0,     -2303, 1590,  1063,
    -1232, -2564, 0,     1192,  0,     -2057, -995,  0,     -1932, -1183, -731,
    2028,  0,     -2224, -1774, 1119,  -1825, -1201, -1963, 817,   -1325, 0,
    2036,  -2204, 2034,  1095,  -757,  0,     2221,  0,     1386,  0,     -1464,
    0,     1449,  0,     -2028, 1261,  -1015, -1132, -1271, 1596,  -827,  -1056,
    0,     1180,  0,     -1311, 1709,  1813,  1658,  0,     -1193, -873,  -1922,
    948,   1272,  -701,  0,     0,     -1726, 1313,  -1669, 0,     1750,  0,
    1079,  0,     960,   -1100, 0,     0,     0,     -778,  1955,  0,     891,
    0,     -1477, -2115, 0,     0,     1151,  -1614, -999,  0,     -1416, -862,
    0,     828,   -2090, 868,   -2199, -1367, -2468, -1214, -1157, -1701, -2249,
    -1990, 0,     1564,  -688,  0,     -2498, 1472,  -856,  -1534, -980,  1746,
    -1524, 861,   -2161, 1846,  924,   -1807, 0,     -1899, 0,     795,   898,
    1104,  -2229, 0,     -798,  2020,  -1755, -1867, 1938,  -1925, -1584, 1476,
    -2007, 0,     -1845, 0,     -1858, 2028,  -880,  -1906, 1289,  826,   0,
    -867,  946,   -726,  718,   0,     -1360, 0,     0,     -1482, 0,     -2270,
    1914,  -2168, -1116, -869,  2071,  666,   -740,  0,     2202,  2082,  1131,
    -863,  -1898, 903,   -824,  0,     0,     2124,  -776,  -705,  1869,  1454,
    0,     982,   720,   0,     1595,  0,     0,     0,     -2163, -1347, -1225,
    0,     0,     0,     -2075, -990,  -2208, -672,  0,     0,     953,   -1679,
    -2082, 0,     1553,  0,     -1003, 0,     995,   783,   -2458, -1450, 0,
    0,     -1046, -1427, 1387,  0,     -1348, 1551,  0,     -1792, 0,     1667,
    1028,  -2031, -1755, 1465,  -1155, -1080, -1551, -1713, 1795,  0,     0,
    -2172, -942,  -888,  1038,  0,     -1030, -1588, -2108, -874,  0,     0,
    0,     -1539, 2152,  -2099, -2192, 2134,  -2199, 0,     1030,  1912,  -737,
    -872,  -1631, 1504,  764,   1933,  -2302, 1504,  0,     0,     1639,  -1645,
    -810,  1143,  1943,  2121,  -789,  1844,  0,     -1013, 0,     -1669, 1450,
    2016,  1459,  945,   0,     0,     0,     -1651, -1048, 1344,  0,     0,
    -1143, -1605, -1156, 1623,  -1263, -844,  -2194, 911,   -1847, -1300, 0,
    -2033, 744,   0,     2140,  0,     848,   0,     -1445, 1122,  0,     0,
    1651,  -735,  2120,  1944,  -804,  1033,  0,     0,     0,     0,     2053,
    -2089, -1047, -1052, -2107, 0,     0,     -773,  -2157, 0,     1628,  -2506,
    -1588, 955,   839,   1766,  -1895, 845,   -804,  0,     0,     -1194, -2407,
    942,   1980,  0,     2522,  -1367, 0,     0,     -3651, -1329, 1514,  -2625,
    -2315, -2685, 2675,  -3267, -2894, -2492, -2674, 0,     0,     -2186, 0,
    908,   -2134, -3278, 1090,  3111,  3110,  0,     0,     2106,  1503,  2678,
    0,     1166,  -1087, 0,     658,   1046,  3743,  3000,  3529,  0,     0,
    3263,  1601,  2076,  2338,  0,     3073,  -1033, 1000,  -2302, 791,   0,
    1824,  1676,  -2212, -1212, 0,     -2377, 1578,  -2286, 1131,  -676,  1222,
    0,     -1236, 1437,  1966,  -1585, 0,     1740,  1164,  -1704, -1516, 1958,
    2707,  -1136, 1486,  2119,  2499,  -737,  0,     2024,  0,     3680,  1976,
    1486,  -1310, 1207,  2249,  701,   1818,  1437,  2157,  0,     0,     1322,
    3427,  0,     0,     1897,  2937,  3190,  0,     921,   0,     -1197, 0,
    672,   0,     1329,  3331,  0,     2347,  0,     2654,  1699,  3191,  1386,
    1898,  0,     1798,  0,     0,     1545,  2887,  0,     0,     1812,  3137,
    1826,  1242,  0,     2165,  2869,  0,     -701,  1586,  825,   1342,  1488,
    1647,  2607,  0,     0,     1626,  0,     938,   -682,  0,     0,     -910,
    0,     0,     1562,  2447,  -805,  0,     2137,  3351,  1115,  0,     1461,
    3644,  3461,  3335,  1854,  3076,  0,     0,     2228,  -901,  2735,  -1408,
    -2249, 1865,  -1983, -1541, 1750,  -2397, 0,     778,   1662,  -685,  0,
    1163,  965,   1072,  0,     0,     1631,  1613,  815,   -2240, -837,  1371,
    1441,  -865,  -1705, 0,     0,     -1356, 1944,  1442,  -2042, 0,     0,
    -2472, -816,  1047,  -1583, -1978, 1436,  -2029, 0,     -2810, 1350,  1036,
    0,     -994,  0,     0,     -2656, 2857,  0,     0,     3718,  3574,  1913,
    3088,  0,     1883,  660,   0,     1833,  3265,  0,     836,   0,     3677,
    3170,  3022,  1698,  0,     0,     3038,  3457,  0,     0,     0,     2027,
    1838,  0,     -1251, 1601,  -1770, 1163,  1091,  2013,  0,     0,     -993,
    754,   1594,  -1608, 0,     1769,  -1101, -1984, 1134,  1911,  0,     -1156,
    3572,  2416,  785,   0,     2901,  0,     2720,  2337,  0,     0,     0,
    -1210, 1434,  2861,  3149,  2458,  2409,  1211,  0,     0,     1707,  0,
    3428,  -1127, -1212, 3671,  3584,  1473,  0,     2464,  0,     1848,  1739,
    2983,  -819,  0,     2162,  -744,  1243,  3494,  -669,  -808,  0,     1188,
    3029,  1292,  0,     3064,  1113,  2363,  3130,  1454,  786,   -1007, -1320,
    -869,  3425,  1248,  832,   1128,  2943,  3016,  0,     1061,  2005,  981,
    0,     939,   1676,  2360,  0,     -1690, 1251,  1817,  2161,  1442,  2708,
    2259,  0,     0,     0,     3138,  1272,  3206,  1646,  1321,  0,     2175,
    765,   0,     0,     3074,  0,     0,     1659,  0,     1133,  3654,  2113,
    1923,  -2630, -1693, 2121,  -1016, -2327, -1049, 0,     950,   0,     669,
    1437,  1773,  0,     895,   -934,  0,     0,     1098,  -1906, 0,     -2133,
    884,   -1304, 1796,  -1348, 0,     1454,  0,     773,   0,     0,     -1198,
    0,     1074,  2816,  0,     -1121, -1187, -756,  2317,  -1449, -1305, -2705,
    2381,  -1743, 745,   0,     -2434, 0,     -1041, 2295,  2545,  1390,  -720,
    2439,  0,     2031,  0,     0,     0,     -948,  917,   2909,  1316,  -659,
    -759,  1553,  3535,  3364,  2263,  3641,  2293,  2851,  2938,  -658,  -932,
    -1113, 0,     -2094, 0,     667,   0,     0,     2260,  0,     -1393, -2173,
    1565,  -2202, 0,     -2164, 2084,  2334,  -1819, 844,   0,     0,     1568,
    1626,  924,   2101,  2994,  2348,  0,     0,     1336,  2296,  0,     2556,
    2424,  3074,  -941,  0,     2659,  2380,  749,   0,     -1036, 948,   1978,
    1894,  2722,  933,   2257,  1623,  896,   3372,  1837,  1930,  0,     1370,
    0,     756,   752,   2656,  730,   0,     0,     1424,  1665,  1301,  3551,
    2260,  -657,  0,     3772,  1575,  3173,  0,     1233,  2623,  1267,  0,
    -657,  738,   3209,  -1040, 1764,  1777,  -1413, 1290,  -845,  0,     0,
    2762,  2099,  915,   2595,  1160,  0,     2599,  2172,  0,     0,     2705,
    1773,  -1015, 2821,  938,   -963,  2726,  0,     997,   1923,  0,     3219,
    2355,  3398,  0,     2117,  0,     1005,  767,   3284,  1226,  2089,  0,
    0,     3592,  0,     0,     -1600, -1016, -1928, -2263, -1697, 0,     1753,
    1493,  866,   0,     1509,  0,     -666,  1290,  1960,  1293,  -1125, 941,
    -2288, 2296,  -933,  2216,  0,     0,     0,     1217,  0,     -1071, 1826,
    0,     -890,  1509,  2451,  1637,  0,     -1136, -804,  -1339, -1485, -2063,
    0,     0,     -2670, 0,     0,     -2076, -2948, 0,     -2084, 0,     1314,
    0,     1985,  1043,  1139,  0,     2706,  2914,  0,     0,     3241,  0,
    785,   0,     1012,  -1047, 0,     1516,  0,     -672,  1020,  677,   2353,
    1092,  665,   0,     -1265, 717,   1624,  0,     2530,  -1202, 0,     2593,
    0,     0,     0,     0,     1104,  683,   0,     0,     0,     2507,  1136,
    1420,  -1887, 972,   -1423, 0,     0,     728,   3005,  2042,  0,     0,
    0,     2938,  1066,  1032,  0,     -763,  1428,  1686,  2050,  2255,  0,
    0,     -1860, 0,     0,     -1808, 1509,  1153,  0,     0,     3335,  1222,
    0,     787,   0,     866,   2377,  -1270, 2713,  0,     2218,  1458,  1676,
    3338,  0,     2683,  0,     2658,  660,   0,     0,     0,     1601,  995,
    0,     2066,  -792,  920,   0,     716,   1323,  2971,  0,     2336,  0,
    0,     0,     675,   1038,  0,     -2261, 1279,  -1994, 1254,  1696,  -2241,
    708,   -952,  2602,  1876,  3168,  3244,  3183,  2190,  1628,  0,     2295,
    2251,  1763,  3994,  4013,  2300,  803,   2742,  2055,  2175,  2009,  2403,
    0,     -989,  2500,  0,     2897,  1728,  2241,  -743,  0,     -940,  1417,
    814,   0,     2423,  -1696, 2597,  2278,  2560,  -769,  1632,  1687,  0,
    765,   0,     1580,  -1598, 0,     1597,  0,     -1093, 1917,  -1225, 0,
    -1394, -2041, -1143, 1543,  0,     -2597, 0,     1260,  1934,  -1586, -2103,
    922,   0,     0,     1647,  -2932, 0,     -1331, -2059, -3559, -2393, -819,
    0,     1331,  3265,  3087,  -879,  2544,  1686,  1239,  1779,  0,     -854,
    2585,  1440,  0,     0,     702,   1970,  2453,  1843,  -799,  2270,  0,
    3160,  0,     1905,  715,   1421,  1469,  0,     0,     0,     -888,  0,
    1656,  -1832, 2136,  1444,  0,     -1352, -668,  -1097, 0,     2077,  -1261,
    1551,  1861,  0,     -2341, 0,     -2645, 1978,  1132,  0,     670,   3054,
    3368,  3314,  1328,  2397,  1237,  -1274, 0,     -1166, 2729,  0,     2550,
    1742,  0,     1375,  2742,  0,     0,     702,   763,   2117,  0,     2455,
    0,     2442,  3181,  943,   2870,  0,     804,   2581,  0,     1316,  2130,
    874,   1420,  2282,  -772,  1195,  2805,  0,     -705,  1310,  2749,  2202,
    677,   3441,  1620,  -1195, -808,  2785,  1358,  0,     783,   -1117, 979,
    0,     1477,  1396,  2663,  0,     1684,  2189,  3264,  -1081, 1351,  2051,
    2322,  -1559, -1279, -1109, 0,     0,     2251,  0,     1047,  1742,  0,
    1089,  0,     1983,  1428,  3013,  1916,  1347,  0,     -789,  3203,  3452,
    -1587, 2859,  0,     3533,  2196,  1115,  1998,  -1580, 1362,  0,     877,
    2457,  0,     -1036, 2052,  1962,  1104,  0,     -1849, -1902, 1255,  0,
    1655,  1465,  -2045, -1844, -829,  1007,  0,     -1977, 0,     -1556};
#endif
