#ifndef FC_2_WEIGHT
#define FC_2_WEIGHT
#include "cam_mlkernels.h"
__ro_hifram int16_t fc_2_weight[2][64] = {
    844,   3672,  708,   -3115, -4464, 839,   -2986, 3826,  0,     1679,  -2713,
    -2969, 1745,  2725,  -1013, -1732, 3272,  -3283, -3889, -897,  2942,  3807,
    1256,  -2526, 0,     1103,  -3320, 0,     2452,  -3310, -4033, 1050,  1739,
    -1754, 0,     1584,  3529,  3532,  883,   1690,  1667,  0,     914,   -3261,
    3819,  -1120, -1166, -1108, 1188,  -2338, 1348,  2295,  -2154, 1916,  -4032,
    1337,  -3182, -3750, 0,     3486,  771,   1210,  731,   -2694, 944,   -3447,
    1036,  -3678, 3136,  1586,  3359,  1985,  -1261, 2000,  3652,  2426,  -3427,
    780,   3254,  0,     2964,  -1496, -3302, -1873, 0,     -992,  -1022, 4339,
    -1698, 4359,  0,     0,     2163,  3085,  -1622, -1987, 0,     0,     0,
    4519,  -2746, -1066, 4266,  -2031, 3410,  2759,  -2507, 0,     0,     0,
    -1430, -842,  2692,  2512,  -1378, 3987,  4421,  -2159, -1563, 1968,  4484,
    1655,  3141,  -3231, -1270, 1230,  -2382, 4032};
#endif
