<?xml version="1.0"?>
<opencv_storage>
<cascade>
  <stageType>BOOST</stageType>
  <featureType>HAAR</featureType>
  <height>50</height>
  <width>25</width>
  <stageParams>
    <boostType>GAB</boostType>
    <minHitRate>9.9500000476837158e-01</minHitRate>
    <maxFalseAlarm>0.</maxFalseAlarm>
    <weightTrimRate>9.4999999999999996e-01</weightTrimRate>
    <maxDepth>1</maxDepth>
    <maxWeakCount>100</maxWeakCount></stageParams>
  <featureParams>
    <maxCatCount>0</maxCatCount>
    <featSize>1</featSize>
    <mode>BASIC</mode></featureParams>
  <stageNum>9</stageNum>
  <stages>
    <!-- stage 0 -->
    <_>
      <maxWeakCount>2</maxWeakCount>
      <stageThreshold>2.2755131112717208e-12</stageThreshold>
      <weakClassifiers>
        <_>
          <internalNodes>
            0 -1 6 -1.4263159036636353e-01</internalNodes>
          <leafValues>
            5.7564578056335449e+00 -1.0986123085021973e+00</leafValues></_>
        <_>
          <internalNodes>
            0 -1 0 -3.3609496313147247e-05</internalNodes>
          <leafValues>
            5.7564578056335449e+00 -5.7564578056335449e+00</leafValues></_></weakClassifiers></_>
    <!-- stage 1 -->
    <_>
      <maxWeakCount>2</maxWeakCount>
      <stageThreshold>2.2755131112717208e-12</stageThreshold>
      <weakClassifiers>
        <_>
          <internalNodes>
            0 -1 4 -8.5362635552883148e-02</internalNodes>
          <leafValues>
            5.7564578056335449e+00 -8.9587974548339844e-01</leafValues></_>
        <_>
          <internalNodes>
            0 -1 3 -1.0325271636247635e-02</internalNodes>
          <leafValues>
            5.7564578056335449e+00 -5.7564578056335449e+00</leafValues></_></weakClassifiers></_>
    <!-- stage 2 -->
    <_>
      <maxWeakCount>2</maxWeakCount>
      <stageThreshold>2.2755131112717208e-12</stageThreshold>
      <weakClassifiers>
        <_>
          <internalNodes>
            0 -1 12 6.0817284975200891e-04</internalNodes>
          <leafValues>
            -1.0986123085021973e+00 5.7564578056335449e+00</leafValues></_>
        <_>
          <internalNodes>
            0 -1 2 -1.0358139872550964e-02</internalNodes>
          <leafValues>
            5.7564578056335449e+00 -5.7564578056335449e+00</leafValues></_></weakClassifiers></_>
    <!-- stage 3 -->
    <_>
      <maxWeakCount>2</maxWeakCount>
      <stageThreshold>2.2755131112717208e-12</stageThreshold>
      <weakClassifiers>
        <_>
          <internalNodes>
            0 -1 8 -3.8640713319182396e-04</internalNodes>
          <leafValues>
            -1.0986123085021973e+00 5.7564578056335449e+00</leafValues></_>
        <_>
          <internalNodes>
            0 -1 1 8.4774929564446211e-04</internalNodes>
          <leafValues>
            -5.7564578056335449e+00 5.7564578056335449e+00</leafValues></_></weakClassifiers></_>
    <!-- stage 4 -->
    <_>
      <maxWeakCount>1</maxWeakCount>
      <stageThreshold>5.7564578056335449e+00</stageThreshold>
      <weakClassifiers>
        <_>
          <internalNodes>
            0 -1 10 -7.4652656912803650e-02</internalNodes>
          <leafValues>
            5.7564578056335449e+00 -5.7564578056335449e+00</leafValues></_></weakClassifiers></_>
    <!-- stage 5 -->
    <_>
      <maxWeakCount>1</maxWeakCount>
      <stageThreshold>5.7564578056335449e+00</stageThreshold>
      <weakClassifiers>
        <_>
          <internalNodes>
            0 -1 9 1.7400285229086876e-02</internalNodes>
          <leafValues>
            5.7564578056335449e+00 -5.7564578056335449e+00</leafValues></_></weakClassifiers></_>
    <!-- stage 6 -->
    <_>
      <maxWeakCount>1</maxWeakCount>
      <stageThreshold>5.7564578056335449e+00</stageThreshold>
      <weakClassifiers>
        <_>
          <internalNodes>
            0 -1 5 -3.7138678599148989e-03</internalNodes>
          <leafValues>
            -5.7564578056335449e+00 5.7564578056335449e+00</leafValues></_></weakClassifiers></_>
    <!-- stage 7 -->
    <_>
      <maxWeakCount>1</maxWeakCount>
      <stageThreshold>5.7564578056335449e+00</stageThreshold>
      <weakClassifiers>
        <_>
          <internalNodes>
            0 -1 7 -3.2430492341518402e-02</internalNodes>
          <leafValues>
            5.7564578056335449e+00 -5.7564578056335449e+00</leafValues></_></weakClassifiers></_>
    <!-- stage 8 -->
    <_>
      <maxWeakCount>1</maxWeakCount>
      <stageThreshold>5.7564578056335449e+00</stageThreshold>
      <weakClassifiers>
        <_>
          <internalNodes>
            0 -1 11 5.9558573411777616e-04</internalNodes>
          <leafValues>
            -5.7564578056335449e+00 5.7564578056335449e+00</leafValues></_></weakClassifiers></_></stages>
  <features>
    <_>
      <rects>
        <_>
          0 0 1 3 -1.</_>
        <_>
          0 1 1 1 3.</_></rects>
      <tilted>0</tilted></_>
    <_>
      <rects>
        <_>
          0 0 1 8 -1.</_>
        <_>
          0 4 1 4 2.</_></rects>
      <tilted>0</tilted></_>
    <_>
      <rects>
        <_>
          0 0 1 21 -1.</_>
        <_>
          0 7 1 7 3.</_></rects>
      <tilted>0</tilted></_>
    <_>
      <rects>
        <_>
          0 0 6 26 -1.</_>
        <_>
          0 0 3 13 2.</_>
        <_>
          3 13 3 13 2.</_></rects>
      <tilted>0</tilted></_>
    <_>
      <rects>
        <_>
          0 0 12 50 -1.</_>
        <_>
          6 0 6 50 2.</_></rects>
      <tilted>0</tilted></_>
    <_>
      <rects>
        <_>
          0 34 1 14 -1.</_>
        <_>
          0 41 1 7 2.</_></rects>
      <tilted>0</tilted></_>
    <_>
      <rects>
        <_>
          1 3 24 38 -1.</_>
        <_>
          9 3 8 38 3.</_></rects>
      <tilted>0</tilted></_>
    <_>
      <rects>
        <_>
          1 25 24 13 -1.</_>
        <_>
          9 25 8 13 3.</_></rects>
      <tilted>0</tilted></_>
    <_>
      <rects>
        <_>
          2 35 5 4 -1.</_>
        <_>
          2 37 5 2 2.</_></rects>
      <tilted>0</tilted></_>
    <_>
      <rects>
        <_>
          4 11 8 15 -1.</_>
        <_>
          4 16 8 5 3.</_></rects>
      <tilted>0</tilted></_>
    <_>
      <rects>
        <_>
          8 7 12 39 -1.</_>
        <_>
          8 20 12 13 3.</_></rects>
      <tilted>0</tilted></_>
    <_>
      <rects>
        <_>
          19 22 6 16 -1.</_>
        <_>
          22 22 3 16 2.</_></rects>
      <tilted>0</tilted></_>
    <_>
      <rects>
        <_>
          22 0 3 10 -1.</_>
        <_>
          22 5 3 5 2.</_></rects>
      <tilted>0</tilted></_></features></cascade>
</opencv_storage>
